tree
version=v4
num_class=9
num_tree_per_iteration=9
label_index=0
max_feature_idx=13
objective=multiclass num_class:9
feature_names=model car_type fuel_type car_rating year_to_start riders year_to_work mean_rating distance_sum rating_min speed_max user_ride_quality_median deviation_normal_count user_uniq
feature_infos=-1:16:5:19:23:7:15:9:14:22:17:24:8:20:18:6:11:13:1:2:10:0:3:12:4:21 -1:1:3:0:2 -1:1:0 [1.04:8.9000000000000004] [2011:2017] [60:142862] [2014:2022] [3.5298850574712648:5.7007471264367817] [1478866.3194710591:31197854.66144909] [0:1.5] [91.423508122218294:209.98283950882248] [-38.116344812235766:35.77049335204191] none [136:174]
tree_sizes=1962 654 460 2772 3260 3260 3245 1280 2671 3408 3480 3472 3363 3347 3322 3342 3455 3396 3389 3474 3470 3379 3338 3322 3350 3451 3382 3399 3482 3466 3382 3381 3325 3351 3449 3388 3404 3480 3465 3389 3357 3334 3356 3438 3396 3403 3481 3470 3384 3346 3338 3337 3437 3405 3393 3487 3455 3399 3349 3336 3352 3450 3375 3387 3482 3471 3378 3351 3325 3364 3448 3401 3415 3484 3473 3397 3358 3366 3350 3442 3395 3411 3487 3472 3385 3376 3342 3337 3446 3391 3428 3484 3485 3400 3356 3346 3344 3440 3402 3425 3480 3487 3374 3393 3351 3347 3451 3407 3432 3482 3487 3390 3362 3354 3363 3454 3405 3437 3493 3491 3407 3351 3340 3346 3460 3395 3446 3502 3500 3409 3387 3360 3370 3471 3409 3427 3497 3495 3399 3383 3374 3351 3468 3393 3439 3509 3511 3403 3345 3366 3361 3477 3381 3441 3512 3505 3428 3384 3355 3376 3473 3423 3431 3507 3509 3410 3358 3366 3357 3471 3439 3424 3507 3514 3419 3376 3375 3365 3481 3400 3439 3524 3514 3433 3372 3346 3370 3496 3377 3424 3523 3523 3427 3364 3375 3367 3504 3385 3455 3521 3518 3419 3352 3375 3378 3492 3392 3423 3525 3534 3442 3373 3389 3367 3494 3377 3484 3531 3523 3455 3383 3368 3381 3485 3375 3434 3527 3534 3435 3388 3394 3388 3465 3381 3445 3525 3530 3451 3400 3389 3393 3479 3388 3437 3531 3531 3435 3363 3406 3408 3482 3417

Tree=0
num_leaves=18
num_cat=0
split_feature=7 10 10 7 7 10 5 11 3 7 10 10 5 5 3 3 3
split_gain=248.428 861.664 36.9968 15.9948 14.6952 76.0201 11.3293 8.48222 6.7976 2.2286 6.97887 0.461901 1.15475 0.337515 2.84217e-14 7.10543e-15 1.77636e-15
threshold=4.5675000000000008 171.355343730649 165.00187963228265 4.6919827586206901 4.4766379310344844 173.93716164716167 77941.000000000015 -5.0078657314666826 4.0500000000000007 4.4088218390804608 177.52967034204298 155.01867274723674 79867.500000000015 81665.500000000015 4.6300000000000008 6.0100000000000007 5.1100000000000003
decision_type=2 2 2 2 2 2 2 2 2 2 2 2 2 2 2 2 2
left_child=4 2 11 6 9 -6 8 -5 -3 14 16 15 -13 -9 -1 -2 -11
right_child=1 3 -4 7 5 -7 -8 13 -10 10 -12 12 -14 -15 -16 -17 -18
leaf_value=-2.2269185829294567 -2.2269185829294567 -1.803956558894269 -1.9127182222176027 -1.5762077767214757 -2.2269185829294567 -1.7714210185838697 -1.4414176811498223 -1.3809945348590804 -1.5924755468766749 -2.2269185829294567 -2.0683078239162609 -2.2269185829294567 -2.1423261781224188 -1.4232907372626 -2.2269185829294567 -2.2269185829294567 -2.2269185829294567
leaf_weight=64.781229138374329 43.148081451654434 2.3642784357070941 4.1374872624874106 3.0735619664192209 17.85030218958855 4.6103429496288291 3.3099898099899292 9.3388998210430092 4.2557011842727661 7.5656909942626935 3.7828454971313468 5.0831986367702475 2.3642784357070923 2.3642784357070932 37.473813205957413 2.6007062792778006 2.8371341228485107
leaf_count=548 365 20 35 26 151 39 28 79 36 64 32 43 20 20 317 22 24
internal_value=-2.12599 -1.98801 -2.20076 -1.49432 -2.20748 -2.13342 -1.59248 -1.42837 -1.668 -2.22177 -2.18462 -2.22316 -2.20006 -1.38954 -2.22692 -2.22692 -2.22692
internal_weight=220.942 82.0405 57.3338 24.7067 138.901 22.4606 9.92997 14.7767 6.61998 116.441 14.1857 53.1963 7.44748 11.7032 102.255 45.7488 10.4028
internal_count=1869 694 485 209 1175 190 84 125 56 985 120 450 63 99 865 387 88
is_linear=0
shrinkage=1


Tree=1
num_leaves=5
num_cat=0
split_feature=7 7 7 3
split_gain=1626.91 3.368 0.408847 2.27374e-13
threshold=4.9840229885057479 5.1855747126436791 4.9038505747126448 5.7100000000000009
decision_type=2 2 2 2
left_child=2 -2 -1 -3
right_child=1 3 -4 -5
leaf_value=-2.2583845299181746 -1.5129788974563043 -1.3887446253793252 -2.2169731058925151 -1.388744625379325
leaf_weight=187.43389986455441 2.4147925749421146 20.123271457850937 2.4147925749421111 2.5297826975584021
leaf_count=1630 21 175 21 22
internal_value=-2.15788 -1.40071 -2.25786 -1.38874
internal_weight=214.917 25.0678 189.849 22.6531
internal_count=1869 218 1651 197
is_linear=0
shrinkage=1


Tree=2
num_leaves=3
num_cat=0
split_feature=9 3
split_gain=1661.33 2.27374e-13
threshold=1.0000000180025095e-35 3.7500000000000004
decision_type=2 2
left_child=1 -1
right_child=-2 -3
leaf_value=-1.4050130836311245 -2.3393350222253222 -1.4050130836311241
leaf_weight=6.100680939853194 178.73924858868122 15.198187604546545
leaf_count=57 1670 142
internal_value=-2.23985 -1.40501
internal_weight=200.038 21.2989
internal_count=1869 199
is_linear=0
shrinkage=1


Tree=3
num_leaves=26
num_cat=0
split_feature=10 10 7 10 10 7 11 10 10 7 5 8 10 6 7 7 10 11 7 11 3 3 7 3 3
split_gain=157.663 530.148 317.79 44.69 30.0569 10.5117 9.83719 9.30215 5.83475 10.4794 5.80105 5.43525 4.8529 4.10701 3.91431 1.33029 3.58611 2.54278 1.22009 0.34131 1.42109e-14 7.10543e-15 7.10543e-15 1.77636e-15 1.77636e-15
threshold=171.76912829079157 140.46021334470845 4.3146264367816096 166.75855747030897 149.40031561097331 4.7326436781609207 -1.1879224066009539 162.2451684170023 177.52967034204298 4.3368678160919547 77941.000000000015 13523697.457661146 163.03832852553225 2018.5000000000002 4.5797126436781612 4.5339655172413798 186.90673329167706 -1.3371500636644569 4.6112931034482765 -10.264686389259609 5.1100000000000003 5.9900000000000011 4.4678448275862079 4.7700000000000005 4.6300000000000008
decision_type=2 2 2 2 2 2 2 2 2 2 2 2 2 2 2 2 2 2 2 2 2 2 2 2 2
left_child=1 21 12 4 -4 7 -5 13 9 19 -11 -9 -3 18 -15 20 17 -17 -6 -2 -10 22 -1 -14 -21
right_child=8 2 3 6 5 -7 -8 11 15 10 -12 -13 23 14 -16 16 -18 -19 -20 24 -22 -23 -24 -25 -26
leaf_value=-2.2583845299181746 -2.2149025346912321 -2.1225032948339795 -1.8757429719210814 -1.7445064045088545 -1.3887446253793259 -1.6993303055717712 -2.0148853566472966 -1.5191906110601523 -2.2583845299181746 -2.0168178897684941 -2.2149025346912321 -1.7366005871948649 -2.2583845299181746 -1.5986577057852545 -1.4467206190152484 -2.0844565490104046 -2.2583845299181746 -2.213787611736695 -1.4757086158332102 -2.2583845299181746 -2.2583845299181746 -2.2583845299181746 -2.2583845299181746 -2.2583845299181746 -2.2583845299181746
leaf_weight=10.809071525931357 2.2998024523258218 3.6796839237213126 2.8747530654072824 2.529782697558403 5.4045357629656845 3.2197234332561484 2.8747530654072753 2.29980245232582 57.840031675994396 4.1396444141864768 2.2998024523258209 2.2998024523258209 6.5544369891285879 3.3347135558724403 3.4497036784887314 2.2998024523258209 14.143785081803797 4.4846147820353535 2.2998024523258209 5.4045357629656792 13.568834468722342 3.4497036784887305 47.720900885760784 2.6447728201746941 2.9897431880235672
leaf_count=94 20 32 25 22 47 28 25 20 503 36 20 20 57 29 30 20 123 39 20 47 118 30 415 23 26
internal_value=-2.15788 -2.07061 -1.80286 -1.62741 -1.57141 -1.53219 -1.88832 -1.504 -2.24194 -2.18835 -2.08756 -1.6279 -2.21956 -1.46467 -1.5214 -2.25189 -2.22972 -2.16995 -1.4147 -2.24903 -2.25838 -2.25838 -2.25838 -2.25838 -2.25838
internal_weight=214.917 105.446 43.4663 30.5874 25.1828 22.3081 5.40454 19.0884 109.471 17.1335 6.43945 4.5996 12.8789 14.4888 6.78442 92.3371 20.9282 6.78442 7.70434 10.6941 71.4089 61.9797 58.53 9.19921 8.39428
internal_count=1869 917 378 266 219 194 47 166 952 149 56 40 112 126 59 803 182 59 67 93 621 539 509 80 73
is_linear=0
shrinkage=1


Tree=4
num_leaves=31
num_cat=0
split_feature=7 10 9 10 13 13 10 10 11 10 5 8 7 10 13 10 10 7 6 6 11 3 11 11 13 5 3 3 3 8
split_gain=242.761 374.383 128.805 96.5498 33.1729 27.9856 26.2917 21.527 9.74975 8.91252 8.65816 7.45028 6.41737 5.77364 6.14717 5.79916 4.18189 4.12888 3.65111 3.10001 1.59968 1.3564 4.6742 0.892172 0.308456 0.306368 0.289367 0.255998 1.42109e-14 1.42109e-14
threshold=4.3260057471264375 179.64264416890325 1.0000000180025095e-35 146.03623903419813 171.50000000000003 171.50000000000003 175.91025843957382 185.51148389561538 -3.1120795590895196 190.76095885904087 81544.500000000015 11876343.642281836 4.464425287356323 155.01867274723674 170.50000000000003 176.78721580027999 183.32296829690884 4.2062356321839092 2017.5000000000002 2018.5000000000002 2.8122314293473689 4.9700000000000015 -8.7704434313240416 7.1344172537649673 167.50000000000003 47819.000000000007 5.2300000000000013 4.4500000000000011 6.4700000000000015 7054848.8910105946
decision_type=2 2 2 2 2 2 2 2 2 2 2 2 2 2 2 2 2 2 2 2 2 2 2 2 2 2 2 2 2 2
left_child=1 2 -1 -4 7 17 10 -3 9 -9 11 -7 13 -2 -15 -16 19 18 -5 -6 -10 23 -23 -18 -14 -17 -24 -20 29 -26
right_child=12 4 3 5 16 6 -8 8 20 -11 -12 -13 24 14 15 25 21 -19 27 -21 -22 22 26 -25 28 -27 -28 -29 -30 -31
leaf_value=-2.286191925843577 -2.286191925843577 -1.8787625408401787 -2.2861919258435766 -1.5486042460960463 -2.0924415389533739 -1.70687826904187 -1.9678877188096722 -2.1970667478740835 -2.1833551820326229 -1.9296912139656035 -1.7824409199290494 -1.4759630352118194 -2.2543615051401864 -2.0431232586540498 -2.1262236576932043 -2.2416293368588303 -2.286191925843577 -1.6177530910723767 -1.3949401461486437 -2.2474418484655363 -2.286191925843577 -2.1079415699045905 -2.243751364905723 -2.2337653505674044 -2.286191925843577 -2.286191925843577 -2.286191925843577 -1.4395027351333904 -2.286191925843577 -2.286191925843577
leaf_weight=4.0392627418041256 9.8737533688545245 3.9270609989762297 2.356236599385741 3.2538505420088786 2.5806400850415221 2.2440348565578443 3.1416487991809836 2.2440348565578452 2.917245313525199 2.8050435706973076 2.580640085041523 3.702657513320446 3.1416487991809836 2.4684383422136298 4.3758679702877981 2.2440348565578461 21.76713810861111 2.2440348565578452 3.0294470563530922 2.580640085041523 3.1416487991809845 2.2440348565578461 2.3562365993857366 3.8148592561483374 4.9368766844272605 4.9368766844272614 5.0490784272551537 2.2440348565578461 2.2440348565578452 91.220016919076443
leaf_count=36 88 35 21 29 23 20 28 20 26 25 23 33 28 22 39 20 194 20 27 23 28 20 21 34 44 44 45 20 20 813
internal_value=-2.18605 -2.05478 -1.76254 -1.67724 -2.20681 -1.6133 -1.72059 -2.08001 -2.15115 -2.04852 -1.62948 -1.5631 -2.27423 -2.22761 -2.18637 -2.21697 -2.25401 -1.49706 -1.4653 -2.16994 -2.23668 -2.26632 -2.23437 -2.27837 -2.28521 -2.27227 -2.27269 -1.4139 -2.28619 -2.28619
internal_weight=209.705 84.2635 28.8358 24.7966 55.4277 22.4403 11.669 15.035 11.108 5.04908 8.52733 5.94669 125.442 23.899 14.0252 11.5568 40.3926 10.7714 8.52733 5.16128 6.05889 35.2313 9.64935 25.582 101.543 7.18091 7.40532 5.27348 98.4009 96.1569
internal_count=1869 751 257 221 494 200 104 134 99 45 76 53 1118 213 125 103 360 96 76 46 54 314 86 228 905 64 66 47 877 857
is_linear=0
shrinkage=1


Tree=5
num_leaves=31
num_cat=0
split_feature=7 13 9 10 9 10 13 8 11 5 10 11 6 13 10 8 4 11 7 13 10 4 10 5 13 10 7 10 10 3
split_gain=229.926 96.3227 92.5303 53.5859 63.1333 25.8686 25.2603 19.1884 17.6151 13.7178 15.5812 13.2527 11.6821 11.5521 11.0585 10.4314 9.38124 8.86465 5.88766 14.3785 5.16043 2.94348 2.77484 4.23202 4.09899 2.02755 1.04189 2.52685 0.487112 0.333854
threshold=4.3542816091954029 173.50000000000003 1.0000000180025095e-35 179.25716254450148 1.0000000180025095e-35 179.25716254450148 172.50000000000003 15249011.921033477 6.8238841705048339 58157.500000000007 192.64768758610811 -0.3780410004489877 2017.5000000000002 171.50000000000003 187.7774664190456 8567334.9829017073 2014.5000000000002 -2.5278330128046922 4.4118390804597709 173.50000000000003 188.43203243864619 2013.5000000000002 165.00187963228265 76393.500000000015 171.50000000000003 170.49706174590207 4.4729597701149437 187.9675580817684 182.70680714856175 5.1900000000000004
decision_type=2 2 2 2 2 2 2 2 2 2 2 2 2 2 2 2 2 2 2 2 2 2 2 2 2 2 2 2 2 2
left_child=1 3 -3 15 -5 -4 7 8 20 12 11 -11 -8 17 -7 -1 -16 -9 19 -2 28 -22 -17 25 -25 -24 27 29 -6 -20
right_child=18 2 5 4 6 14 9 13 -10 10 -12 -13 -14 -15 16 22 -18 -19 26 -21 21 -23 23 24 -26 -27 -28 -29 -30 -31
leaf_value=-2.0301224028635994 -2.247909726923278 -2.2629641502453754 -1.957359356806794 -2.2629641502453754 -2.1756484949772092 -1.423390541897624 -1.8536720161758466 -1.8660748081173477 -1.8471753156350605 -1.8263858739045449 -1.9607176512401852 -1.5088744002021226 -2.1232591018163096 -1.7681754370591007 -1.7778771765333414 -2.2629641502453754 -1.5145442479468088 -2.1232591018163096 -2.2629641502453754 -1.9573593568067942 -2.1622153172436454 -2.0331861100659911 -2.1659467555029686 -2.2265826272169731 -2.0689293607605617 -2.2629641502453754 -2.2610042028768418 -2.138227499862281 -2.2347978098362895 -2.2193063226112923
leaf_weight=3.4358100593090084 6.642566114664076 3.321283057332038 2.2905400395393363 8.8185791522264463 2.2905400395393389 2.9777020514011365 3.6648640632629386 2.5195940434932709 2.4050670415163031 2.7486480474472037 2.9777020514011383 2.51959404349327 2.8631750494241714 3.4358100593090057 3.0922290533781052 8.3604711443185824 2.405067041516304 2.8631750494241697 7.444255128502844 2.2905400395393372 2.9777020514011383 4.3520260751247406 3.0922290533781069 2.7486480474472037 4.1229720711708069 7.1006741225719452 102.04355876147747 2.4050670415163031 3.5503370612859726 2.2905400395393372
leaf_count=30 58 29 20 77 20 26 32 22 21 24 26 22 25 30 27 73 21 25 65 20 26 38 27 24 36 62 891 21 31 20
internal_value=-2.16252 -2.04193 -1.80154 -2.08599 -2.02123 -1.65919 -1.96681 -2.0293 -2.09604 -1.86361 -1.77788 -1.67453 -1.97191 -1.91143 -1.5786 -2.19367 -1.66267 -2.00287 -2.25159 -2.17341 -2.14148 -2.0856 -2.21577 -2.19264 -2.13199 -2.23353 -2.25771 -2.23001 -2.2116 -2.25269
internal_weight=214.051 90.9344 14.0868 76.8476 47.9868 10.7655 39.1682 24.3943 15.5757 14.774 8.24594 5.26824 6.52804 8.81858 8.475 28.8608 5.4973 5.38277 123.117 8.93311 13.1706 7.32973 25.425 17.0645 6.87162 10.1929 114.183 12.1399 5.84088 9.7348
internal_count=1869 794 123 671 419 94 342 213 136 129 72 46 57 77 74 252 48 47 1075 78 115 64 222 149 60 89 997 106 51 85
is_linear=0
shrinkage=1


Tree=6
num_leaves=31
num_cat=0
split_feature=10 7 9 13 10 10 5 8 8 6 7 11 3 5 6 6 4 7 7 11 6 11 7 10 8 11 3 7 3 3
split_gain=255.126 157.232 174.844 56.2636 9.88712 9.57415 8.29142 14.257 14.3263 13.6813 14.156 9.07539 8.21327 8.07281 10.11 10.5806 7.0965 6.22938 7.37458 3.86945 3.77543 4.30116 1.47203 1.44812 2.44673 0.986274 0.85871 0.293875 3.55271e-15 1.77636e-15
threshold=179.87879351384387 4.4678448275862079 1.0000000180025095e-35 173.50000000000003 176.2067176782966 187.7774664190456 45006.500000000007 11615925.668899888 9653200.5375902429 2016.5000000000002 4.1848563218390815 -1.1046748766488055 4.4300000000000006 41498.500000000007 2019.5000000000002 2017.5000000000002 2014.5000000000002 4.1052298850574722 3.9743678160919544 -0.67486404219199103 2017.5000000000002 -3.1120795590895196 4.5164655172413797 166.75855747030897 8567334.9829017073 10.499706447348887 5.0700000000000012 4.1052298850574722 3.5100000000000002 3.77
decision_type=2 2 2 2 2 2 2 2 2 2 2 2 2 2 2 2 2 2 2 2 2 2 2 2 2 2 2 2 2 2
left_child=4 2 29 6 23 -5 13 8 -8 11 17 -9 -10 14 15 19 -7 18 -11 -4 -6 -22 -3 27 -25 26 -26 -1 -24 -2
right_child=1 22 3 5 20 16 7 9 12 10 -12 -13 -14 -15 -16 -17 -18 -19 -20 -21 21 -23 28 24 25 -27 -28 -29 -30 -31
leaf_value=-2.1617723990646991 -2.1921656016330426 -2.1101039546985145 -1.675481157971199 -2.1606034297351475 -2.0194042396656151 -1.852600166041892 -1.819158115567006 -2.1101039546985145 -1.6997957200258744 -1.8990882911525853 -1.6202207896651197 -1.8404728290564942 -1.4461506295009694 -1.5278570312106723 -1.9049498373621945 -1.5142650399999846 -2.0608669665377977 -1.9459806608294585 -1.7042314847250379 -1.835375832352486 -2.0280423077639869 -2.1921656016330426 -2.1921656016330426 -2.0690731312312507 -2.1921656016330426 -2.1175641044198357 -2.1392226036107664 -2.1921656016330426 -2.1921656016330426 -2.1921656016330426
leaf_weight=3.290209472179412 4.3869459629058829 2.4371922016143825 3.2902094721794111 3.1683498620986921 4.63066518306732 3.5339286923408508 4.0213671326637286 2.4371922016143799 2.4371922016143799 3.4120690822601301 4.0213671326637259 2.5590518116951015 2.6809114217758179 2.559051811695098 2.437192201614379 2.8027710318565369 3.0464902520179749 3.6557883024215698 4.5088055729866028 2.8027710318565369 2.4371922016143799 4.6306651830673218 4.3869459629058865 2.4371922016143825 16.207328140735633 2.680911421775817 3.7776479125022879 96.147232353687286 16.816626191139221 10.114347636699675
leaf_count=27 36 20 27 26 38 29 33 20 20 28 33 21 22 21 20 23 25 30 37 23 20 38 36 20 133 22 31 789 138 83
internal_value=-2.09074 -1.96161 -1.88425 -1.80059 -2.17749 -2.01778 -1.75206 -1.78186 -1.67791 -1.82799 -1.78186 -1.972 -1.56693 -1.68828 -1.7245 -1.67506 -1.94902 -1.838 -1.78817 -1.74903 -2.08959 -2.13557 -2.18371 -2.18574 -2.16428 -2.17452 -2.18216 -2.19116 -2.19217 -2.19217
internal_weight=227.756 91.5166 67.8758 53.3745 136.239 9.74877 43.6257 29.7337 9.13947 20.5943 15.598 4.99624 5.1181 13.892 11.3329 8.89575 6.58042 11.5767 7.92087 6.09298 11.6985 7.06786 23.6408 124.541 25.1031 22.6659 19.985 99.4374 21.2036 14.5013
internal_count=1869 751 557 438 1118 80 358 244 75 169 128 41 42 114 93 73 54 95 65 50 96 58 194 1022 206 186 164 816 174 119
is_linear=0
shrinkage=1


Tree=7
num_leaves=11
num_cat=1
split_feature=10 7 10 10 10 10 7 2 7 3
split_gain=633.051 646.601 116.952 33.1616 14.2866 12.5167 10.368 2.84217e-14 2.84217e-14 3.55271e-15
threshold=122.6786819607369 4.7696264367816097 117.99437476732167 119.04983012325317 130.36460905358723 114.66692025882982 4.7661206896551738 0 3.9092816091954021 5.7100000000000009
decision_type=2 2 2 2 2 2 2 1 2 2
left_child=1 2 5 -4 6 -1 -2 8 -6 -3
right_child=4 9 3 -5 7 -7 -8 -9 -10 -11
leaf_value=-1.3763438918383026 -1.9569491481378996 -2.2093862160942463 -2.0579239753204384 -1.6348742683315263 -2.2093862160942463 -1.5846044729022881 -2.2093862160942459 -2.2093862160942463 -2.2093862160942463 -2.2093862160942463
leaf_weight=20.407126694917686 3.961383417248725 20.887294381856922 3.961383417248725 3.4812157303094864 10.443647190928457 3.3611738085746756 2.7609641999006271 3.4812157303094855 149.09206679463387 2.5208803564310065
leaf_count=170 33 174 33 29 87 28 23 29 1242 21
internal_value=-2.10821 -1.81209 -1.51412 -1.86005 -2.20349 -1.40579 -2.06063 -2.20939 -2.20939 -2.20939
internal_weight=224.358 54.6191 31.2109 7.4426 169.739 23.7683 6.72235 163.017 159.536 23.4082
internal_count=1869 455 260 62 1414 198 56 1358 1329 195
cat_boundaries=0 1
cat_threshold=2
is_linear=0
shrinkage=1


Tree=8
num_leaves=25
num_cat=0
split_feature=10 10 7 7 3 10 10 13 10 7 13 10 11 11 8 8 10 5 11 10 7 3 3 3
split_gain=174.665 390.145 209.155 84.1651 44.1987 20.8938 13.0958 20.6359 11.2533 12.8996 9.89529 11.871 3.83394 4.18428 3.44445 1.70533 1.44137 3.55138 5.54904 0.105002 0.558323 7.10543e-15 8.88178e-16 8.88178e-16
threshold=151.98308312868446 117.99437476732167 4.9840229885057479 4.5266379310344833 3.3900000000000001 142.50000000000003 114.66692025882982 172.50000000000003 163.82677743995302 4.7326436781609207 171.50000000000003 126.40260101118243 2.1515455814352502 -2.8235623165310382 13213928.926522406 14374840.804941511 170.49706174590207 85166.000000000015 -0.21184238341655678 175.55639645324339 4.6608045977011505 6.2100000000000009 5.0500000000000007 4.8100000000000014
decision_type=2 2 2 2 2 2 2 2 2 2 2 2 2 2 2 2 2 2 2 2 2 2 2 2
left_child=1 6 3 5 -5 -3 -1 -8 9 12 14 -12 13 15 -6 -2 17 22 -19 20 -18 -21 -10 -14
right_child=8 2 -4 4 10 -7 7 -9 16 -11 11 -13 23 -15 -16 -17 19 18 -20 21 -22 -23 -24 -25
leaf_value=-2.7460007158360309 -2.7460007158360309 -2.0882320370053167 -2.7460007158360309 -2.2043088626813243 -1.391771082949266 -2.5525393397093499 -2.294590838207109 -2.7460007158360309 -2.7460007158360309 -2.3766653614123676 -1.8996071952818028 -1.5207453337003862 -2.7460007158360309 -2.5376576953919128 -1.5949055278822806 -2.6105777525473544 -2.7460007158360309 -2.7460007158360309 -2.4751547892586778 -2.7460007158360309 -2.6782892341916926 -2.7460007158360309 -2.7460007158360309 -2.7460007158360309
leaf_weight=22.743557512760166 2.5106524527072902 2.5844951719045666 3.7659786790609351 1.4768543839454631 1.9199106991291048 1.5506971031427381 1.772225260734557 2.3629670143127441 4.7259340286254865 1.6245398223400105 1.7722252607345583 1.5506971031427381 3.3229223638772964 2.879866048693656 1.4768543839454649 1.4768543839454649 6.9412156045436841 1.5506971031427386 1.4768543839454649 62.027884125709534 1.4768543839454649 2.0675961375236502 1.4768543839454649 1.4768543839454649
leaf_count=308 34 35 51 20 26 21 24 32 64 22 24 21 45 39 20 20 94 21 20 840 20 28 20 20
internal_value=-2.65036 -2.48307 -2.09373 -1.89454 -1.70898 -2.26235 -2.71624 -2.55254 -2.72601 -2.64067 -1.60011 -1.7228 -2.67743 -2.62951 -1.48009 -2.69584 -2.73988 -2.70267 -2.61388 -2.74462 -2.73412 -2.746 -2.746 -2.746
internal_weight=138.012 42.9765 16.0977 12.3317 8.19654 4.13519 26.8787 4.13519 95.0356 13.2917 6.71969 3.32292 11.6671 6.86737 3.39677 3.98751 81.7439 9.23034 3.02755 72.5136 8.41807 64.0955 6.20279 4.79978
internal_count=1869 582 218 167 111 56 364 56 1287 180 91 45 158 93 46 54 1107 125 41 982 114 868 84 65
is_linear=0
shrinkage=1


Tree=9
num_leaves=31
num_cat=0
split_feature=7 10 7 10 9 8 10 13 3 7 11 7 5 10 11 7 10 9 10 7 10 3 7 10 10 13 7 10 10 13
split_gain=184.915 406.86 13.7081 45.5124 27.2049 13.5819 12.7244 4.38583 3.74093 2.74116 1.74174 1.61198 0.634666 0.399073 1.29402 0.293054 0.000295674 0.00028072 8.17492e-05 5.02659e-05 4.86102e-05 3.50902e-05 2.93142e-05 2.81986e-05 3.61435e-05 2.59874e-05 2.90663e-05 2.29025e-05 2.10645e-05 2.59681e-05
threshold=4.5610344827586218 166.75855747030897 4.4088218390804608 173.93716164716167 1.0000000180025095e-35 12369740.544911986 174.9923928057286 171.50000000000003 3.8900000000000001 4.6919827586206901 0.61527590438322344 4.576695402298852 48220.500000000007 155.01867274723674 -5.0078657314666826 4.7227298850574719 161.04138948148065 1.0000000180025095e-35 173.0422265131908 4.3497126436781626 115.47130991502867 4.6900000000000004 4.5070114942528745 149.40031561097331 162.85253543556786 171.50000000000003 4.7661206896551738 185.6744666284859 115.47130991502867 171.50000000000003
decision_type=2 2 2 2 2 2 2 2 2 2 2 2 2 2 2 2 2 2 2 2 2 2 2 2 2 2 2 2 2 2
left_child=2 11 17 20 -5 -6 9 12 -9 -3 -10 -2 -8 25 -15 -14 -16 -1 28 21 -4 27 23 -22 -25 26 -13 -20 -19 -30
right_child=1 6 3 4 5 -7 7 8 10 -11 -12 13 15 14 16 -17 -18 18 19 -21 22 -23 -24 24 -26 -27 -28 -29 29 -31
leaf_value=-0.098915693108792904 -0.0062548472348547841 0.13856929475325469 -0.099087940955919718 -0.10258244339581064 0.4188418413798296 0.13989069109684577 0.36319121554757428 0.24400411568938707 0.30710666115342955 0.26397862738606087 0.38214283436547702 -0.098795445553863159 0.41909989395236658 -0.00957388098325734 -0.099599824577581139 0.38695942077721746 -0.10108611714918594 -0.099010673698340032 -0.099378435149500011 -0.099889874733812375 -0.099713635624938263 -0.099311413730074613 -0.099214843618237458 -0.09912228977081057 -0.099643673337810532 -0.099119016157294293 -0.099146441426435236 -0.099548491698501995 -0.099135745042512435 -0.09938196403127586
leaf_weight=15.777685664594172 2.1424184739589682 3.2544522881507865 9.0371195077896136 2.9373576194047928 3.0463819652795774 4.0872587189078331 7.5336567163467434 5.0525989979505566 5.9535411745309812 3.7525947242975235 6.4392831921577454 6.0799544081091863 4.8853012025356275 2.211012102663517 3.1263975352048865 6.7657851725816727 2.3404283821582794 4.1293193474411991 12.7323742210865 2.4236434847116461 3.5894124880433065 18.050095774233341 6.2814113646745673 3.0187130868434906 2.3761538192629814 29.036186777055264 3.8553929775953293 20.95057812333107 8.3362359032034892 8.8108223006129247
leaf_count=154 20 21 87 23 20 29 39 28 32 23 33 60 26 20 29 34 20 40 120 22 33 171 60 29 22 279 37 195 80 83
internal_value=-7.56531e-06 0.107344 -0.0790172 -0.0251989 0.15355 0.259015 0.329196 0.352814 0.316527 0.205732 0.346095 -0.0910707 0.38581 -0.0949659 -0.0741278 0.400436 -0.100236 -0.0992993 -0.0993795 -0.0994448 -0.0992718 -0.0994239 -0.0993806 -0.0994964 -0.0993519 -0.0990712 -0.0989316 -0.0994842 -0.0992134 -0.0992623
internal_weight=218.014 92.429 125.585 34.3738 10.071 7.13364 43.6372 36.6302 17.4454 7.00705 12.3928 48.7918 19.1847 46.6494 7.67784 11.6511 5.46683 91.2108 75.4331 54.1567 24.3028 51.733 15.2657 8.98428 5.39487 38.9715 9.93535 33.683 21.2764 17.1471
internal_count=1869 701 1168 303 72 49 236 192 93 44 65 465 99 445 69 60 49 865 711 508 231 486 144 84 51 376 97 315 203 163
is_linear=0
shrinkage=0.1


Tree=10
num_leaves=31
num_cat=0
split_feature=7 10 7 7 10 10 9 10 7 7 7 7 10 10 3 10 13 10 10 7 10 13 10 10 10 7 5 13 5 5
split_gain=772.281 1.35698 0.434177 0.303847 0.00164127 0.00306124 0.000439577 0.000233476 8.66334e-05 7.95806e-05 8.62108e-05 7.02703e-05 2.85465e-05 2.83161e-05 3.42637e-05 2.54871e-05 2.29674e-05 4.56626e-05 3.46891e-05 2.14795e-05 4.094e-05 2.10703e-05 3.7337e-05 3.36465e-05 1.82699e-05 5.2765e-05 2.55108e-05 1.79501e-05 1.73125e-05 1.66331e-05
threshold=4.9840229885057479 123.21558831978714 4.9038505747126448 5.2040517241379325 115.04917798808715 118.00493940213688 1.0000000180025095e-35 162.85253543556786 4.4799425287356334 4.7041091954023004 4.3497126436781626 4.5937643678160933 166.75855747030897 185.51148389561538 4.6900000000000004 173.0422265131908 171.50000000000003 114.66692025882982 119.04983012325317 4.5414080459770121 149.40031561097331 171.50000000000003 180.0448899158265 175.91025843957382 152.0048071552641 4.5706609195402308 62883.000000000007 172.50000000000003 77941.000000000015 82380.000000000015
decision_type=2 2 2 2 2 2 2 2 2 2 2 2 2 2 2 2 2 2 2 2 2 2 2 2 2 2 2 2 2 2
left_child=2 3 6 -2 -5 -6 8 16 -1 10 13 12 -12 21 -15 -11 24 -18 -19 20 -20 -9 23 29 25 -8 -27 -16 -13 -23
right_child=1 -3 -4 4 5 -7 7 9 -10 15 11 28 -14 14 27 -17 17 18 19 -21 -22 22 -24 -25 -26 26 -28 -29 -30 -31
leaf_value=-0.098551238523632456 0.40134205135793988 0.32158270844063241 -0.054450094241885953 0.37415645295856781 0.37763502306709018 0.37413679963344521 -0.098817932295211255 -0.098862402535751515 -0.097944468228797488 -0.099135028617371446 -0.09909705861863817 -0.099183338249801842 -0.099486404790373989 -0.099180071675277634 -0.099090075082496856 -0.098748466137201341 -0.098712180127880536 -0.099232402835723377 -0.099306725047039968 -0.098772530593838503 -0.098800981503703617 -0.098923232502253045 -0.098845999320480132 -0.099399387999036776 -0.0988427650440728 -0.098697728222183256 -0.098267892369753446 -0.098838020470694718 -0.09891124935513089 -0.099259162312182278
leaf_weight=16.808122627437118 4.8487810939550391 4.8006491214036933 2.2256187647581092 24.248945772647858 4.4543555080890638 5.7058407068252563 8.5337654948234576 11.726289682090284 2.7361306026577941 2.0836595445871344 2.2853462100029018 5.1247916817665082 10.699758768081663 20.377025634050373 5.6031146943569166 9.4007876217365247 12.197411954402925 3.7800334170460728 2.8488210737705213 7.2848306000232697 3.6531497314572334 4.9194780513644236 6.4152063056826583 3.613893561065197 8.6561761423945409 2.2076520696282378 3.6863810047507286 5.6992277503013611 4.3011863231658936 2.1044365540146828
leaf_count=169 25 24 21 119 22 28 84 115 29 20 22 49 100 195 54 93 121 36 27 72 36 48 63 34 85 22 38 56 42 20
internal_value=-0.0011022 0.371769 -0.0983263 0.377906 0.374604 0.37567 -0.0989119 -0.098971 -0.0984663 -0.0990653 -0.0990995 -0.099267 -0.0994179 -0.0990374 -0.0991026 -0.0988186 -0.0988028 -0.0988608 -0.098964 -0.0988905 -0.0990226 -0.0989656 -0.0990365 -0.0991514 -0.0987279 -0.098659 -0.0984289 -0.098963 -0.0990592 -0.0990239
internal_weight=213.031 44.0586 168.972 39.2579 34.4091 10.1602 166.747 147.202 19.5443 94.3542 82.8698 22.4111 12.9851 60.4587 31.6794 11.4844 52.8482 29.7642 17.5668 13.7868 6.50197 28.7793 17.053 10.6378 23.084 14.4278 5.89403 11.3023 9.42598 7.02391
internal_count=1869 218 1651 194 169 50 1630 1432 198 911 798 213 122 585 305 113 521 292 171 135 63 280 165 102 229 144 60 110 91 68
is_linear=0
shrinkage=0.1


Tree=11
num_leaves=31
num_cat=0
split_feature=9 7 10 7 7 11 11 11 10 7 7 7 10 10 10 3 10 7 10 10 10 10 10 13 7 7 7 6 13 10
split_gain=752.112 0.286834 0.0329468 0.0147181 0.011639 0.00258455 0.00145802 0.000574889 0.000238125 7.82778e-05 6.58363e-05 5.36479e-05 3.13099e-05 2.17888e-05 2.163e-05 2.61697e-05 1.86159e-05 1.76321e-05 3.34464e-05 3.64387e-05 2.32708e-05 1.80543e-05 4.28305e-05 1.74717e-05 2.77227e-05 2.04153e-05 1.83162e-05 1.71788e-05 1.60983e-05 2.85223e-05
threshold=1.0000000180025095e-35 4.4799425287356334 182.99297165527062 4.2877011494252883 4.3542816091954029 -0.83386138141275701 -5.3526035113043244 7.0040143123446805 162.85253543556786 4.7041091954023004 4.3497126436781626 4.5937643678160933 172.97674782766779 166.75855747030897 185.51148389561538 4.6900000000000004 192.37507083353523 4.5706609195402308 114.66692025882982 149.40031561097331 123.21558831978714 151.98308312868446 137.77666439647368 171.50000000000003 4.7661206896551738 5.1855747126436791 4.7934195402298858 2018.5000000000002 171.50000000000003 180.0448899158265
decision_type=2 2 2 2 2 2 2 2 2 2 2 2 2 2 2 2 2 2 2 2 2 2 2 2 2 2 2 2 2 2
left_child=1 2 3 5 6 -1 -4 16 17 10 14 13 -11 -12 28 -16 -8 18 -2 20 -20 22 23 24 -19 26 -25 -21 -10 -30
right_child=8 -3 4 -5 -6 -7 7 -9 9 12 11 -13 -14 -15 15 -17 -18 21 19 27 -22 -23 -24 25 -26 -27 -28 -29 29 -31
leaf_value=0.38992233137622873 -0.097871228345826414 0.41055733415562046 0.38436207126204064 0.39560121392561992 0.38879278594117844 0.38631522826446812 0.38174884669616077 0.38333482603756436 -0.098007298214986049 -0.098310756574161828 -0.098219937378842284 -0.098185617906597633 -0.097883193132719065 -0.098572560393831068 -0.098295140508453352 -0.098098446548572499 0.38204315812158041 -0.097554478011506879 -0.098090411721737575 -0.097825907035153828 -0.098427592375970194 -0.098037909804037038 -0.097433595245205062 -0.097975422573026424 -0.097969092100762101 -0.097865584311178991 -0.098317160801479175 -0.098117977103735377 -0.098269210749137414 -0.097992430665387986
leaf_weight=3.9598729312419891 12.095891319215299 5.7248322218656531 5.0000047981739071 3.9194419234991074 4.1663653999567023 3.9858288615941984 4.6220255792140978 4.0075394958257666 10.908800788223745 2.0461885780096045 2.1264577656984356 8.7703500092029554 10.508536435663698 9.9592202007770521 18.961679957807068 10.515325739979742 4.0169934332370758 3.454904459416869 4.6797486990690249 5.0416923686861974 3.6380851343274117 7.3278704062104216 2.1569112166762343 6.7164818346500414 3.0243993476033211 16.120121613144875 2.0461771711707115 3.3531761392951012 9.8986825421452505 5.967890426516532
leaf_count=20 129 30 25 20 21 20 23 20 115 21 22 91 112 100 195 110 20 38 49 54 37 77 24 71 32 172 21 35 102 63
internal_value=-0.00132693 0.389863 0.386346 0.390587 0.384039 0.388113 0.382916 0.382345 -0.0980767 -0.0981844 -0.0982221 -0.0983739 -0.0979529 -0.0985105 -0.0981659 -0.098225 0.381886 -0.097938 -0.0979979 -0.0980895 -0.0982379 -0.0978957 -0.0978646 -0.0978943 -0.097748 -0.0979324 -0.0980552 -0.0979426 -0.0981008 -0.0981651
internal_weight=198.721 39.4029 33.6781 11.8651 21.8129 7.9457 17.6466 12.6466 159.319 89.6631 77.1084 20.856 12.5547 12.0857 56.2524 29.477 8.63902 69.6555 28.8086 16.7127 8.31783 40.8469 33.519 31.3621 6.4793 24.8828 8.76266 8.39487 26.7754 15.8666
internal_count=1869 199 169 60 109 40 88 63 1670 931 798 213 133 122 585 305 43 739 304 175 86 435 358 334 70 264 92 89 280 165
is_linear=0
shrinkage=0.1


Tree=12
num_leaves=31
num_cat=0
split_feature=10 10 7 10 10 7 11 7 8 10 7 5 7 9 11 5 6 7 8 9 5 9 3 7 10 7 7 10 3 10
split_gain=123.399 308.261 124.298 13.496 5.94682 11.3724 10.9251 6.6207 5.05939 4.65786 4.60639 3.74598 2.49575 1.60551 2.29465 1.41615 1.77151 1.25654 1.36241 0.440618 0.450928 0.000391039 6.9523e-05 6.01224e-05 0.000187564 5.07874e-05 4.48975e-05 1.90232e-05 1.73506e-05 4.38863e-05
threshold=171.76912829079157 140.46021334470845 4.3146264367816096 168.52626518221641 181.92952511009045 4.4799425287356334 -3.9349957190783655 4.6342816091954031 17006454.461147118 163.03832852553225 4.716178160919541 23502.500000000004 4.4156034482758626 0.19500000000000003 -8.6465465495834888 101923.00000000001 2018.5000000000002 4.2583620689655186 13572276.28476228 0.32500000000000007 1274.0000000000002 1.0000000180025095e-35 4.3500000000000005 4.3497126436781626 186.90673329167706 4.4156034482758626 4.6475 185.6744666284859 3.1700000000000004 117.99437476732167
decision_type=2 2 2 2 2 2 2 2 2 2 2 2 2 2 2 2 2 2 2 2 2 2 2 2 2 2 2 2 2 2
left_child=1 28 9 8 5 17 -7 -8 10 -3 11 -4 -13 14 -14 16 -16 -2 -19 20 -6 25 23 27 -25 -22 -26 -23 29 -1
right_child=4 2 3 -5 19 6 7 -9 -10 -11 -12 12 13 -15 15 -17 -18 18 -20 -21 21 22 -24 24 26 -27 -28 -29 -30 -31
leaf_value=-0.098734132714309086 -0.098975048199802684 0.037056949388130526 0.26655557610882902 0.11935386968392053 -0.052547108261338508 0.23856702907569641 0.11686976065993548 -0.099972594563893347 0.23706796467779878 -0.09891293164027741 0.25402436480201274 0.28981037468086818 0.4378146028187957 0.43896932704405756 0.32789867730128081 0.2953496471786497 0.40576061054816237 -0.10012768460675531 0.0044007825572403769 -0.050771627052222115 -0.098628372502585507 -0.098936042458459938 -0.099024812375043528 -0.10022977581586419 -0.099488727291858356 -0.09813450149473528 -0.098919761397295705 -0.099200468483320453 -0.098752887515120319 -0.099245669560359753
leaf_weight=4.6453148573637 14.191547609865671 3.6388775408267966 4.4755571857094791 3.5689115747809401 2.1546427980065337 2.355896845459938 2.2984932214021665 3.6345368325710297 6.0510991960763922 8.1895531713962537 5.8022272288799277 3.738521188497546 3.6353919059038224 3.6275545209646216 5.8947088271379453 3.6780264228582373 5.7944929152727127 2.2043131515383712 2.8709133565425873 2.0707958042621604 10.611887775361536 3.2819667682051721 27.045126400887966 2.3614308834075919 2.4618801772594452 2.5905371978878966 3.1762982681393623 15.907716542482374 47.302088707685471 2.6248453333973885
leaf_count=46 138 32 24 25 21 20 20 33 36 80 36 21 20 20 32 20 32 20 26 20 106 32 262 21 23 27 31 152 468 25
internal_value=0.00027524 0.0718898 0.232206 0.306165 -0.0810468 -0.0415659 0.0563776 -0.0159665 0.32178 -0.0570834 0.335768 0.351145 0.365502 0.378007 0.366369 0.349468 0.366496 -0.083703 -0.0409989 -0.0962281 -0.0975807 -0.0990195 -0.0991383 -0.0992513 -0.0994816 -0.0985315 -0.0991682 -0.0991552 -0.098775 -0.0989188
internal_weight=211.885 112.667 58.0949 46.2665 99.218 27.5557 8.28893 5.93303 42.6976 11.8284 36.6465 30.8443 26.3687 22.6302 19.0026 15.3672 11.6892 19.2668 5.07523 71.6623 69.5915 67.4368 54.2344 27.1893 7.99961 13.2024 5.63818 19.1897 54.5722 7.27016
internal_count=1869 917 378 266 952 257 73 53 241 112 205 169 145 124 104 84 64 184 46 695 675 654 521 259 75 133 54 184 539 71
is_linear=0
shrinkage=0.1


Tree=13
num_leaves=31
num_cat=0
split_feature=7 10 9 10 13 13 10 7 10 11 10 10 9 11 7 7 10 5 5 8 5 10 5 3 11 11 13 3 8 9
split_gain=181.371 185.379 52.1335 30.605 19.5607 12.2513 13.9409 6.53751 5.89617 7.58728 6.01098 5.3969 4.99098 4.13277 4.38412 4.03562 2.87678 2.81985 2.43756 2.19561 1.7243 1.70069 1.60609 1.40976 4.13919 0.938595 0.327442 0.302417 0.241202 0.000215932
threshold=4.3260057471264375 181.36916626714137 1.0000000180025095e-35 148.55931141344362 171.50000000000003 172.50000000000003 175.91025843957382 4.464425287356323 185.51148389561538 -0.3780410004489877 190.76095885904087 155.01867274723674 1.0000000180025095e-35 -12.000131481436817 4.214568965517242 4.4374425287356329 177.17655344941269 63646.000000000007 86269.000000000015 14489596.491298281 64392.500000000007 183.32296829690884 44792.000000000007 4.9700000000000015 -8.7704434313240416 7.1344172537649673 167.50000000000003 5.2300000000000013 14465745.917072764 1.0000000180025095e-35
decision_type=2 2 2 2 2 2 2 2 2 2 2 2 2 2 2 2 2 2 2 2 2 2 2 2 2 2 2 2 2 2
left_child=1 2 -1 -4 8 13 19 11 -3 10 -10 -2 -13 -5 16 17 18 -14 20 -7 22 -6 -15 25 -25 -23 -9 -26 -11 -28
right_child=7 4 3 5 21 6 -8 26 9 28 -12 12 15 14 -16 -17 -18 -19 -20 -21 -22 23 -24 24 27 -27 29 -29 -30 -31
leaf_value=-0.098303051732817004 -0.098541787466842251 0.17944363548339037 -0.059150473190541931 0.44529110562366636 0.0024590624151322399 0.241257744757857 0.059440399383400455 -0.064251988331309129 -0.025001781473608421 -0.099315313254876081 0.16452793723276679 -0.098746381877781911 -0.052539820054231356 0.39463040455468834 0.22131800292394918 0.15231484154340921 0.26242929407180354 0.06858296417304266 0.29309865923474437 0.35272892200789319 0.43375400482065896 -0.098723456790654085 0.3080478963572581 0.071450456923584357 -0.053034826585036082 -0.042832582391700999 -0.097712966838552712 -0.098524795446877492 -0.051350909025236681 -0.098557638795852567
leaf_weight=3.8912943229079238 8.739938251674177 3.5252326875925055 2.4305698350071898 3.4196755662560454 2.9345062077045432 3.4190359562635404 3.7054377943277359 2.8795414790511122 2.6660843268036833 2.1044559776782981 4.4940578565001488 3.6210879161953917 4.1822725683450681 4.9207715988159304 3.3305081874132147 2.3679506406188011 3.5016399770975104 3.5566641911864281 3.9525543004274359 3.6568532884120941 4.3954580277204505 19.552864819765094 3.7945323586463928 2.3238700702786446 2.1730303913354856 3.5502262488007537 3.1398750990629187 4.4627112746238708 2.0893499478697777 83.817890405654907
leaf_count=40 88 25 23 20 27 20 29 28 24 20 35 36 37 26 20 20 22 32 22 20 24 194 20 20 21 34 34 45 20 843
internal_value=0.000491764 0.102745 0.251322 0.284892 -0.0295739 0.306842 0.216578 -0.0853626 0.0664705 0.0313941 0.0939564 -0.0371175 0.00198831 0.34247 0.327755 0.0380795 0.344992 0.00312585 0.361935 0.298867 0.382688 -0.0704076 0.356933 -0.0770766 -0.0434051 -0.0901348 -0.0974285 -0.083628 -0.0754195 -0.0985271
internal_weight=206.6 94.2947 44.4183 40.527 49.8764 38.0965 10.7813 112.305 14.8792 11.3539 7.16014 22.4679 13.728 27.3151 23.8955 10.1069 20.565 7.73894 17.0633 7.07589 13.1108 34.9972 8.7153 32.0627 8.95961 23.1031 89.8373 6.63574 4.19381 86.9578
internal_count=1869 751 286 246 465 223 69 1118 124 99 59 213 125 154 134 89 114 69 92 40 70 341 46 314 86 228 905 66 40 877
is_linear=0
shrinkage=0.1


Tree=14
num_leaves=31
num_cat=0
split_feature=7 9 10 13 8 13 10 8 11 6 8 3 5 10 7 13 11 7 5 7 11 3 5 7 10 10 7 5 10 5
split_gain=177.978 62.5802 67.5412 36.1737 11.0733 10.7612 10.643 9.77865 8.68781 7.13801 6.88086 6.69497 6.37876 5.95893 5.76165 10.9748 4.82991 8.58071 4.72968 3.38506 3.07852 2.50637 1.58676 1.20572 1.08756 2.887 5.58793 0.929576 0.317766 0.268271
threshold=4.3542816091954029 1.0000000180025095e-35 177.92169059568138 172.50000000000003 15249011.921033477 173.50000000000003 164.55530307951207 8713127.9969038758 -2.6917472534204285 2018.5000000000002 13271973.123984465 3.6900000000000008 81544.500000000015 190.21354393455223 4.4118390804597709 173.50000000000003 2.3302550271959404 4.0947988505747137 75817.000000000015 3.9515517241379317 -14.480591639452502 5.1100000000000003 60402.000000000007 4.2108908045977023 186.02612544988207 193.99093437501514 4.6362643678160937 80611.500000000015 182.44746256475332 126270.00000000001
decision_type=2 2 2 2 2 2 2 2 2 2 2 2 2 2 2 2 2 2 2 2 2 2 2 2 2 2 2 2 2 2
left_child=1 -1 6 4 8 11 -3 -8 20 -6 18 -5 19 -11 15 28 17 -13 -10 -9 -4 22 -7 -21 29 26 -26 -22 -2 -16
right_child=14 2 3 5 9 21 7 12 10 13 -12 16 -14 -15 24 -17 -18 -19 -20 23 27 -23 -24 -25 25 -27 -28 -29 -30 -31
leaf_value=-0.09882894241659583 -0.099139661325510636 -0.099319373317423604 0.072673900247013409 0.30784188281059782 0.086875648430119759 0.39681137355399881 0.22177930274362381 0.063420161741212538 0.10280172166082005 0.14938754858539988 0.010923334409393857 0.22665773296334568 0.10741062616386543 0.34076339506388775 -0.098807022316001081 0.16185063847727754 0.25257226808496896 0.030983529190504767 0.28910172578014587 -0.099670579432018916 -0.10032354472167887 0.25351311194822601 0.3169105148428461 -0.012088260302773733 0.10014936838768258 -0.099041819153711727 -0.09879517057885466 -0.017737591559153169 -0.050797007598161463 -0.070758366228314162
leaf_weight=13.896348275244234 3.9565030634403211 8.4895928129553813 2.3075967356562614 5.0790038704872158 4.720712870359419 4.3349369019269925 2.473133526742461 2.4447505325078946 2.9228526428341883 3.1462131291627884 3.550297386944294 4.5302379876375181 4.3197399079799643 3.3695387616753578 80.760054975748062 2.6436335891485214 4.9941324368119231 4.4350678622722626 2.5530050471425056 5.0567036345601082 3.1624137386679676 3.5617768466472617 5.8256775438785553 2.280867300927639 2.5007923990488079 11.454327180981634 3.2423259317874908 2.3952025547623634 2.0716674700379372 3.5602920427918425
leaf_count=137 38 81 20 35 35 25 20 22 23 22 29 32 37 24 796 20 32 32 20 47 28 20 32 21 23 111 32 20 20 35
internal_value=0.00136151 0.0980622 0.129894 0.186769 0.103585 0.258188 -0.00826798 0.0383673 0.0524106 0.180514 0.119357 0.209531 0.00620166 0.248355 -0.0862651 -0.00802683 0.173761 0.129859 0.18966 -0.0384908 -0.0244173 0.325696 0.351 -0.0724458 -0.0929484 -0.0700296 -0.0121665 -0.0647309 -0.082526 -0.0976227
internal_weight=210.039 99.8498 85.9535 60.8887 28.1278 32.7608 25.0648 16.5752 16.8914 11.2365 9.02616 19.0384 14.1021 6.51575 110.19 8.6718 13.9594 8.96531 5.47586 9.78232 7.86521 13.7224 10.1606 7.33757 101.518 17.1974 5.74312 5.55762 6.02817 84.3203
internal_count=1869 794 657 429 221 208 228 147 140 81 72 131 127 46 1075 78 96 64 43 90 68 77 57 68 997 166 55 48 58 831
is_linear=0
shrinkage=0.1


Tree=15
num_leaves=31
num_cat=0
split_feature=10 7 9 13 10 11 6 8 8 8 6 7 11 3 10 10 4 5 5 7 10 3 8 11 3 7 10 10 10 7
split_gain=196.075 103.782 100.937 20.2285 13.0752 6.33468 5.16795 8.67706 5.60847 5.093 6.37506 7.15816 7.10114 5.11282 4.24479 3.74755 3.86637 3.62114 3.02666 2.26707 1.81733 3.63712 1.13644 0.835466 0.819246 0.320053 0.000326786 8.50989e-05 6.79579e-05 4.62354e-05
threshold=176.78721580027999 4.4678448275862079 1.0000000180025095e-35 173.50000000000003 181.36916626714137 0.9228447529769378 2020.5000000000002 13337921.314452874 20056472.360998936 9616330.7209592015 2015.5000000000002 3.9699425287356322 9.2084520030168218 3.9900000000000007 186.02612544988207 187.7774664190456 2014.5000000000002 63646.000000000007 70474.500000000015 4.530431034482759 166.75855747030897 5.3100000000000014 13772476.196665425 10.499706447348887 4.8100000000000014 4.1052298850574722 179.87879351384387 175.10165608431859 182.70680714856175 4.6834482758620704
decision_type=2 2 2 2 2 2 2 2 2 2 2 2 2 2 2 2 2 2 2 2 2 2 2 2 2 2 2 2 2 2
left_child=20 2 28 4 5 -4 8 -8 9 -6 -11 -12 13 22 -15 -5 -17 -10 -16 -3 25 23 -13 24 27 -1 -21 -22 -2 -28
right_child=1 19 3 15 6 -7 7 -9 17 10 11 12 -14 14 18 16 -18 -19 -20 26 21 -23 -24 -25 -26 -27 29 -29 -30 -31
leaf_value=-0.066144464694143729 -0.099940469920893948 -0.011193236804513567 0.17319627485140063 -0.0040515853402262308 0.16710300155790681 -0.011600763443640045 0.27659902064745884 0.061225014151440396 0.23418022700499252 0.17024526166607146 0.1880552738455194 0.44574532942936185 0.18192141671407736 0.20140167011520635 0.37776342079351694 0.17656945914048811 0.029217655899014202 0.083466823635084036 0.26970776197237367 -0.10087127206476505 -0.099829424496245101 0.037669721566811198 0.36501139917257958 -0.031761431887921875 -0.048167799598878874 -0.099559802044016238 -0.099842723776434439 -0.10043735404605943 -0.099357790647809696 -0.099517223664434148
leaf_weight=2.966560684144496 2.4208785295486441 3.3529864773154285 4.3052949607372275 4.1421124562621099 5.0981471538543692 3.2592133432626724 3.3794775158166876 4.1897484362125397 3.2148672938346854 5.0496147722005835 5.4369845241308239 3.6095128208398881 3.4419731050729743 3.2292175590991965 6.161766588687895 4.2599586397409439 3.0596942976117134 3.1623398512601852 4.4746484160423279 2.4570002928376224 12.165894061326989 2.8915416821837416 3.3726978152990341 2.9020688608288756 3.8374320417642585 84.857451394200325 7.1250303685665157 2.840138114988803 11.557560503482817 11.260783538222311
leaf_count=27 22 29 30 36 32 25 21 28 20 33 36 22 21 20 37 29 25 21 26 21 111 25 20 25 34 789 65 25 109 105
internal_value=0.00136789 0.0956407 0.14668 0.19391 0.216681 0.0935754 0.233983 0.157384 0.246519 0.260445 0.274128 0.291775 0.314991 0.336961 0.301819 0.0719604 0.114975 0.159444 0.332305 -0.0875109 -0.0916982 -0.0676972 0.406747 -0.081708 -0.0894003 -0.0984311 -0.0997881 -0.0999445 -0.0994587 -0.0996434
internal_weight=223.483 111.022 86.8257 72.8473 61.3855 7.56451 53.821 7.56923 46.2518 39.8746 34.7764 29.7268 24.2898 20.8478 13.8656 11.4618 7.31965 6.37721 10.6364 24.1958 112.461 24.6371 6.98221 21.7455 18.8435 87.824 20.8428 15.006 13.9784 18.3858
internal_count=1869 833 613 482 392 55 337 49 288 247 215 182 146 125 83 90 54 41 63 220 1036 220 42 195 170 816 191 136 131 170
is_linear=0
shrinkage=0.1


Tree=16
num_leaves=31
num_cat=0
split_feature=10 7 10 7 13 10 7 10 7 13 9 7 7 10 7 10 10 3 10 3 6 13 10 10 7 10 10 5 13 11
split_gain=419.465 276.265 21.4615 17.7859 5.99962 3.36657 2.1013 1.85858 0.00532937 0.00519661 0.000608441 0.000134925 0.000110901 9.40676e-05 8.9237e-05 0.000139294 8.13979e-05 5.35227e-05 4.72445e-05 4.03827e-05 3.95179e-05 3.31565e-05 3.7416e-05 4.70882e-05 2.20655e-05 5.41506e-05 2.78971e-05 2.70498e-05 2.11514e-05 2.08681e-05
threshold=126.40260101118243 4.7326436781609207 117.99437476732167 4.5127873563218399 171.50000000000003 130.36460905358723 5.1450000000000005 114.66692025882982 4.4118390804597709 172.50000000000003 1.0000000180025095e-35 4.5797126436781612 4.4799425287356334 151.98308312868446 4.3497126436781626 164.01969692854684 149.40031561097331 5.1900000000000004 185.51148389561538 4.6900000000000004 2018.5000000000002 171.50000000000003 180.0448899158265 175.91025843957382 4.7071839080459776 172.97674782766779 166.75855747030897 77941.000000000015 172.50000000000003 -4.3352528964536887
decision_type=2 2 2 2 2 2 2 2 2 2 2 2 2 2 2 2 2 2 2 2 2 2 2 2 2 2 2 2 2 2
left_child=1 2 7 -4 -5 -2 -3 8 9 -1 12 14 -7 -13 18 16 -16 -10 21 -20 -18 -12 23 -23 26 -26 -15 -28 -21 -27
right_child=5 6 3 4 -6 10 -8 -9 17 -11 11 13 -14 24 15 -17 20 -19 19 28 -22 22 -24 -25 25 29 27 -29 -30 -31
leaf_value=0.3693630080753188 0.016661351117665462 -0.013397899097942487 0.38632280845036537 0.013957686367984258 0.19869948580058513 -0.099092163591512239 -0.099268039807919539 0.30459108307453814 0.36875924850867237 0.37428684517233468 -0.099394354920555872 -0.098950782939385251 -0.098429761083421441 -0.099391723263253906 -0.1000814086975288 -0.10006395969390941 -0.099224789028336258 0.36914485452356371 -0.099760086058824554 -0.099664466328557369 -0.099669193231445949 -0.099569493445758342 -0.099405188226152796 -0.099993146283226003 -0.099676817337783066 -0.099556090493604199 -0.099799329834317885 -0.099466692647671245 -0.099396715559187443 -0.099210190909955476
leaf_weight=4.5228009372949582 2.538472317159175 3.3143876567482975 3.4512983262538892 3.4102555140852928 3.6280717402696609 17.555842213332657 20.326819583773613 5.0506063997745505 21.610278591513637 4.0743712335824966 14.345242872834204 3.7951285541057578 2.9525930508971205 6.1651019006967571 2.3434148579835918 11.598789952695368 4.7228996381163579 4.3189719915390006 21.275907441973686 5.8505813926458341 3.471897266805172 8.6126275509595889 6.6994687914848319 3.7728412002325049 4.7759216055274036 2.1507883518934241 5.9115613326430303 4.1685696169734001 5.9517916366457939 9.2250276356935483
leaf_count=22 21 26 23 26 26 169 193 28 105 20 135 37 30 58 21 104 45 21 195 54 32 80 63 34 44 20 54 39 56 88
internal_value=-0.000374731 0.194509 0.327544 0.20037 0.109187 -0.0975076 -0.0872294 0.361251 0.369539 0.371697 -0.0995016 -0.0995845 -0.0989968 -0.0994218 -0.0996509 -0.0998249 -0.0995617 0.368823 -0.0995931 -0.0996778 -0.0994131 -0.0995092 -0.0995956 -0.0996985 -0.099477 -0.0993942 -0.0995593 -0.0996618 -0.0995294 -0.0992756
internal_weight=221.592 73.7079 50.0667 10.4896 7.03833 147.884 23.6412 39.577 34.5264 8.59717 145.346 124.838 20.5084 36.1921 88.6455 22.137 10.5382 25.9293 66.5085 33.0783 8.1948 33.4302 19.0849 12.3855 32.397 16.1517 16.2452 10.0801 11.8024 11.3758
internal_count=1869 490 271 75 52 1379 219 196 168 42 1358 1159 199 340 819 202 98 126 617 305 77 312 177 114 303 152 151 93 110 108
is_linear=0
shrinkage=0.1


Tree=17
num_leaves=31
num_cat=0
split_feature=10 10 7 10 10 11 10 7 13 7 8 10 8 10 5 7 8 3 10 7 7 9 7 10 7 11 7 7 3 7
split_gain=119.127 156.872 59.9479 14.7847 11.0063 9.2546 8.36586 16.0465 8.53855 8.11764 5.57362 4.94395 2.97665 1.50315 3.27678 4.75655 1.43297 0.532776 0.116145 0.588122 0.000109691 8.44847e-05 2.50181e-05 2.03143e-05 1.42628e-05 1.35357e-05 1.21433e-05 1.25339e-05 6.70497e-06 4.55062e-06
threshold=151.98308312868446 116.73540462839945 4.9840229885057479 146.03623903419813 163.82677743995302 0.61527590438322344 123.67227794926021 4.5127873563218399 171.50000000000003 4.6188218390804607 13801724.452318972 114.66692025882982 13458599.64293508 170.49706174590207 85166.000000000015 4.3611206896551726 10882879.605956567 5.0500000000000007 175.55639645324339 4.6608045977011505 4.6166379310344832 1.0000000180025095e-35 4.7041091954023004 120.18553076941932 4.4799425287356334 6.6417969962747812 4.3497126436781626 4.5937643678160933 4.6900000000000004 4.3695689655172423
decision_type=2 2 2 2 2 2 2 2 2 2 2 2 2 2 2 2 2 2 2 2 2 2 2 2 2 2 2 2 2 2
left_child=1 11 3 6 5 9 7 -3 -9 12 16 -1 -2 14 29 -16 -8 20 19 -15 25 24 26 -4 -20 -7 28 -28 -23 -6
right_child=4 2 23 -5 13 17 10 8 -10 -11 -12 -13 -14 18 15 -17 -18 -19 21 -21 -22 22 -24 -25 -26 -27 27 -29 -30 -31
leaf_value=-0.094689359380710436 -0.095005772784752765 0.086265281141202022 -0.095164922816184147 0.12554942305870695 -0.094744676433449429 -0.095166699533720769 0.43625316631014804 0.44304567474238143 0.23773459325215326 0.22035376542373122 0.33607069200118517 0.047794898892242282 0.075687037573567054 -0.094800847808745425 -0.095778799688329766 0.1528791106285006 0.53206480950665913 -0.02534334912515911 -0.094601128273631624 -0.022535664009494395 -0.095970822218348475 -0.094906951735127879 -0.09469333164910064 -0.094682834533238988 -0.094242882955712981 -0.09474769655251393 -0.095103846047194421 -0.094868981776531788 -0.09480942650333761 -0.094927537731391648
leaf_weight=19.922833904623989 1.8180326819419841 2.6783489063382246 1.3570690006017678 3.0737850591540328 3.128411013633011 1.3712949268519881 3.1170483976602537 5.4227784648537618 3.2334496676921844 2.8389107435941696 4.2787874639034271 2.7743468508124343 2.3322295248508453 6.1742213778197756 1.4760877490043642 1.6065762639045713 3.1269183233380318 1.4246868453919885 9.1257052496075612 1.3774268701672552 1.5009633526206014 19.886281512677673 6.6641337573528281 2.455877497792244 1.2654339037835587 1.7611895352602003 5.2872487455606443 3.984656035900116 10.921004295349119 2.4087319448590279
leaf_count=308 27 24 20 29 48 20 20 33 26 35 27 36 31 94 20 21 21 20 143 20 20 298 103 38 21 27 77 60 166 36
internal_value=-0.00122218 0.119246 0.274424 0.330901 -0.072986 0.0116373 0.359779 0.300169 0.366354 0.0900479 0.423988 -0.0772731 0.000914627 -0.0880476 -0.0488203 0.033813 0.484235 -0.0788238 -0.0932749 -0.0816196 -0.0952679 -0.0948154 -0.0948727 -0.0948544 -0.0945575 -0.0949311 -0.0949026 -0.0950029 -0.0948724 -0.0948242
internal_weight=137.794 51.4412 28.7441 24.9311 86.3532 13.0473 21.8573 11.3346 8.65623 6.98917 10.5228 22.6972 4.15026 73.3059 8.61981 3.08266 6.24397 6.05813 64.6861 7.55165 4.63345 57.1345 46.7433 3.81295 10.3911 3.13248 40.0792 9.2719 30.8073 5.53714
internal_count=1869 582 238 180 1287 180 151 83 59 93 68 344 58 1107 125 41 41 87 982 114 67 868 704 58 164 47 601 137 464 84
is_linear=0
shrinkage=0.1


Tree=18
num_leaves=31
num_cat=0
split_feature=7 10 11 7 10 10 7 6 13 11 10 5 3 6 10 3 11 10 9 10 7 5 10 3 7 13 10 13 13 10
split_gain=147.745 287.536 10.7997 5.70455 15.5364 5.28787 5.46354 4.4971 3.1155 2.14962 1.85488 1.05295 1.80646 0.621894 0.430022 1.51192 0.336536 0.00450737 0.000464916 0.000134555 0.000133151 8.22396e-05 6.4688e-05 5.96026e-05 5.87091e-05 4.9222e-05 4.87051e-05 5.69036e-05 4.41275e-05 4.08032e-05
threshold=4.5127873563218399 166.75855747030897 -10.264686389259609 4.4088218390804608 177.01708605062635 179.64264416890325 4.7041091954023004 2018.5000000000002 172.50000000000003 -5.5588192613205178 164.55530307951207 77941.000000000015 3.77 2018.5000000000002 155.01867274723674 3.9100000000000006 4.5928464571932794 165.00187963228265 1.0000000180025095e-35 173.0422265131908 4.3497126436781626 69290.000000000015 114.66692025882982 3.6300000000000003 4.9840229885057479 173.50000000000003 115.47130991502867 171.50000000000003 171.50000000000003 149.40031561097331
decision_type=2 2 2 2 2 2 2 2 2 2 2 2 2 2 2 2 2 2 2 2 2 2 2 2 2 2 2 2 2 2
left_child=3 10 -3 18 17 6 7 -4 -6 -7 14 12 -11 16 23 -16 -14 22 -1 26 25 -17 -5 24 -2 -21 -20 -28 -25 -24
right_child=1 2 5 4 8 9 -8 -9 -10 11 -12 -13 13 -15 15 21 -18 -19 19 20 -22 -23 29 28 -26 -27 27 -29 -30 -31
leaf_value=-0.097480223984882708 -0.098188134074964836 0.070834623039044739 0.055347649808882682 -0.097662772883493079 0.1507297147192613 0.32074346733016312 0.26335598505854885 0.20740036913014934 0.015444804734004589 0.18827685501004363 0.008815736722431888 0.28598901211857286 0.28586569368828224 0.23488260889124113 0.0037714135853044364 -0.098215190681656322 0.2529400075776998 -0.10300640855952166 -0.097560231727267369 -0.09821193802218621 -0.098953030366891015 -0.099013459279454333 -0.098387840077774721 -0.097502978709090943 -0.09769112338031416 -0.09793560332797932 -0.09776760563593874 -0.098152503574177263 -0.097764722071408697 -0.097921232604070499
leaf_weight=13.915787160396574 5.5620175004005414 3.7190876379609099 3.5312139913439733 4.7830365002155322 3.4829240366816512 6.0802872627973548 6.4359145015478134 4.3304945677518845 3.3296124488115311 4.511619225144389 1.8246891722083081 8.6617690622806531 7.2200042456388491 7.1879938244819632 1.9574675485491742 3.4651447534561157 5.445687547326088 2.0571979805827132 3.6426254734396961 38.929158471524715 2.2545448988676062 2.0565079748630524 3.4266174584627151 8.8521929606795293 4.1500492990016937 7.7251081839203826 7.4186623543500883 7.9648885130882263 23.647680684924126 4.1363513916730881
leaf_count=154 58 19 20 52 23 27 29 23 25 22 16 36 30 31 20 36 22 18 40 404 22 20 35 98 45 82 80 83 255 44
internal_value=-0.000261132 0.081107 0.235601 -0.0860292 -0.0398194 0.247075 0.195034 0.139103 0.0846095 0.266102 -0.0902065 0.256042 0.245396 0.258376 -0.0938426 -0.0717423 0.271709 -0.0986727 -0.0980068 -0.0981147 -0.0982025 -0.0985125 -0.0979506 -0.0977584 -0.0979758 -0.0981662 -0.097889 -0.0979669 -0.0976934 -0.0981326
internal_weight=211.706 108.64 57.1241 103.067 21.2157 53.405 14.2976 7.86171 6.81254 39.1074 51.5157 33.0271 24.3653 19.8537 49.6911 7.47912 12.6657 14.4032 81.8508 67.935 48.9088 5.52165 12.346 42.2119 9.71207 46.6543 19.0262 15.3836 32.4999 7.56297
internal_count=1869 807 259 1062 197 240 72 43 48 168 548 141 105 83 532 76 52 149 865 711 508 56 131 456 103 486 203 163 353 79
is_linear=0
shrinkage=0.1


Tree=19
num_leaves=31
num_cat=0
split_feature=7 13 7 7 10 10 10 9 10 7 7 7 7 10 13 8 10 10 10 13 13 10 10 5 3 10 7 8 8 8
split_gain=522.767 0.726147 0.45715 0.0663255 0.0307554 0.00234818 0.0031937 0.000699481 0.00034083 0.000143443 0.000129493 0.000157989 9.74272e-05 5.57239e-05 9.11375e-05 4.86927e-05 4.64601e-05 4.64465e-05 4.03913e-05 6.19433e-05 6.1489e-05 5.4978e-05 7.76241e-05 3.81713e-05 3.31797e-05 5.29462e-05 0.000115236 5.17768e-05 2.96929e-05 3.02005e-05
threshold=4.9840229885057479 171.50000000000003 4.9038505747126448 5.2040517241379325 122.6786819607369 115.04917798808715 118.00493940213688 1.0000000180025095e-35 162.85253543556786 4.4799425287356334 4.6897988505747135 4.3497126436781626 4.5706609195402308 114.66692025882982 171.50000000000003 13733625.025073128 119.04983012325317 172.97674782766779 185.51148389561538 172.50000000000003 171.50000000000003 179.87879351384387 175.91025843957382 77941.000000000015 3.3500000000000001 151.98308312868446 4.5283908045977022 12878650.57776255 15734723.861310242 13042488.90752033
decision_type=2 2 2 2 2 2 2 2 2 2 2 2 2 2 2 2 2 2 2 2 2 2 2 2 2 2 2 2 2 2
left_child=2 -2 7 -3 5 -5 -7 9 13 -1 11 18 15 -9 24 -13 -16 -12 20 28 -10 22 -22 -14 -15 26 -26 -28 29 -20
right_child=1 3 -4 4 -6 6 -8 8 10 -11 17 12 23 14 16 -17 -18 -19 19 -21 21 -23 -24 -25 25 -27 27 -29 -30 -31
leaf_value=-0.097172215668605066 0.23540166139296537 0.27995002967758847 -0.050416079512961433 0.26671043861465871 0.27504020725519912 0.2701750847165747 0.26672119895442864 -0.097363434755066008 -0.097539996634049886 -0.096326692770260805 -0.097971027333984675 -0.098119936112316841 -0.098068140450508656 -0.097705774149996233 -0.098091610436234419 -0.09855178149821299 -0.097676234615877641 -0.097448510530591032 -0.097996771081488576 -0.097749318794609116 -0.097798283130528296 -0.097612818271227655 -0.098400467663774915 -0.09763545337859808 -0.097797957637200006 -0.097549901565473912 -0.096518407281289742 -0.097218930588952701 -0.097847318528924587 -0.098356759022989376
leaf_weight=14.816381551325323 7.0867689847946158 5.605209916830062 2.0767550766468039 24.74796724319458 5.9055116921663275 5.4635446816682798 5.2494627684354782 15.192575000226496 10.437253907322885 2.3207256346940985 2.0786570012569419 4.7779627367854136 5.3366329967975599 3.4098460227251115 3.4400745406746855 5.7570438906550407 12.395415611565111 9.3681872934102994 5.579672724008562 13.971067890524862 6.3252288177609426 5.8475411161780348 3.2356218248605728 3.2994106188416481 1.8578863069415072 6.6351359561085701 2.2083538398146629 2.0203664600849152 5.0416588857769957 4.0019057542085648
leaf_count=169 29 23 21 99 24 22 21 170 115 29 22 50 56 37 36 58 135 104 59 151 68 64 33 36 20 73 27 23 54 41
internal_value=-0.00171313 0.26524 -0.0970109 0.269742 0.268359 0.267246 0.268483 -0.0976588 -0.0977367 -0.0970577 -0.0978563 -0.0979049 -0.0981518 -0.0975211 -0.0975961 -0.0983559 -0.0977665 -0.0975434 -0.097818 -0.0978999 -0.0977274 -0.0978544 -0.0980021 -0.0979028 -0.0974288 -0.0973545 -0.0971415 -0.0968531 -0.0980438 -0.0981471
internal_weight=205.49 54.0585 151.431 46.9717 41.3665 35.461 10.713 149.355 132.217 17.1371 85.0578 73.611 19.1711 47.1597 31.9671 10.535 15.8355 11.4468 54.44 28.5943 25.8456 15.4084 9.56085 8.63604 16.1316 12.7217 6.08661 4.22872 14.6232 9.58158
internal_count=1869 218 1651 189 166 142 43 1630 1432 198 911 785 200 521 351 108 171 126 585 305 280 165 101 92 180 143 70 50 154 100
is_linear=0
shrinkage=0.1


Tree=20
num_leaves=31
num_cat=0
split_feature=9 7 7 10 10 11 11 11 10 7 7 7 10 8 10 7 10 10 3 13 8 10 13 13 10 10 11 5 13 8
split_gain=508.586 0.323547 0.0309274 0.015604 0.00682792 0.00251012 0.00227861 0.000393864 0.000379352 0.000126519 0.000121546 7.48829e-05 4.37522e-05 3.73736e-05 3.66475e-05 4.27432e-05 3.92968e-05 3.66991e-05 5.30386e-05 6.62758e-05 3.53507e-05 3.1067e-05 4.78733e-05 4.73472e-05 4.23329e-05 6.03751e-05 2.98721e-05 2.96556e-05 2.95883e-05 2.28001e-05
threshold=1.0000000180025095e-35 4.4908620689655185 4.3163793103448294 187.9675580817684 184.02328907352901 0.11751320664491771 -5.3526035113043244 4.7529447093176209 162.85253543556786 4.6897988505747135 4.3497126436781626 4.5706609195402308 172.97674782766779 13733625.025073128 114.66692025882982 4.5706609195402308 149.40031561097331 151.98308312868446 3.3500000000000001 171.50000000000003 13042488.90752033 185.51148389561538 172.50000000000003 171.50000000000003 179.87879351384387 175.91025843957382 -5.6894307291325061 77941.000000000015 171.50000000000003 15734723.861310242
decision_type=2 2 2 2 2 2 2 2 2 2 2 2 2 2 2 2 2 2 2 2 2 2 2 2 2 2 2 2 2 2
left_child=1 2 4 -4 5 -1 -6 -8 14 10 21 13 -11 -12 -2 16 28 18 -17 20 -20 23 29 -10 25 -25 -14 -13 -16 -23
right_child=8 -3 3 -5 6 -7 7 -9 9 12 11 27 26 -15 15 17 -18 -19 19 -21 -22 22 -24 24 -26 -27 -28 -29 -30 -31
leaf_value=0.27577167876952652 -0.096673316404435106 0.29814304746383108 0.28190278942657004 0.27432856589256926 0.27293110876640819 0.27271642516326 0.27022223217668334 0.27130582748183113 -0.09681473153649893 -0.097212777566652156 -0.097342328854483823 -0.097295897899975295 -0.097090160632123071 -0.097734517739034105 -0.096875898868791485 -0.097118923978229521 -0.096797224495360421 -0.096935172858797727 -0.095914682648662986 -0.096716547042101128 -0.096548197469670471 -0.097367127498033931 -0.097004855059707074 -0.097048725382269219 -0.096880973771271028 -0.09759925476488697 -0.09663496042178242 -0.096900451106562535 -0.097282446426405836 -0.097094752664205142
leaf_weight=5.8970317542552966 25.641737975180149 6.3536756932735434 6.0705963969230634 4.9278942495584488 5.9288506507873562 4.9431513994932175 9.4366655051708204 5.2043248265981665 9.7060506865382212 2.111094541847705 4.4456580728292483 4.9655619263648969 1.7380885258316983 5.3586317300796509 2.9674828276038152 2.085602983832362 7.5002940744161606 6.5850323736667624 1.9057080969214433 9.1918232291936857 1.6378059834241865 8.9154917001724261 12.994357146322725 5.8828743323683721 5.4382340908050528 3.0119162574410439 8.4528196305036527 3.0681691989302635 4.5122894495725632 4.6899961084127417
leaf_count=24 308 27 25 20 24 20 38 21 115 24 50 56 20 58 35 24 89 77 25 110 20 100 151 68 64 33 102 36 51 54
internal_value=-0.0017399 0.277098 0.273945 0.278509 0.272347 0.274378 0.271277 0.270607 -0.0969509 -0.0970937 -0.0971467 -0.0973712 -0.0967984 -0.0975567 -0.0967649 -0.0968294 -0.096959 -0.0967387 -0.0966515 -0.0965749 -0.0962075 -0.0970677 -0.0971421 -0.0969853 -0.0971008 -0.0972351 -0.0967126 -0.0971449 -0.0971212 -0.0972732
internal_weight=191.569 48.7622 42.4085 10.9985 31.41 10.8402 20.5698 14.641 142.807 80.7789 68.4769 17.838 12.302 9.80429 62.0278 36.386 14.9801 21.406 14.8209 12.7353 3.54351 50.6389 26.5998 24.0391 14.333 8.89479 10.1909 8.03373 7.47977 13.6055
internal_count=1869 199 172 45 127 44 83 59 1670 931 785 200 146 108 739 431 175 256 179 155 45 585 305 280 165 101 122 92 86 154
is_linear=0
shrinkage=0.1


Tree=21
num_leaves=31
num_cat=0
split_feature=10 10 7 10 7 10 7 11 7 10 11 5 11 5 3 10 13 11 9 5 11 5 9 7 11 7 10 7 7 7
split_gain=99.6316 211.762 70.714 8.74415 8.91383 5.97922 10.1617 7.36394 5.54281 4.71102 2.51259 2.99953 2.20954 1.98773 2.26573 1.61897 1.28467 0.684711 0.469 0.471662 0.351982 0.230894 0.000584107 0.000531898 8.73407e-05 0.000103876 0.00012464 8.42814e-05 7.40231e-05 6.31682e-05
threshold=171.76912829079157 140.46021334470845 4.2877011494252883 165.00187963228265 4.6112931034482765 181.92952511009045 4.4799425287356334 -3.9349957190783655 4.6342816091954031 149.40031561097331 0.83836125977015097 36775.000000000007 12.867073439425445 51181.500000000007 4.4700000000000015 163.03832852553225 169.50000000000003 -6.3884285612317848 0.32500000000000007 1274.0000000000002 -10.932212750427874 69290.000000000015 1.0000000180025095e-35 4.2669827586206912 -1.7665457899858759 4.3910919540229889 187.9675580817684 4.4678448275862079 4.6919827586206901 4.3794540229885062
decision_type=2 2 2 2 2 2 2 2 2 2 2 2 2 2 2 2 2 2 2 2 2 2 2 2 2 2 2 2 2 2
left_child=1 -1 15 9 -5 6 16 -8 -9 -4 11 -11 21 -13 17 -3 -2 -15 19 -7 -18 -12 27 -22 25 -24 -27 -21 29 -26
right_child=5 2 3 4 -6 18 7 8 -10 10 12 13 -14 14 -16 -17 20 -19 -20 22 23 -23 24 -25 28 26 -28 -29 -30 -31
leaf_value=-0.097458777775926653 -0.010773334919831644 -0.012850496394188948 0.14042431415970533 0.056506233731166582 0.23316674702825099 -0.048604389395878217 0.18625811078963395 0.10007050018089614 -0.098529934199562672 0.14893107226686716 0.30634849250120011 0.30489995047847662 0.2151021637872304 0.28799304594432346 0.17725997474968422 -0.097621628591198745 -0.056299877147296444 0.23236835930127522 -0.045958387493160696 -0.097237761061572212 -0.097755315017723055 0.28028590592863245 -0.097940984462935504 -0.099311552544801604 -0.097780507100355407 -0.099055191920510766 -0.098071548435876191 -0.096460989420810134 -0.097425067507959429 -0.098190763496414743
leaf_weight=48.540340580046177 2.255198158323771 3.4251210764050466 4.3794466555118552 5.9489332288503629 5.4938758909702301 2.0165193378925315 2.7565428912639618 2.4754252731800062 3.2507708817720413 4.028908625245097 8.5474112182855624 4.1718357205390957 4.4325307458639136 4.1182888448238355 5.6781153082847586 6.5828193351626396 2.3859587833285358 4.7831899076700211 1.916405215859412 9.9746290966868383 10.172997936606402 5.643600568175315 17.031784377992153 2.8009059429168692 17.06831493228675 2.0634359493851653 3.4287409260869026 1.6243002414703358 4.4924987331032744 4.810933329164981
leaf_count=539 22 30 25 36 31 21 20 20 33 18 37 18 20 19 26 72 25 22 20 113 110 24 181 27 184 20 36 20 50 50
internal_value=0.000260354 0.0617112 0.176626 0.219513 0.141324 -0.0783302 -0.0379497 0.0519699 -0.0126753 0.239056 0.249488 0.227215 0.276733 0.244034 0.226618 -0.0686095 -0.0812516 0.258103 -0.0946872 -0.0961811 -0.0915995 0.295984 -0.097767 -0.0980913 -0.0979183 -0.0980629 -0.0984411 -0.097129 -0.0977948 -0.0978707
internal_weight=206.3 115.774 67.2341 57.2261 11.4428 90.5254 26.0978 8.48274 5.7262 45.7833 41.4039 22.7803 18.6235 18.7514 14.5796 10.0079 17.6151 8.90148 64.4276 62.5112 15.3599 14.191 60.4946 12.9739 48.8957 22.524 5.49218 11.5989 26.3717 21.8792
internal_count=1869 917 378 276 67 952 257 73 53 209 184 103 81 85 67 102 184 41 695 675 162 61 654 137 521 237 56 133 284 234
is_linear=0
shrinkage=0.1


Tree=22
num_leaves=31
num_cat=1
split_feature=7 10 13 13 7 5 7 10 5 8 8 9 6 8 8 10 10 3 5 3 10 5 10 7 5 8 3 8 2 7
split_gain=143.411 115.219 16.4623 15.4928 14.7384 10.0943 6.58688 4.98253 4.65465 6.04459 4.23308 4.17223 4.02925 3.45006 3.25907 3.58544 3.09174 3.02092 2.32917 3.09395 2.09587 1.73284 1.65085 1.436 1.63078 1.40672 0.988057 1.82275 0.549264 0.307005
threshold=4.3260057471264375 181.36916626714137 171.50000000000003 173.50000000000003 4.2446551724137942 62883.000000000007 4.464425287356323 155.01867274723674 47538.000000000007 13971164.419980066 6572552.6574912127 1.0000000180025095e-35 2018.5000000000002 17714334.150845014 16902778.686424647 176.78721580027999 174.13843004963135 3.9300000000000002 95919.500000000015 4.870000000000001 167.259167924705 81208.000000000015 183.32296829690884 3.9699425287356322 69871.500000000015 12513789.972459221 5.0100000000000007 14435001.39600919 0 4.1351724137931045
decision_type=2 2 2 2 2 2 2 2 2 2 2 2 2 2 2 2 2 2 2 2 2 2 2 2 2 2 2 2 1 2
left_child=1 3 8 4 10 -6 7 -2 9 -3 -1 -9 21 17 15 -13 -15 25 19 20 -19 -10 -4 24 -24 -12 -25 -28 -8 -14
right_child=6 2 22 -5 5 -7 28 11 12 -11 13 14 29 16 -16 -17 -18 18 -20 -21 -22 -23 23 26 -26 -27 27 -29 -30 -31
leaf_value=0.0077616887252070933 -0.097291475751833389 0.033475147133514002 0.0054663053355970027 0.0065674651187610554 0.2056998363388679 -0.0077221200927653907 -0.097300932424292941 -0.097279617998591139 0.022487684998797206 0.24315604374030017 0.1506981070855995 0.063689650735285583 -0.067466272768916424 0.23667004355268395 0.13110396225023338 -0.072307848346453027 0.11433340929248309 0.22648495526472337 0.33681700971240908 0.20074687181660461 0.31905480947326476 0.14189067187843482 0.011330680354384681 -0.097616116335738148 -0.098137263000701302 0.23620859553003759 -0.098549819739893962 0.0091269358070720959 -0.040696165625597816 -0.018386175121220424
leaf_weight=0.82538935542106528 7.7954846546053913 2.9244868606328955 2.8593527972698203 4.2810758650302878 4.065728120505808 4.8714680299162865 78.45543747395277 3.1760919988155392 2.4070636481046659 2.5945584774017334 3.378652989864352 4.2387403398752159 2.7068642899394035 4.4349623620510084 2.5810376033186913 3.572378508746624 3.867099940776825 3.691219009459024 4.392293579876422 6.5079381838440886 7.2491451576352119 2.4550993293523788 3.6382487565279034 17.160986222326759 2.1741003915667534 4.4679027572274208 3.6021113917231551 2.789604015648365 1.7525454908609379 2.4084721431136131
leaf_count=5 88 23 27 30 26 34 886 36 20 20 19 35 20 22 22 32 22 17 22 32 35 20 37 188 23 22 37 29 19 21
internal_value=0.000719679 0.0858851 -0.0263377 0.188808 0.205146 0.0893682 -0.0829215 -0.0335787 0.0583589 0.132048 0.231805 0.00302678 0.0175976 0.236673 0.0336828 0.00149183 0.179686 0.252609 0.271729 0.255345 0.287822 0.082779 -0.0670679 -0.0741307 -0.0296156 0.199389 -0.0851162 -0.0515553 -0.0960641 -0.0443577
internal_weight=201.326 99.7538 47.7209 52.0329 47.7518 8.9372 101.572 21.3637 15.4965 5.51905 38.8146 13.5682 9.9775 37.9892 10.3922 7.81112 8.30206 29.6872 21.8406 17.4483 10.9404 4.86216 32.2244 29.3651 5.81235 7.84656 23.5527 6.39172 80.208 5.11534
internal_count=1869 751 465 286 256 60 1118 213 124 43 196 125 81 191 89 67 44 147 106 84 52 40 341 314 60 41 254 66 905 41
cat_boundaries=0 1
cat_threshold=2
is_linear=0
shrinkage=0.1


Tree=23
num_leaves=31
num_cat=0
split_feature=7 9 10 13 10 8 11 8 7 13 13 13 5 11 8 5 8 5 10 7 11 5 10 8 3 7 5 7 4 3
split_gain=142.332 44.9692 41.7801 19.4575 9.31378 6.76701 6.20709 5.99362 5.58705 8.61948 5.21633 5.11741 4.78244 4.37894 4.36698 4.02064 6.43047 5.00687 6.10882 2.94497 2.62055 2.43522 1.65417 2.29352 1.17173 1.15294 0.89462 0.70521 1.28944 0.393587
threshold=4.3542816091954029 1.0000000180025095e-35 177.92169059568138 172.50000000000003 164.55530307951207 15249011.921033477 -2.6917472534204285 8895450.1339949239 4.4118390804597709 173.50000000000003 171.50000000000003 173.50000000000003 81544.500000000015 -2.5278330128046922 13271973.123984465 58157.500000000007 14799397.352343287 87416.000000000015 191.65189283445071 3.9515517241379317 -14.480591639452502 75817.000000000015 187.7774664190456 14843761.825922793 2.4100000000000006 4.2108908045977023 80611.500000000015 4.4729597701149437 2012.5000000000002 5.1100000000000003
decision_type=2 2 2 2 2 2 2 2 2 2 2 2 2 2 2 2 2 2 2 2 2 2 2 2 2 2 2 2 2 2
left_child=1 -1 4 5 -3 6 20 -6 9 -2 13 15 19 -7 21 16 -5 18 -17 -9 -4 -8 -13 -24 -10 -21 -22 28 -26 -30
right_child=8 2 3 11 7 10 14 12 24 -11 -12 22 -14 -15 -16 17 -18 -19 -20 25 26 -23 23 -25 27 -27 -28 -29 29 -31
leaf_value=-0.097418386202722473 -0.07994658009493133 -0.098003578233545219 0.064066318331398434 0.1963352789662853 0.1639833021547672 0.16209837806658772 0.085875906722130857 0.057966514179153994 -0.028173822536586804 0.13181429976256728 0.2140703606096786 0.27245323553893586 0.089995892894978086 0.007205273008803398 0.0096689389707044111 0.30451248841938772 0.025406943745431999 0.11012154255028324 0.13241286763473764 -0.098357005193348099 -0.0991042659444199 0.21014587514268512 0.1684276422568341 0.26529896151593774 0.0060177154577916621 -0.010415629730907795 -0.016056679556797682 -0.096282341859296919 -0.098196365436949734 -0.046219114992223614
leaf_weight=12.268692597746847 5.5148257911205274 7.608728431165221 2.4163717105984688 4.2876313328742999 2.9789872989058521 3.6883697956800461 3.1592387929558772 2.5202370062470418 2.8687651455402365 2.9505635201931 5.5498877018690109 6.7548771351575878 4.6786163970828047 3.6131126880645734 3.5836978703737259 5.4754529148340207 4.5225261598825455 4.5159697830677024 3.3089419305324554 4.4463613852858543 2.8880361840128925 3.1484061926603317 5.9087338894605619 4.1681547909975052 1.9041896536946277 2.2427672892808914 2.3547410219907761 78.38370917737484 6.0166048631072044 1.922310523688793
leaf_count=137 58 81 20 28 21 22 23 22 31 20 32 29 37 27 29 28 29 26 20 46 28 20 28 20 19 21 20 864 63 20
internal_value=0.00202951 0.0826227 0.106166 0.145812 -0.00615809 0.0858611 0.0454893 0.0352736 -0.0838477 -0.00613852 0.140995 0.192616 0.00766526 0.0854501 0.0978207 0.160987 0.108592 0.195694 0.239685 -0.034161 -0.0220936 0.147904 0.234164 0.208497 -0.0910691 -0.0688715 -0.0618043 -0.0931141 -0.0678848 -0.0856107
internal_weight=205.65 106.089 93.8198 69.3441 24.4757 30.4019 17.5505 16.867 99.561 8.46539 12.8514 38.9423 13.888 7.30148 9.89134 22.1105 8.81016 13.3004 8.78439 9.20937 7.65915 6.30764 16.8318 10.0769 91.0956 6.68913 5.24278 88.2268 9.84311 7.93892
internal_count=1869 794 657 429 228 221 140 147 1075 78 81 208 126 49 72 131 57 74 48 89 68 43 77 48 997 67 48 966 102 83
is_linear=0
shrinkage=0.1


Tree=24
num_leaves=31
num_cat=0
split_feature=10 7 9 13 10 11 7 11 11 6 8 6 3 10 8 11 5 11 10 3 7 10 3 11 3 7 10 9 10 10
split_gain=157.376 73.5752 66.3522 10.5003 6.7562 4.24814 3.05807 3.69328 4.37439 2.66208 4.79706 3.05063 5.79354 4.81119 4.45704 3.73497 3.5767 3.08505 3.02354 2.66957 2.21245 1.90415 3.41064 0.858986 0.855285 0.344449 0.000147304 0.000118733 9.27662e-05 8.49737e-05
threshold=176.78721580027999 4.4678448275862079 1.0000000180025095e-35 173.50000000000003 181.36916626714137 0.9228447529769378 4.2692816091954038 -6.8942717447685284 1.8311280267256669 2020.5000000000002 13337921.314452874 2017.5000000000002 4.6300000000000008 187.43037925637921 13801724.452318972 -7.2320568380292443 57184.500000000007 -2.1319672668783478 189.6751830074426 4.2900000000000009 4.530431034482759 166.75855747030897 5.3100000000000014 10.499706447348887 4.8100000000000014 4.1052298850574722 179.87879351384387 1.0000000180025095e-35 175.10165608431859 114.66692025882982
decision_type=2 2 2 2 2 2 2 2 2 2 2 2 2 2 2 2 2 2 2 2 2 2 2 2 2 2 2 2 2 2
left_child=21 2 -2 4 5 -4 7 -5 -9 11 -11 13 16 14 -6 -15 -13 -14 -18 -17 -3 25 23 24 27 -1 -22 -23 -29 -27
right_child=1 20 3 6 9 -7 -8 8 -10 10 -12 12 17 15 -16 19 18 -19 -20 -21 26 22 -24 -25 -26 29 -28 28 -30 -31
leaf_value=-0.061912835010754619 -0.097946087811489294 -0.0094022225703921988 0.13785166239938881 -0.0017223957289066061 0.17483957401015707 -0.01023281088675717 -0.030018712441672514 0.21891589328872774 0.052346102203215519 0.20177716885262878 0.051497777399601201 0.30096883205045066 0.20719301228455117 0.10858768177692807 0.026629011672215399 0.1700168866549121 0.26926846294468593 0.10215081982896371 0.15963770876606306 0.2571830565952265 -0.099109148242301978 -0.097915899814987051 0.037346792925921225 -0.026799724401180353 -0.043761896873000576 -0.098018122891174328 -0.098232302110261627 -0.098622632625404313 -0.099358175144269853 -0.098235853670382914
leaf_weight=2.716980777680873 12.347056172788141 3.2937267944216755 4.8617445081472379 2.9333091601729384 3.802893593907358 3.2204521521925926 2.6984066367149344 3.0959607735276213 3.2126442417502403 4.0980756133794767 4.4097701162099838 6.6636132895946565 5.2532084435224533 4.4953156113624528 4.3499340564012527 7.0747415274381691 4.4201003462076169 5.9774201661348325 5.8386778086423874 6.980071172118187 2.1694089174270657 1.9703650474548435 2.8956497013568869 2.7372728511691085 3.5944409370422354 29.156924374401569 16.394181102514267 9.4817472323775274 2.0931664034724227 46.527453288435936
leaf_count=27 131 29 30 22 20 25 20 23 25 21 28 32 27 24 25 39 23 31 31 36 21 21 25 25 34 307 170 95 20 482
internal_value=0.00193682 0.0806103 0.118406 0.150442 0.164949 0.0788456 0.0636389 0.0909846 0.134091 0.175931 0.123885 0.184003 0.20697 0.159789 0.095762 0.18793 0.243926 0.151285 0.206873 0.213306 -0.0849333 -0.0895024 -0.0640476 -0.0788186 -0.0871261 -0.0968961 -0.0983348 -0.0986335 -0.0987556 -0.098152
internal_weight=218.765 117.591 95.7334 83.3863 71.446 8.0822 11.9403 9.24191 6.30861 63.3638 8.50785 54.856 28.153 26.703 8.15283 18.5501 16.9224 11.2306 10.2588 14.0548 21.8573 101.174 22.7726 19.877 17.1397 78.4014 18.5636 13.5453 11.5749 75.6844
internal_count=1869 833 613 482 392 55 90 70 48 337 49 288 144 144 45 99 86 58 54 75 220 1036 220 195 170 816 191 136 115 789
is_linear=0
shrinkage=0.1


Tree=25
num_leaves=31
num_cat=0
split_feature=10 7 10 7 13 10 10 7 13 9 8 7 7 7 7 10 10 10 10 13 8 13 3 8 5 6 10 7 7 10
split_gain=316.733 166.597 14.1627 9.56766 5.57739 3.34137 1.18733 0.0163635 0.00790821 0.000966739 0.000479026 0.000348842 0.000186129 0.000183806 0.000132898 0.000246956 9.54177e-05 7.17007e-05 6.75562e-05 6.41521e-05 5.16739e-05 5.16574e-05 4.43698e-05 0.00010834 4.10564e-05 3.9857e-05 3.53702e-05 9.01605e-05 3.72158e-05 3.89689e-05
threshold=126.40260101118243 4.7696264367816097 117.99437476732167 4.5127873563218399 171.50000000000003 130.36460905358723 114.66692025882982 4.6537931034482769 173.50000000000003 1.0000000180025095e-35 9393564.9392170589 5.1855747126436791 4.5797126436781612 4.4799425287356334 4.3497126436781626 164.01969692854684 151.98308312868446 149.40031561097331 176.2067176782966 173.50000000000003 13271973.123984465 171.50000000000003 4.4700000000000015 13458599.64293508 82380.000000000015 2018.5000000000002 172.97674782766779 4.7041091954023004 4.7326436781609207 166.75855747030897
decision_type=2 2 2 2 2 2 2 2 2 2 2 2 2 2 2 2 2 2 2 2 2 2 2 2 2 2 2 2 2 2
left_child=1 2 6 -4 -5 -2 7 8 10 13 -1 -3 14 -7 18 17 -14 -16 21 -20 -17 -11 -12 -24 -23 -19 28 -28 29 -18
right_child=5 11 3 4 -6 9 -8 -9 -10 12 22 -13 16 -15 15 20 26 25 19 -21 -22 24 23 -25 -26 -27 27 -29 -30 -31
leaf_value=0.26548508119453607 0.018427336259387535 -0.099081407844024638 0.26065369972974078 -0.0044890167658538623 0.15710936924887473 -0.097623903148264912 0.21902952998433578 0.27137735547420921 0.26851589781560231 -0.097934497198021928 0.26432311723267238 -0.097811932731439608 -0.097578488781329104 -0.096699941416405935 -0.098731307323909279 -0.098673099554885665 -0.098031633815773761 -0.097869404914410915 -0.098411979077777365 -0.098094866532599467 -0.099116956663658953 -0.098137399105631434 0.26429247493873664 0.26490574512688003 -0.098621651665031465 -0.098340683346936908 -0.098331192166777381 -0.097866155603604899 -0.098544685207575117 -0.098541975268305465
leaf_weight=5.2615668475627926 2.5047661438584319 2.4732488915324238 4.5150044709444037 4.0478176027536374 4.5214961022138596 15.480068080127241 6.1693272292613974 4.9496262371540061 6.2273685336112967 7.9078107923269254 14.563707292079927 17.346204020082951 3.3604488894343367 2.5008658021688452 2.1114633902907389 4.7086418271064741 6.0821454524993914 4.2150377407670021 36.267188623547554 7.7411482632160178 5.9213987812399864 5.3705179989337921 6.0267044901847822 5.5181466937065125 2.5976349413394928 3.124946802854538 6.9214024096727398 10.484317928552626 3.5775851979851714 1.9843865782022474
leaf_count=21 21 24 23 31 28 169 28 20 25 84 58 186 37 30 21 47 64 45 370 81 57 56 24 22 26 32 71 112 36 20
internal_value=-0.000731268 0.154312 0.235218 0.142847 0.0807764 -0.0959779 0.260028 0.265972 0.265261 -0.0981762 0.264615 -0.0979703 -0.0982851 -0.0974954 -0.0983671 -0.0985897 -0.098083 -0.0982178 -0.0982924 -0.0983562 -0.0989203 -0.0981156 0.264439 0.264586 -0.0982953 -0.09807 -0.0981413 -0.0980511 -0.0982762 -0.0981572
internal_weight=214.482 81.6202 61.8008 13.0843 8.56931 132.862 48.7164 42.5471 37.5975 130.357 31.3701 19.8195 112.376 17.9809 79.9658 20.0815 32.4103 9.45145 59.8843 44.0083 10.63 15.876 26.1086 11.5449 7.96815 7.33998 29.0498 17.4057 11.6441 8.06653
internal_count=1869 490 280 82 59 1379 198 170 150 1358 125 210 1159 199 819 202 340 98 617 451 104 166 104 46 82 77 303 183 120 84
is_linear=0
shrinkage=0.1


Tree=26
num_leaves=31
num_cat=0
split_feature=10 10 10 7 7 7 10 6 8 3 5 7 10 7 10 5 7 3 10 10 10 10 9 11 7 7 7 7 7 7
split_gain=95.6505 73.8503 34.6112 48.3994 11.8672 5.72326 3.71245 3.88796 3.11555 2.94429 2.58056 3.15947 2.19517 1.94486 1.56184 3.04204 4.44207 0.426696 0.1255 0.62997 0.00201108 0.000307234 0.000134699 0.000110658 4.54808e-05 4.25834e-05 2.31074e-05 1.54235e-05 1.60175e-05 1.25823e-05
threshold=163.82677743995302 114.66692025882982 148.55931141344362 4.9840229885057479 4.6716954022988508 4.4627586206896561 157.0792745258066 2018.5000000000002 8997748.0779636018 4.7100000000000009 57184.500000000007 4.6039080459770121 125.90799695447799 4.530431034482759 170.49706174590207 85166.000000000015 4.4937643678160928 4.3900000000000015 175.55639645324339 174.4763723604124 151.98308312868446 118.00493940213688 1.0000000180025095e-35 2.2441348521995441 4.607155172413794 4.7041091954023004 4.4799425287356334 4.3021839080459783 4.5937643678160933 4.3497126436781626
decision_type=2 2 2 2 2 2 2 2 2 2 2 2 2 2 2 2 2 2 2 2 2 2 2 2 2 2 2 2 2 2
left_child=1 -1 3 5 6 -3 20 17 -7 -6 -10 -12 -13 -9 15 29 -17 -8 19 24 -4 -5 26 -22 -16 27 -20 -24 -29 -2
right_child=14 2 4 21 9 8 7 13 10 -11 11 12 -14 -15 18 16 -18 -19 22 -21 23 -23 25 -25 -26 -27 -28 28 -30 -31
leaf_value=-0.093942037849079965 -0.094007768052564333 0.14191134125084506 -0.099030945926286834 -0.095597588143722712 0.08383636418491916 0.18650147898487299 -0.01954910531582443 0.024035488062479949 0.3328143878294253 0.25245554807327303 0.19655456458764395 0.34225130956684224 0.24560084343802641 0.18251434751709411 -0.094107529262398015 -0.095020823485267719 0.14391681081693317 -0.095313014030981955 -0.093841079863749732 -0.016649266534385341 -0.095323186036744736 -0.093965954647194511 -0.094207210701845567 -0.094172792936225422 -0.094782110159587651 -0.093958089878613149 -0.093346891067524279 -0.094447064099713637 -0.094183247415324467 -0.094327451566583301
leaf_weight=17.626871298998594 2.7155427299439889 4.4742902219295528 1.7229594141244868 1.9029941484332074 2.1819157116115084 4.2676520869135883 1.3241015970706942 1.6784191988408568 6.4701132550835636 1.9709581211209295 5.4492332041263571 4.5411787107586843 4.8701597601175308 1.4376383796334264 4.285136003047227 1.4660651646554472 1.6579858586192129 1.6948279216885564 8.0385776795446855 1.2864571362733839 2.018664807081223 2.9323209561407566 26.111758686602116 1.4274147972464559 1.3034632578492162 5.9064611494541159 1.0723814740777005 6.4598129428923112 3.5750593617558479 2.2523515708744526
leaf_count=308 47 35 18 27 23 24 20 25 37 18 33 23 22 20 73 22 19 25 143 21 29 51 437 24 20 103 21 104 60 37
internal_value=-0.00106027 0.0822248 0.14388 0.199043 0.0193011 0.246258 -0.0338082 0.018795 0.264497 0.163863 0.280102 0.257151 0.292237 0.097152 -0.0866886 -0.0455311 0.0317874 -0.062083 -0.0924269 -0.0797415 -0.0962414 -0.0946081 -0.0941315 -0.0948467 -0.0942649 -0.094207 -0.0937829 -0.0942477 -0.0943531 -0.0941527
internal_weight=134.123 67.9917 50.3648 34.9079 15.4569 30.0726 11.304 6.13499 25.5983 4.15287 21.3307 14.8606 9.41134 3.11606 66.1311 8.09195 3.12405 3.01893 58.0391 6.87506 5.16904 4.83532 51.1641 3.44608 5.5886 42.0531 9.11096 36.1466 10.0349 4.96789
internal_count=1869 762 454 252 202 174 161 90 139 41 115 78 45 45 1107 125 41 45 982 114 71 78 868 53 93 704 164 601 164 84
is_linear=0
shrinkage=0.1


Tree=27
num_leaves=31
num_cat=0
split_feature=7 10 10 7 10 8 13 13 5 5 11 10 5 5 5 11 10 9 10 7 10 3 7 10 10 13 13 10 10 8
split_gain=120.951 202.225 6.82101 5.63942 13.1653 2.98906 1.99952 1.91052 3.39 0.996047 1.82616 0.419292 1.53848 0.228929 0.523395 0.122864 0.00470501 0.000688264 0.000195727 0.000153847 0.00010162 6.7295e-05 7.73615e-05 6.02514e-05 5.73067e-05 9.46584e-05 8.23016e-05 9.7871e-05 7.95344e-05 5.51985e-05
threshold=4.5127873563218399 165.00187963228265 173.93716164716167 4.4088218390804608 177.01708605062635 12749408.782144604 172.50000000000003 172.50000000000003 66752.000000000015 48220.500000000007 0.9228447529769378 155.01867274723674 84442.500000000015 78313.000000000015 64103.000000000007 -1.7665457899858759 165.00187963228265 1.0000000180025095e-35 115.47130991502867 4.3542816091954029 114.66692025882982 3.6300000000000003 4.9840229885057479 149.40031561097331 185.51148389561538 172.50000000000003 171.50000000000003 179.87879351384387 175.91025843957382 15734723.861310242
decision_type=2 2 2 2 2 2 2 2 2 2 2 2 2 2 2 2 2 2 2 2 2 2 2 2 2 2 2 2 2 2
left_child=3 11 5 17 16 -3 -6 9 -9 10 -4 21 -13 14 -11 -15 20 -1 -19 24 -5 22 -2 -22 26 29 -20 28 -28 -26
right_child=1 2 7 4 6 -7 -8 8 -10 13 -12 12 -14 15 -16 -17 -18 18 19 -21 23 -23 -24 -25 25 -27 27 -29 -30 -31
leaf_value=-0.09622064424712054 -0.097075758622920852 0.055592787918224154 0.15090509710628419 -0.09642471537222766 0.11956269562996696 0.17150277875916886 0.014128384830684971 0.20540911304326825 0.10945257647387899 0.2325909679050692 0.21873348201835852 -0.097357462082666268 0.0069751794776214716 0.2421966869190961 0.18934742318183606 0.22227749055057677 -0.10216887553358125 -0.096280679752929324 -0.096741669485963064 -0.097721034548407526 -0.097373560671532328 -0.096501258946291621 -0.096470585427823774 -0.096776269617318153 -0.097477308150645273 -0.096954723779739863 -0.097091085773936325 -0.09674789019504014 -0.097691318710433975 -0.09705330758981677
leaf_weight=12.184050835669039 4.9853605404496175 5.3033908233046514 6.8928141891956356 4.2139798551797885 3.8902992457151404 3.8326223194599152 3.3455550670623779 9.3399115949869138 6.0773640051484099 5.80612660944462 9.3585844188928586 5.4945539087057105 1.9028073176741598 5.7337008714675868 5.4039037525653839 6.7325939685106295 1.9250674098730076 3.1871402263641349 11.700506925582888 3.5750941708683959 3.1139037311077118 28.776529759168625 3.665423110127449 3.690401628613472 8.990630507469179 12.897809520363806 7.5477334335446375 5.5181734859943381 3.1201681792736053 4.662781909108161
leaf_count=154 58 31 28 52 23 21 25 38 25 22 36 62 20 22 21 25 18 40 140 39 35 353 45 44 100 151 87 66 34 54
internal_value=-0.000575367 0.0708625 0.184269 -0.084033 -0.0372149 0.104218 0.0708143 0.197484 0.167584 0.209029 0.189965 -0.092275 -0.0705202 0.222115 0.211745 0.231439 -0.0976076 -0.096907 -0.0970437 -0.0970856 -0.0968106 -0.0965748 -0.0968193 -0.0970496 -0.0970438 -0.097149 -0.0969437 -0.0970898 -0.0972666 -0.0973325
internal_weight=202.869 109.306 64.481 93.5633 20.1792 9.13601 7.23585 55.345 15.4173 39.9277 16.2514 44.8247 7.39736 23.6763 11.21 12.4663 12.9434 73.3841 61.2 58.0129 11.0183 37.4273 8.65078 6.80431 54.4378 26.5512 27.8866 16.1861 10.6679 13.6534
internal_count=1869 807 269 1062 197 52 48 217 63 154 64 538 82 90 43 47 149 865 711 671 131 456 103 79 632 305 327 187 121 154
is_linear=0
shrinkage=0.1


Tree=28
num_leaves=31
num_cat=0
split_feature=7 10 7 7 13 9 13 10 7 7 7 7 3 10 13 10 10 8 5 10 7 10 13 13 10 8 8 10 10 7
split_gain=388.595 0.514681 0.488989 0.0302809 0.00752053 0.000957597 0.000801164 0.000496212 0.00022429 0.000272109 0.000190405 0.000151986 0.000129035 0.000112493 8.68637e-05 7.95893e-05 6.44323e-05 5.97295e-05 5.58367e-05 4.85594e-05 5.96749e-05 4.65097e-05 8.43564e-05 5.90941e-05 9.08502e-05 4.92211e-05 5.5641e-05 4.78285e-05 4.64473e-05 3.71348e-05
threshold=4.9840229885057479 123.21558831978714 4.9038505747126448 5.2040517241379325 171.50000000000003 1.0000000180025095e-35 172.50000000000003 162.85253543556786 4.687241379310346 4.3497126436781626 4.5706609195402308 4.4799425287356334 3.2300000000000009 114.66692025882982 171.50000000000003 167.51989702434372 117.22009390297683 13271973.123984465 77941.000000000015 149.40031561097331 4.5368390804597709 185.51148389561538 172.50000000000003 171.50000000000003 179.87879351384387 15734723.861310242 13042488.90752033 192.15001172585877 175.91025843957382 4.2371839080459779
decision_type=2 2 2 2 2 2 2 2 2 2 2 2 2 2 2 2 2 2 2 2 2 2 2 2 2 2 2 2 2 2
left_child=2 3 5 -2 -5 11 -6 13 9 21 15 -1 -8 -7 -15 -11 -14 -17 -12 20 -16 23 25 29 28 26 -23 -24 -25 -9
right_child=1 -3 -4 4 6 7 12 8 -10 10 18 -13 16 14 19 17 -18 -19 -20 -21 -22 22 27 24 -26 -27 -28 -29 -30 -31
leaf_value=-0.095958798535980577 0.22047072223543207 0.18410441360882696 -0.045822758840151391 0.21661301984639733 0.21364475147915993 -0.096168532039555388 0.21301569655158789 -0.096392150492981998 -0.096404147040409283 -0.096915037755089986 -0.097074877011020175 -0.095014623714771818 0.21256580374251227 -0.096346598193952721 -0.097164858157641185 -0.097346753959092786 0.2121859559184941 -0.097898983498516043 -0.09651078268951617 -0.096471718006850893 -0.096624807248727407 -0.096974077231627459 -0.096474855524819256 -0.096844234606744573 -0.096480646692210598 -0.096783793244087812 -0.097484857493201876 -0.096867160199344798 -0.097333439581282988 -0.096909219836068053
leaf_weight=12.96284072101116 6.7639427781105033 6.3549770265817633 1.9246464893221844 5.9885941743850699 9.0190634131431562 13.373265601694582 5.4710440039634731 7.6492445170879382 10.412745177745817 1.7019123956561113 4.7667709514498702 1.9630910158157338 19.981332004070286 14.371125549077989 3.4895081147551519 3.3696912527084333 5.750926971435546 4.6772448495030403 2.7770487815141678 5.7688619792461386 4.9464135989546776 5.0488916933536547 5.6802090480923635 5.7529215440154058 5.1973885446786872 4.5339972600340834 3.6923619210720062 6.8619727045297623 2.9288651421666145 1.6970992609858511
leaf_count=169 25 24 21 22 33 170 20 95 129 20 55 29 73 180 40 38 21 50 34 71 60 59 70 68 64 54 41 81 33 20
internal_value=-0.002445 0.210996 -0.0958687 0.214222 0.213307 -0.0965895 0.212815 -0.0966845 -0.0968356 -0.0969034 -0.0972444 -0.0958346 0.212575 -0.0964079 -0.0965199 -0.0975363 0.212481 -0.0976677 -0.0968672 -0.0966953 -0.0968482 -0.0967831 -0.0968755 -0.0966804 -0.0968113 -0.0970512 -0.0971898 -0.0966895 -0.0970093 -0.096486
internal_weight=194.878 59.3299 135.548 52.9749 46.211 133.623 40.2224 118.698 76.7484 66.3356 17.2927 14.9259 31.2033 41.9492 28.5759 9.74885 25.7323 8.04694 7.54382 14.2048 8.43592 49.043 25.8174 23.2255 13.8792 13.2753 8.74125 12.5422 8.68179 9.34634
internal_count=1869 218 1651 194 169 1630 147 1432 911 782 197 198 114 521 351 108 94 88 89 171 100 585 305 280 165 154 100 151 101 115
is_linear=0
shrinkage=0.1


Tree=29
num_leaves=31
num_cat=0
split_feature=9 7 10 7 10 13 3 10 3 7 7 7 10 7 10 10 10 8 5 10 13 13 10 8 8 10 10 10 10 3
split_gain=382.212 0.321778 0.0398739 0.0147523 0.00916108 0.00324373 0.00233379 0.000555587 0.000449186 0.000224171 0.000210559 0.000147159 7.12172e-05 6.95684e-05 6.14515e-05 5.59962e-05 7.02151e-05 4.61092e-05 4.34914e-05 3.60141e-05 6.5528e-05 4.5793e-05 7.03445e-05 3.80627e-05 4.35138e-05 3.69751e-05 3.642e-05 3.2257e-05 3.04704e-05 5.92636e-05
threshold=1.0000000180025095e-35 4.5008908045977014 183.83807120132107 4.3611206896551726 172.97674782766779 172.50000000000003 4.2500000000000009 162.85253543556786 4.5500000000000007 4.687241379310346 4.3497126436781626 4.5706609195402308 114.66692025882982 4.5706609195402308 167.51989702434372 149.40031561097331 129.01488397888136 13271973.123984465 77941.000000000015 185.51148389561538 172.50000000000003 171.50000000000003 179.87879351384387 15734723.861310242 13042488.90752033 192.15001172585877 175.91025843957382 172.97674782766779 151.98308312868446 3.3500000000000001
decision_type=2 2 2 2 2 2 2 2 2 2 2 2 2 2 2 2 2 2 2 2 2 2 2 2 2 2 2 2 2 2
left_child=1 2 4 5 -1 -4 -6 12 -7 10 19 14 -2 15 -12 16 -14 -16 -13 21 23 -9 26 24 -21 -22 -23 -11 29 -15
right_child=7 -3 3 -5 6 8 -8 9 -10 27 11 18 13 28 17 -17 -18 -19 -20 20 25 22 -24 -25 -26 -27 -28 -29 -30 -31
leaf_value=0.22612070325004052 -0.095610150998259175 0.2422480251893048 0.21715748344544511 0.22134761952959683 0.21975753366590409 0.21436325204137754 0.22262485256538789 -0.0958608945856992 0.21550072240414975 -0.096131992349049844 -0.096252681391272896 -0.096398871021229238 -0.095985952156426829 -0.096154417974253087 -0.096646027081789779 -0.095810168641472848 -0.096665189782418226 -0.097148966033016232 -0.095882602046881815 -0.096305400711427278 -0.09585061028792935 -0.096186831397420652 -0.095856046054510369 -0.096133062962644567 -0.096773667765437763 -0.096208317885710257 -0.096635924851273355 -0.095677390330773895 -0.095907633220433081 -0.095546809939801802
leaf_weight=5.6333213150501278 22.620469197630882 6.7882974594831458 9.2462774515152031 5.6754224002361289 5.6895014047622663 9.556972920894621 5.6650789082050323 8.6894992068409938 5.4524033963680258 1.8777727782726277 1.5830242931842819 4.4346768781542769 4.4517619311809522 1.8721504062414194 3.1354928687214851 6.6921834647655487 2.3124506697058678 4.3543653413653374 2.5816663652658463 4.6958722025156039 5.28090091049671 5.3498780354857427 4.83214446902275 4.2168060541152945 3.436836764216423 6.3818173781037331 2.7258708924055099 9.2480767704546434 5.8618246391415587 11.259573850780724
leaf_count=21 308 26 34 21 21 35 21 115 20 24 20 55 58 24 38 89 28 50 34 59 70 68 64 54 41 81 33 125 77 155
internal_value=-0.00197456 0.221898 0.218954 0.216758 0.222824 0.215684 0.221188 -0.095986 0.214776 -0.0961673 -0.0962418 -0.0965528 -0.0957464 -0.0958413 -0.0968188 -0.0960153 -0.0962182 -0.0969384 -0.0962089 -0.0961321 -0.0962163 -0.0960384 -0.0961578 -0.0963769 -0.0965033 -0.0960463 -0.0963384 -0.0957541 -0.0957181 -0.0956334
internal_weight=181.602 53.7073 46.919 29.9311 16.9879 24.2557 11.3546 127.895 15.0094 72.8247 61.6989 16.0892 55.0704 32.4499 9.07288 13.4564 6.76421 7.48986 7.01634 45.6096 24.0122 21.5974 12.9079 12.3495 8.13271 11.6627 8.07575 11.1258 18.9935 13.1317
internal_count=1869 199 173 110 63 89 42 1670 55 931 782 197 739 431 108 175 86 88 89 585 305 280 165 154 100 151 101 149 256 179
is_linear=0
shrinkage=0.1


Tree=30
num_leaves=31
num_cat=0
split_feature=10 10 7 10 10 7 11 7 10 10 7 5 3 5 5 7 10 9 5 7 10 9 7 7 7 10 13 8 10 8
split_gain=81.6407 155.156 45.8803 6.15778 5.95638 9.14997 5.62927 5.01692 2.44922 2.4702 2.24429 1.72424 1.48423 1.40295 1.44869 1.71333 0.827356 0.495408 0.496227 0.38381 0.00113792 0.000740187 0.000103509 0.000159756 9.45319e-05 8.78251e-05 8.39601e-05 8.26835e-05 5.91101e-05 5.18072e-05
threshold=171.76912829079157 140.46021334470845 4.2877011494252883 168.52626518221641 181.92952511009045 4.3368678160919547 -5.2621946129758568 4.607155172413794 149.40031561097331 162.2451684170023 4.6112931034482765 83087.500000000015 4.3900000000000015 36775.000000000007 74206.000000000015 4.5577873563218398 155.01867274723674 0.32500000000000007 1274.0000000000002 4.2583620689655186 164.01969692854684 1.0000000180025095e-35 4.7227298850574719 4.3794540229885062 4.4678448275862079 130.36460905358723 172.50000000000003 14356684.710743561 192.15001172585877 15521424.48473925
decision_type=2 2 2 2 2 2 2 2 2 2 2 2 2 2 2 2 2 2 2 2 2 2 2 2 2 2 2 2 2 2
left_child=1 25 11 8 5 19 -7 -8 -4 13 12 20 -11 -10 16 -16 -15 18 -6 -2 -3 24 23 26 -20 -1 29 -25 -28 -23
right_child=4 2 3 -5 17 6 7 -9 9 10 -12 -13 -14 14 15 -17 -18 -19 21 -21 -22 22 -24 27 -26 -27 28 -29 -30 -31
leaf_value=-0.096281962156223047 -0.096752570146737271 -0.099393863455948153 0.1136653370976317 0.062362007606952069 -0.04454309946516103 0.14487295460250058 0.061187635405213804 -0.098359036163846073 0.16180843437626929 0.16012477853356144 0.20185464384090365 -0.0072916782878283395 0.082308924962136196 0.20485934049961912 0.22292105501942516 0.15377490311409497 0.25024011390512396 -0.041475885574377494 -0.096051957805443622 -0.05057720393753809 -0.096498126590554484 -0.097121122255834968 -0.096450533103228972 -0.097035809119282238 -0.095161869389997822 -0.096908423792589266 -0.096472287929965275 -0.097669689789976699 -0.096875982787049453 -0.096748205481333116
leaf_weight=40.639178201556206 11.522452823817732 2.1030291393399221 4.8110151439905158 4.6360121965408316 1.8875857517123211 3.1881031095981598 4.2692720964550954 3.6609382107853889 7.033984810113906 5.573512978851797 6.3888307064771643 3.2944313064217567 4.3753059431910515 6.8582917451858583 7.0994621366262418 7.2357123494148254 9.698741286993025 1.7879855856299389 8.7690005376934987 2.1333866566419593 3.8256752789020538 10.241265945136552 5.0184681192040435 4.557347819209097 1.381127182394265 2.36825356632471 8.0322610437870008 3.7519351914525032 6.6134440004825583 5.8552339226007453
leaf_count=511 138 20 25 28 21 22 34 39 28 26 28 35 21 26 27 29 38 20 113 24 47 118 62 53 20 28 99 41 78 70
internal_value=0.000191246 0.0543297 0.143162 0.173339 -0.0757359 -0.0347022 0.0326498 -0.0124662 0.182049 0.188111 0.155604 -0.0652946 0.125903 0.202115 0.211292 0.188019 0.231442 -0.0932947 -0.094946 -0.0895388 -0.0975253 -0.0967007 -0.096878 -0.096933 -0.0959308 -0.0963165 -0.0968278 -0.097322 -0.0966546 -0.0969855
internal_weight=198.611 115.941 72.934 63.7109 82.6698 24.7742 11.1183 7.93021 59.0749 54.2638 16.3376 9.22314 9.94882 37.9262 30.8922 14.3352 16.557 57.8957 56.1077 13.6558 5.9287 54.2201 44.07 39.0515 10.1501 43.0074 30.7422 8.30928 14.6457 16.0965
internal_count=1869 917 378 276 952 257 95 73 248 223 75 102 47 148 120 56 64 695 675 162 67 654 521 459 133 539 365 94 177 188
is_linear=0
shrinkage=0.1


Tree=31
num_leaves=31
num_cat=1
split_feature=7 10 13 13 7 7 5 10 11 5 6 13 10 13 10 8 8 5 10 11 3 11 11 11 2 7 3 9 10 7
split_gain=115.436 77.3746 13.7679 10.014 8.98406 6.56573 4.82735 4.53412 4.01102 6.74329 4.91598 3.55599 4.42113 3.22128 2.95871 3.51875 1.91948 2.2993 1.61619 1.57225 1.44854 3.74413 1.08462 0.607925 0.569986 0.371054 0.334819 0.000413233 0.000253203 0.000273651
threshold=4.3260057471264375 181.36916626714137 171.50000000000003 173.50000000000003 4.2537068965517255 4.464425287356323 62883.000000000007 155.01867274723674 5.9987168131594606 47538.000000000007 2018.5000000000002 170.50000000000003 176.78721580027999 169.50000000000003 177.92169059568138 8567334.9829017073 11579887.897330137 63225.500000000007 183.32296829690884 -3.1855525031612308 4.9700000000000015 -8.7704434313240416 7.1344172537649673 -0.49354282481933948 0 4.4156034482758626 5.2300000000000013 1.0000000180025095e-35 159.04085794609577 4.5937643678160933
decision_type=2 2 2 2 2 2 2 2 2 2 2 2 2 2 2 2 2 2 2 2 2 2 2 2 1 2 2 2 2 2
left_child=1 3 8 4 13 7 -6 -2 9 -3 -11 -9 -13 -1 15 -15 -17 23 -4 -19 22 -22 -20 -18 27 -14 -23 -7 -29 -30
right_child=5 2 18 -5 6 24 -8 11 -10 10 -12 12 25 14 -16 16 17 19 20 -21 21 26 -24 -25 -26 -27 -28 28 29 -31
leaf_value=0.24646235662031987 -0.096223377300777069 0.16946920529780951 0.0090099464837098183 0.0043871573679008565 0.14830948045325437 -0.094895176097844772 -0.0015287023614946977 0.10062165886786655 -0.063366150242392061 0.093667881931543892 -0.055676124549324572 0.049226852521204227 -0.097892602280502158 0.083836467677435245 0.10263463984456467 0.23928874303963865 0.18829356858019949 0.19726051333072903 -0.096612396013973909 0.11868810540496438 0.07153108869507456 -0.04524256014178258 -0.031294930217160649 0.23511596240377683 -0.03690261494038187 -0.043503073329687364 -0.096716908550125325 -0.096120328558650631 -0.097090421154462897 -0.096330407289832734
leaf_weight=6.4517323672771445 6.9384319186210659 4.7135258987545994 2.7746872007846859 4.3045235723257056 4.0925460234284383 2.2593124546110621 4.5301682502031326 2.9350218623876563 2.570171743631362 4.5500209704041463 4.275009959936142 4.6384441107511503 4.0955617874860764 3.3049954399466506 5.5594197660684577 6.7864549607038525 5.787115067243576 3.9379916489124271 15.928502209484583 7.2085583731532106 2.3216418027877808 1.9087096378207196 3.0250550061464301 5.3240047544240969 1.658131606876849 1.8080544173717497 3.7391545623540878 42.262560680508614 6.3181656822562244 18.937485475093126
leaf_count=25 88 33 27 30 24 34 31 22 22 34 35 39 45 15 33 31 24 19 194 33 20 21 34 21 19 19 45 542 73 237
internal_value=0.000969187 0.0736034 -0.02328 0.15107 0.162987 -0.0805556 0.0695881 -0.0305433 0.0511592 0.0729009 0.0213229 0.00327086 -0.0238326 0.181142 0.170025 0.181607 0.192732 0.178537 -0.0636575 0.146447 -0.0711466 -0.0353754 -0.0861875 0.210729 -0.0948485 -0.0812351 -0.079321 -0.0962255 -0.09627 -0.0965205
internal_weight=194.945 103.094 45.8065 57.2875 52.983 91.8512 8.62271 20.4155 16.1087 13.5386 8.82503 13.4771 10.5421 44.3603 37.9085 32.3491 29.0441 22.2577 29.6978 11.1466 26.9231 7.96951 18.9536 11.1111 71.4357 5.90362 5.64786 69.7775 67.5182 25.2557
internal_count=1869 751 465 286 256 1118 55 213 124 102 69 125 103 201 176 143 128 97 341 52 314 86 228 45 905 64 66 886 852 310
cat_boundaries=0 1
cat_threshold=2
is_linear=0
shrinkage=0.1


Tree=32
num_leaves=31
num_cat=0
split_feature=7 9 10 13 13 10 11 3 7 5 10 11 10 6 3 11 7 7 4 10 3 10 6 10 10 7 13 5 8 5
