{"learner":{"attributes":{"scikit_learn":"{\"_estimator_type\": \"regressor\"}"},"feature_names":["model","car_type","fuel_type","car_rating","year_to_start","riders","year_to_work","mean_rating","distance_sum","rating_min","speed_max","user_ride_quality_median","deviation_normal_count","user_uniq"],"feature_types":["c","c","c","float","int","int","int","float","float","float","float","float","int","int"],"gradient_booster":{"model":{"gbtree_model_param":{"num_parallel_tree":"1","num_trees":"100"},"iteration_indptr":[0,1,2,3,4,5,6,7,8,9,10,11,12,13,14,15,16,17,18,19,20,21,22,23,24,25,26,27,28,29,30,31,32,33,34,35,36,37,38,39,40,41,42,43,44,45,46,47,48,49,50,51,52,53,54,55,56,57,58,59,60,61,62,63,64,65,66,67,68,69,70,71,72,73,74,75,76,77,78,79,80,81,82,83,84,85,86,87,88,89,90,91,92,93,94,95,96,97,98,99,100],"tree_info":[0,0,0,0,0,0,0,0,0,0,0,0,0,0,0,0,0,0,0,0,0,0,0,0,0,0,0,0,0,0,0,0,0,0,0,0,0,0,0,0,0,0,0,0,0,0,0,0,0,0,0,0,0,0,0,0,0,0,0,0,0,0,0,0,0,0,0,0,0,0,0,0,0,0,0,0,0,0,0,0,0,0,0,0,0,0,0,0,0,0,0,0,0,0,0,0,0,0,0,0],"trees":[{"base_weights":[6.915414E-7,-1.1290687E1,4.7738576E0,1.4434826E0,-1.1743932E1,-1.2440398E0,1.9207586E1,4.294795E0,-4.465354E0,-1.1922054E1,-5.198668E0,-1.1324167E1,1.1935399E0,7.7645516E0,2.4832851E1,6.6718974E0,-3.3159347E0,-1.6979783E0,4.0531313E-1,-8.289914E0,-1.2206278E1,2.2994175E0,-7.583776E0,2.126565E0,-1.1562812E1,2.9157846E1,5.433533E-1,3.0715187E1,5.99331E0,-1.0907473E1,2.7388607E1,2.0600727E0,3.0515218E0,8.403134E-1,-1.8865827E0,-9.563301E-1,-9.056888E0,-1.13873625E1,-1.3540902E1,-2.0103302E0,-9.612122E0,2.055313E0,-5.195828E-1,-9.362633E0,-1.2686713E1,3.749099E1,1.1897503E1,-9.4108313E-1,6.1767797E0,9.742673E0,2.4948132E0,9.648778E0,3.1922004E0,-5.981068E0,-3.8616762E0,3.3126858E1,2.1842865E1,1.2704175E0,-2.5780393E-2,1.0214176E0,-1.4995828E0,6.468132E-1,-2.8284745E0,-3.156453E0,-3.8607965E0,-1.9627768E0,-4.1495247E0,-1.0256871E0,-2.4103032E-1,-3.4619782E0,-1.6128992E0,-8.867021E-1,-3.0292795E0,-4.285804E0,-3.4929821E0,4.20122E0,1.3364424E1,5.2546954E-1,5.72072E0,-1.9841143E0,4.2640573E-1,5.4991846E0,1.4462333E0,7.967305E-2,3.3307455E0,-2.5233078E-1,1.9259179E0,-3.1058276E-1,-2.325699E0,9.126893E0,1.3641594E1,7.225378E0,4.670859E0],"categories":[0,3,4,5,6,7,8,9,11,12,14,15,16,17,18,19,20,22,23,24,7,8,15,18,19,20,22,23,0,1,2,4,5,6,7,8,9,11,12,13,14,15,16,17,18,19,20,22,23,24,0,1,2,3,4,5,6,7,8,9,11,12,13,14,15,16,17,18,19,20,22,23,24,2,3,4,5,6,7,8,9,11,14,15,16,17,18,19,20,22,23,24,25,1,2,4,5,6,7,9,14,15,16,17,18,19,20,22,23,24,8,18,19,20,22,23,25,5,6,7,8,9,16,17,18,20,23,24,0,1,5,6,7,8,10,12,13,17,18,19,20,21,23,25,8,9,16,18,23,24,1,3,4,5,8,11,15,19,20,21,22,23,24,25,0,3,4,5,6,7,8,9,10,11,12,13,14,15,16,17,18,19,20,21,22,23,25,0,2,3,4,6,7,9,10,11,12,13,14,16,17,18,20,21,22,24,25],"categories_nodes":[1,10,11,12,13,16,19,22,23,24,28,29,30,48,56],"categories_segments":[0,20,28,50,73,93,95,110,116,117,128,144,150,164,187],"categories_sizes":[20,8,22,23,20,2,15,6,1,11,16,6,14,23,20],"default_left":[0,1,0,0,0,0,0,0,0,0,1,1,1,1,0,0,1,0,0,1,0,0,1,1,1,0,0,0,1,1,1,0,0,0,0,0,0,0,0,0,0,0,0,0,0,0,0,0,1,0,0,0,0,0,0,0,1,0,0,0,0,0,0,0,0,0,0,0,0,0,0,0,0,0,0,0,0,0,0,0,0,0,0,0,0,0,0,0,0,0,0,0,0],"id":0,"left_children":[1,3,5,7,9,11,13,15,17,19,21,23,25,27,29,31,33,-1,-1,35,37,-1,39,41,43,45,47,49,51,53,55,57,-1,-1,-1,59,61,63,65,67,69,-1,-1,71,73,75,77,79,81,-1,-1,83,85,87,-1,89,91,-1,-1,-1,-1,-1,-1,-1,-1,-1,-1,-1,-1,-1,-1,-1,-1,-1,-1,-1,-1,-1,-1,-1,-1,-1,-1,-1,-1,-1,-1,-1,-1,-1,-1,-1,-1],"loss_changes":[1.0084713E5,3.2260156E3,1.1424571E5,3.5613654E2,5.6409375E2,2.284008E4,2.4718422E4,2.7540436E2,5.62836E1,4.376875E2,5.4901685E2,6.0558984E2,1.3602487E4,5.0599097E3,2.3956719E4,1.5659268E2,9.034984E1,0E0,0E0,2.2194995E2,3.7260938E2,0E0,1.3894476E2,8.4783356E1,3.2137695E2,1.9991094E3,6.1354985E3,8.48125E1,1.2081621E3,9.723755E1,6.9775312E3,2.8364822E1,0E0,0E0,0E0,1.051619E2,1.7439697E2,2.5595703E2,2.7181055E2,5.75342E0,1.9615295E1,0E0,0E0,2.7152393E2,2.5572266E1,1.1993887E3,4.7593494E2,7.7955117E3,2.433169E3,0E0,0E0,7.06354E2,9.1663086E2,5.3296265E1,0E0,2.5220312E3,1.3969648E3,0E0,0E0,0E0,0E0,0E0,0E0,0E0,0E0,0E0,0E0,0E0,0E0,0E0,0E0,0E0,0E0,0E0,0E0,0E0,0E0,0E0,0E0,0E0,0E0,0E0,0E0,0E0,0E0,0E0,0E0,0E0,0E0,0E0,0E0,0E0,0E0],"parents":[2147483647,0,0,1,1,2,2,3,3,4,4,5,5,6,6,7,7,8,8,9,9,10,10,11,11,12,12,13,13,14,14,15,15,16,16,19,19,20,20,22,22,23,23,24,24,25,25,26,26,27,27,28,28,29,29,30,30,31,31,35,35,36,36,37,37,38,38,39,39,40,40,43,43,44,44,45,45,46,46,47,47,48,48,51,51,52,52,53,53,55,55,56,56],"right_children":[2,4,6,8,10,12,14,16,18,20,22,24,26,28,30,32,34,-1,-1,36,38,-1,40,42,44,46,48,50,52,54,56,58,-1,-1,-1,60,62,64,66,68,70,-1,-1,72,74,76,78,80,82,-1,-1,84,86,88,-1,90,92,-1,-1,-1,-1,-1,-1,-1,-1,-1,-1,-1,-1,-1,-1,-1,-1,-1,-1,-1,-1,-1,-1,-1,-1,-1,-1,-1,-1,-1,-1,-1,-1,-1,-1,-1,-1],"split_conditions":[1.4753171E2,NaN,4.530747E0,4.8E0,1.4044699E2,1E-1,1.67E2,2.016E3,2.2E-1,2.86E0,NaN,NaN,NaN,NaN,1E-1,2.019E3,NaN,-1.6979783E0,4.0531313E-1,NaN,1.4014057E7,2.2994175E0,NaN,NaN,NaN,1.71E2,4.3205748E0,1.4375549E7,NaN,NaN,NaN,1.72E2,3.0515218E0,8.403134E-1,-1.8865827E0,4.766667E0,2.015E3,5.2064943E0,4.3205748E0,3.02E0,4.694138E0,2.055313E0,-5.195828E-1,8.906595E6,4.133678E0,1.7485272E2,6.1075E4,1.7792136E2,NaN,9.742673E0,2.4948132E0,4.55977E0,4.102934E-1,4.0082E4,-3.8616762E0,9.651314E0,NaN,1.2704175E0,-2.5780393E-2,1.0214176E0,-1.4995828E0,6.468132E-1,-2.8284745E0,-3.156453E0,-3.8607965E0,-1.9627768E0,-4.1495247E0,-1.0256871E0,-2.4103032E-1,-3.4619782E0,-1.6128992E0,-8.867021E-1,-3.0292795E0,-4.285804E0,-3.4929821E0,4.20122E0,1.3364424E1,5.2546954E-1,5.72072E0,-1.9841143E0,4.2640573E-1,5.4991846E0,1.4462333E0,7.967305E-2,3.3307455E0,-2.5233078E-1,1.9259179E0,-3.1058276E-1,-2.325699E0,9.126893E0,1.3641594E1,7.225378E0,4.670859E0],"split_indices":[10,0,7,3,10,9,10,4,9,3,0,0,0,0,9,6,0,0,0,0,8,0,0,0,0,13,7,8,0,0,0,13,0,0,0,7,6,7,7,3,7,0,0,8,7,10,5,10,0,0,0,7,11,5,0,11,0,0,0,0,0,0,0,0,0,0,0,0,0,0,0,0,0,0,0,0,0,0,0,0,0,0,0,0,0,0,0,0,0,0,0,0,0],"split_type":[0,1,0,0,0,0,0,0,0,0,1,1,1,1,0,0,1,0,0,1,0,0,1,1,1,0,0,0,1,1,1,0,0,0,0,0,0,0,0,0,0,0,0,0,0,0,0,0,1,0,0,0,0,0,0,0,1,0,0,0,0,0,0,0,0,0,0,0,0,0,0,0,0,0,0,0,0,0,0,0,0,0,0,0,0,0,0,0,0,0,0,0,0],"sum_hessian":[1.869E3,5.55E2,1.314E3,1.9E1,5.36E2,9.28E2,3.86E2,1.3E1,6E0,5.21E2,1.5E1,1.8E2,7.48E2,1.28E2,2.58E2,1E1,3E0,5E0,1E0,4E1,4.81E2,2E0,1.3E1,3E0,1.77E2,1.6E1,7.32E2,8E0,1.2E2,1.7E1,2.41E2,5E0,5E0,1E0,2E0,4E0,3.6E1,3.04E2,1.77E2,4E0,9E0,1E0,2E0,6.3E1,1.14E2,1E1,6E0,5.8E2,1.52E2,7E0,1E0,5.1E1,6.9E1,6E0,1.1E1,1.16E2,1.25E2,2E0,3E0,2E0,2E0,1E0,3.5E1,1.97E2,1.07E2,8E0,1.69E2,1E0,3E0,5E0,4E0,7E0,5.6E1,4E1,7.4E1,3E0,7E0,3E0,3E0,1.7E2,4.1E2,1.4E1,1.38E2,7E0,4.4E1,3.1E1,3.8E1,2E0,4E0,9.8E1,1.8E1,9E1,3.5E1],"tree_param":{"num_deleted":"0","num_feature":"14","num_nodes":"93","size_leaf_vector":"1"}},{"base_weights":[2.494922E-2,-7.935628E0,3.3907714E0,5.298241E-1,-8.285384E0,-1.0743871E0,1.3145365E1,1.8865103E0,-1.915819E0,-7.351253E0,-9.12553E0,-7.9642034E0,6.0452884E-1,6.498792E0,1.8102758E1,4.350221E0,-3.3104134E0,-6.473117E0,-8.338252E0,-2.0414746E0,-9.32862E0,3.5261486E0,-8.115671E0,1.8992598E1,3.7768641E-3,2.3649174E1,4.890533E0,-7.948266E0,2.029022E1,6.068361E0,1.0479755E0,-4.244945E0,3.445164E-1,-6.9203286E0,-2.8040214E0,1.3722811E0,-8.487712E0,-3.4869928E0,1.4284006E0,-9.425919E0,-5.2609444E-1,1.7470162E0,-1.6024934E-1,-6.6398764E0,-9.036298E0,2.6825762E1,9.576719E0,-1.2186338E0,6.7722745E0,2.8057964E1,4.3806825E0,3.3733397E0,8.951667E0,-4.5633597E0,-2.747851E0,1.8669563E1,2.9464197E1,2.4177573E0,4.695076E-1,-4.3519995E-1,5.513512E-1,-1.4902351E0,-5.599869E-1,-1.648981E0,-2.4702625E0,1.1496831E0,-1.542225E0,1.4144973E-1,-2.5942874E0,8.8810104E-1,-1.4492836E0,-2.8694963E0,-8.7417954E-1,-1.0727189E0,5.047081E-1,-2.377575E0,-1.0250285E0,-2.7414005E0,-7.597038E-1,3.5445302E0,9.856261E0,4.156747E0,-2.3637595E0,-4.671794E-1,3.3589177E0,-4.9069104E-1,2.6105251E0,1.4071839E0,9.117767E0,1.9804772E0,4.72047E-1,4.522281E0,1.1086556E0,-2.4846649E-1,-1.7675313E0,7.413758E0,4.9263515E0,1.0811094E1,5.6726665E0],"categories":[3,4,5,6,7,8,9,11,12,14,15,16,17,18,19,20,22,23,24,5,7,8,14,15,17,19,20,0,2,3,4,5,6,7,8,9,11,12,13,14,15,16,17,18,19,20,22,23,24,3,4,5,6,7,8,9,11,12,14,15,16,17,18,19,20,22,23,24,25,25,5,6,7,8,9,17,18,20,23,24,8,9,16,18,23,24,0,3,4,5,6,7,8,9,11,12,13,14,15,16,17,18,19,20,22,23,24,25,5,7,15,17,19,0,1,2,3,4,5,6,7,8,10,12,13,14,16,17,18,21,22,23,25,0,1,2,5,6,7,8,10,11,13,15,16,19,21,22,24,25,0,1,2,3,4,5,7,8,9,11,12,14,15,17,19,20,21,22,23,25,0,2,3,4,5,6,8,11,12,13,14,17,20,21,22,23,24,25],"categories_nodes":[1,4,12,13,21,22,27,29,37,51,52,55,56],"categories_segments":[0,19,27,49,69,70,80,86,108,113,133,150,170],"categories_sizes":[19,8,22,20,1,10,6,22,5,20,17,20,18],"default_left":[0,1,0,0,1,0,0,0,0,0,0,0,1,1,0,0,0,0,0,0,0,1,1,0,0,0,0,1,0,1,0,0,0,0,0,0,0,1,0,0,0,0,0,0,0,0,0,0,0,0,0,1,1,0,0,1,1,0,0,0,0,0,0,0,0,0,0,0,0,0,0,0,0,0,0,0,0,0,0,0,0,0,0,0,0,0,0,0,0,0,0,0,0,0,0,0,0,0,0],"id":1,"left_children":[1,3,5,7,9,11,13,15,-1,17,19,21,23,25,27,29,31,33,35,37,39,41,43,45,47,49,51,53,55,57,59,61,-1,63,65,-1,67,69,-1,71,73,-1,-1,75,77,79,81,83,85,87,-1,89,91,93,-1,95,97,-1,-1,-1,-1,-1,-1,-1,-1,-1,-1,-1,-1,-1,-1,-1,-1,-1,-1,-1,-1,-1,-1,-1,-1,-1,-1,-1,-1,-1,-1,-1,-1,-1,-1,-1,-1,-1,-1,-1,-1,-1,-1],"loss_changes":[5.0131477E4,1.6506172E3,5.729001E4,2.2784923E2,3.520039E2,1.0450196E4,1.34905625E4,2.704754E2,0E0,1.696377E2,3.794746E2,3.366709E2,8.030856E3,4.793985E3,1.3609875E4,7.307257E1,3.4043076E1,2.1195752E2,2.665537E2,1.0510502E2,2.254336E2,3.109317E1,1.7776465E2,1.4394883E3,5.841341E3,1.8857812E2,9.8029297E2,3.610034E1,2.6911172E3,6.807553E1,1.4507578E1,1.0377426E0,0E0,1.8856543E2,2.833236E2,0E0,1.7170215E2,8.362045E1,0E0,2.1302148E2,3.295559E1,0E0,0E0,2.6706763E2,4.631543E1,6.9771484E2,1.005521E3,2.5314937E3,1.7663013E3,3.4841992E2,0E0,6.92667E2,1.36027E3,2.985289E1,0E0,2.148539E3,1.469291E3,0E0,0E0,0E0,0E0,0E0,0E0,0E0,0E0,0E0,0E0,0E0,0E0,0E0,0E0,0E0,0E0,0E0,0E0,0E0,0E0,0E0,0E0,0E0,0E0,0E0,0E0,0E0,0E0,0E0,0E0,0E0,0E0,0E0,0E0,0E0,0E0,0E0,0E0,0E0,0E0,0E0,0E0],"parents":[2147483647,0,0,1,1,2,2,3,3,4,4,5,5,6,6,7,7,9,9,10,10,11,11,12,12,13,13,14,14,15,15,16,16,17,17,18,18,19,19,20,20,21,21,22,22,23,23,24,24,25,25,26,26,27,27,28,28,29,29,30,30,31,31,33,33,34,34,36,36,37,37,39,39,40,40,43,43,44,44,45,45,46,46,47,47,48,48,49,49,51,51,52,52,53,53,55,55,56,56],"right_children":[2,4,6,8,10,12,14,16,-1,18,20,22,24,26,28,30,32,34,36,38,40,42,44,46,48,50,52,54,56,58,60,62,-1,64,66,-1,68,70,-1,72,74,-1,-1,76,78,80,82,84,86,88,-1,90,92,94,-1,96,98,-1,-1,-1,-1,-1,-1,-1,-1,-1,-1,-1,-1,-1,-1,-1,-1,-1,-1,-1,-1,-1,-1,-1,-1,-1,-1,-1,-1,-1,-1,-1,-1,-1,-1,-1,-1,-1,-1,-1,-1,-1,-1],"split_conditions":[1.4753171E2,NaN,4.5108047E0,1.1721E5,NaN,1E-1,1.7132503E2,4.8E0,-1.915819E0,6.3971E4,2.3E0,1.54E2,NaN,NaN,1E-1,5.297241E0,2.2E-1,5.9095E4,5.1601395E6,1.2081847E2,2.5254953E1,NaN,NaN,1.71E2,1.74E2,1.1491656E7,1.65E2,NaN,9.253305E0,NaN,3.26E0,5.58E0,3.445164E-1,1.2539174E7,3.46E0,1.3722811E0,2.015E3,NaN,1.4284006E0,1.43E2,2.015E3,1.7470162E0,-1.6024934E-1,8.728E4,2.022E3,1.7485272E2,1.12554E5,1.2E-1,1.7713405E2,4.5578737E0,4.3806825E0,NaN,NaN,4.0082E4,-2.747851E0,NaN,NaN,2.4177573E0,4.695076E-1,-4.3519995E-1,5.513512E-1,-1.4902351E0,-5.599869E-1,-1.648981E0,-2.4702625E0,1.1496831E0,-1.542225E0,1.4144973E-1,-2.5942874E0,8.8810104E-1,-1.4492836E0,-2.8694963E0,-8.7417954E-1,-1.0727189E0,5.047081E-1,-2.377575E0,-1.0250285E0,-2.7414005E0,-7.597038E-1,3.5445302E0,9.856261E0,4.156747E0,-2.3637595E0,-4.671794E-1,3.3589177E0,-4.9069104E-1,2.6105251E0,1.4071839E0,9.117767E0,1.9804772E0,4.72047E-1,4.522281E0,1.1086556E0,-2.4846649E-1,-1.7675313E0,7.413758E0,4.9263515E0,1.0811094E1,5.6726665E0],"split_indices":[10,0,7,5,0,9,10,3,0,5,3,13,0,0,9,7,9,5,8,10,11,0,0,13,13,8,10,0,11,0,3,3,0,8,3,0,6,0,0,10,6,0,0,5,6,10,5,9,10,7,0,0,0,5,0,0,0,0,0,0,0,0,0,0,0,0,0,0,0,0,0,0,0,0,0,0,0,0,0,0,0,0,0,0,0,0,0,0,0,0,0,0,0,0,0,0,0,0,0],"split_type":[0,1,0,0,1,0,0,0,0,0,0,0,1,1,0,0,0,0,0,0,0,1,1,0,0,0,0,1,0,1,0,0,0,0,0,0,0,1,0,0,0,0,0,0,0,0,0,0,0,0,0,1,1,0,0,1,1,0,0,0,0,0,0,0,0,0,0,0,0,0,0,0,0,0,0,0,0,0,0,0,0,0,0,0,0,0,0,0,0,0,0,0,0,0,0,0,0,0,0],"sum_hessian":[1.869E3,5.55E2,1.314E3,2.2E1,5.33E2,9.02E2,4.12E2,1.9E1,3E0,2.57E2,2.76E2,1.76E2,7.26E2,1.77E2,2.35E2,1.3E1,6E0,1.4E2,1.17E2,8E0,2.68E2,2E0,1.74E2,2.2E1,7.04E2,1.4E1,1.63E2,1.8E1,2.17E2,8E0,5E0,5E0,1E0,1.24E2,1.6E1,1E0,1.16E2,7E0,1E0,2.65E2,3E0,1E0,1E0,7E1,1.04E2,1.1E1,1.1E1,5.97E2,1.07E2,8E0,6E0,1.2E2,4.3E1,6E0,1.2E1,1.87E2,3E1,5E0,3E0,1E0,4E0,3E0,2E0,6.2E1,6.2E1,4E0,1.2E1,2E0,1.14E2,1E0,6E0,2.59E2,6E0,1E0,2E0,4.9E1,2.1E1,1.02E2,2E0,4E0,7E0,9E0,2E0,5.82E2,1.5E1,2E1,8.7E1,1E0,7E0,4.2E1,7.8E1,1.9E1,2.4E1,2E0,4E0,4.8E1,1.39E2,1.7E1,1.3E1],"tree_param":{"num_deleted":"0","num_feature":"14","num_nodes":"99","size_leaf_vector":"1"}},{"base_weights":[4.542256E-2,-5.572305E0,2.4206402E0,-6.484388E-1,-5.911941E0,-7.355839E-1,9.315676E0,4.7394695E0,-1.2632387E0,-5.4413614E0,-7.2818236E0,-5.604981E0,4.5096198E-1,5.6615186E0,1.4505668E1,1.6613863E0,3.5160255E-1,-6.139469E-2,-4.5948725E0,-5.727472E0,-3.2775416E0,-4.2709084E0,-7.7904363E0,-2.7994456E0,-6.0480003E0,8.351038E0,-3.3734012E-1,1.655968E1,4.285776E0,-6.228013E0,1.6119795E1,-1.6798389E0,3.1823153E0,-5.5599403E-1,-5.6567664E0,-1.8204087E0,-5.91251E0,-1.177146E0,-5.9219956E0,-2.3991775E-2,-5.2687716E0,-7.5069046E-1,-7.9807963E0,1.4849637E0,-3.3074138E0,-5.0474887E0,-6.757143E0,2.6477812E1,6.4311743E0,-2.0299964E0,1.9791765E0,1.8331463E1,1.7890749E0,-6.846016E0,4.853872E0,-2.6982996E-1,-6.597109E0,-7.003063E0,1.6612514E1,3.0358216E-1,-1.0454353E0,-4.7672024E-1,1.1932116E0,-1.8404974E0,-4.8984662E-1,1.5283825E-1,-1.3515584E0,-1.6601096E0,-2.3450127E0,-9.66739E-1,1.3016865E0,-2.1818314E0,-9.9386305E-1,-1.7725277E0,8.7726694E-1,-5.572253E-1,-1.9606155E0,7.971383E-1,-8.317017E-1,-2.5382423E0,-1.4165794E0,-4.706097E-3,-1.1266718E0,-1.8458527E0,-3.4188694E-1,-2.0698428E0,-6.343383E-1,2.4822674E0,1.0053314E1,3.0009596E0,4.6877435E-1,-2.4853575E-1,-1.7145873E0,-3.704627E-1,1.2198364E0,4.483157E0,8.464677E0,1.8853095E0,-5.41243E-1,-2.4039764E0,-8.4001094E-1,8.3179873E-1,2.1620636E0,-8.4839475E-1,-2.2617793E0,1.9912034E-1,-2.9339724E0,6.1659694E0,3.8839304E0],"categories":[5,6,7,8,9,11,14,15,16,17,18,19,20,22,23,24,5,6,7,8,9,14,15,16,17,18,19,20,22,5,6,7,8,9,12,13,14,16,17,18,19,20,22,23,24,0,2,4,5,6,7,8,9,11,12,13,14,15,16,17,18,19,20,22,23,1,3,4,5,6,7,8,9,11,14,15,17,18,19,20,22,23,24,25,0,2,4,10,0,1,2,4,11,15,25,0,1,2,3,4,5,6,7,8,9,10,11,12,13,14,15,16,17,18,19,20,22,23,24,25,8,9,15,16,17,18,23,24,16,20,0,5,6,15,20,16,16,17,0,2,3,4,5,8,9,11,12,15,19,20,21,22,23,25],"categories_nodes":[1,10,11,12,13,18,23,25,29,41,49,52,57,58],"categories_segments":[0,16,29,45,65,84,88,95,120,128,130,135,136,138],"categories_sizes":[16,13,16,20,19,4,7,25,8,2,5,1,2,16],"default_left":[0,1,0,0,0,0,0,0,0,0,1,1,1,1,0,0,0,0,1,0,0,0,0,1,0,1,0,0,0,1,0,0,0,0,0,0,0,0,0,0,0,1,0,0,0,0,0,0,0,1,0,0,1,0,0,0,0,1,1,0,0,0,0,0,0,0,0,0,0,0,0,0,0,0,0,0,0,0,0,0,0,0,0,0,0,0,0,0,0,0,0,0,0,0,0,0,0,0,0,0,0,0,0,0,0,0,0,0,0],"id":2,"left_children":[1,3,5,7,9,11,13,15,17,19,21,23,25,27,29,-1,-1,31,33,35,37,39,41,43,45,47,49,51,53,55,57,59,61,-1,63,65,67,69,71,73,75,77,79,-1,81,83,85,87,89,91,93,95,97,99,101,-1,103,105,107,-1,-1,-1,-1,-1,-1,-1,-1,-1,-1,-1,-1,-1,-1,-1,-1,-1,-1,-1,-1,-1,-1,-1,-1,-1,-1,-1,-1,-1,-1,-1,-1,-1,-1,-1,-1,-1,-1,-1,-1,-1,-1,-1,-1,-1,-1,-1,-1,-1,-1],"loss_changes":[2.4965508E4,9.2597656E2,2.8624244E4,1.2854904E2,2.955879E2,5.2198477E3,7.7504414E3,4.903717E0,1.3585745E2,2.2329199E2,1.658081E2,2.0306348E2,4.530316E3,3.5873364E3,5.789754E3,0E0,0E0,1.4183963E2,1.5717438E1,2.3793457E2,2.5964014E2,8.8868256E1,1.4141846E2,1.1871794E2,7.373828E1,2.1265781E3,2.5997637E3,6.738013E2,1.4118452E3,1.9634216E1,1.9164492E3,9.0979645E1,4.0461975E1,0E0,1.5287628E0,1.0863364E2,1.9334082E2,3.2988306E2,4.9917236E1,1.04020424E2,6.1315796E1,3.4924095E1,1.2742822E2,0E0,3.6821503E1,2.823994E2,4.224048E1,4.9090283E2,1.0452041E3,1.6912057E3,1.883135E3,3.819546E2,7.594813E1,2.9511475E1,9.9861475E2,0E0,2.1292297E1,9.164926E1,1.9731914E3,0E0,0E0,0E0,0E0,0E0,0E0,0E0,0E0,0E0,0E0,0E0,0E0,0E0,0E0,0E0,0E0,0E0,0E0,0E0,0E0,0E0,0E0,0E0,0E0,0E0,0E0,0E0,0E0,0E0,0E0,0E0,0E0,0E0,0E0,0E0,0E0,0E0,0E0,0E0,0E0,0E0,0E0,0E0,0E0,0E0,0E0,0E0,0E0,0E0,0E0],"parents":[2147483647,0,0,1,1,2,2,3,3,4,4,5,5,6,6,7,7,8,8,9,9,10,10,11,11,12,12,13,13,14,14,17,17,18,18,19,19,20,20,21,21,22,22,23,23,24,24,25,25,26,26,27,27,28,28,29,29,30,30,31,31,32,32,34,34,35,35,36,36,37,37,38,38,39,39,40,40,41,41,42,42,44,44,45,45,46,46,47,47,48,48,49,49,50,50,51,51,52,52,53,53,54,54,56,56,57,57,58,58],"right_children":[2,4,6,8,10,12,14,16,18,20,22,24,26,28,30,-1,-1,32,34,36,38,40,42,44,46,48,50,52,54,56,58,60,62,-1,64,66,68,70,72,74,76,78,80,-1,82,84,86,88,90,92,94,96,98,100,102,-1,104,106,108,-1,-1,-1,-1,-1,-1,-1,-1,-1,-1,-1,-1,-1,-1,-1,-1,-1,-1,-1,-1,-1,-1,-1,-1,-1,-1,-1,-1,-1,-1,-1,-1,-1,-1,-1,-1,-1,-1,-1,-1,-1,-1,-1,-1,-1,-1,-1,-1,-1,-1],"split_conditions":[1.4753171E2,NaN,4.5108047E0,1.51E2,5.320345E0,1E-1,1.814671E2,2.016E3,8.1653E4,1.02461E5,NaN,NaN,NaN,NaN,1E-1,1.6613863E0,3.5160255E-1,1.1482124E2,NaN,2.62E0,2.019E3,3.6824E4,2.015E3,NaN,2.3173662E-2,NaN,1.73E2,2.022E3,1E-1,NaN,-1.9018993E1,4.1121E4,3.52E0,-5.5599403E-1,5.08E0,4.6839657E0,1.6727798E7,1.2107977E2,4.6674714E0,5.380115E0,1.73E2,NaN,7.5E-1,1.4849637E0,-9.420893E0,4.317299E0,1.26222E5,1.2566188E7,1.403826E7,NaN,5.098E4,8.6024E4,NaN,5.4E0,1.6367792E2,-2.6982996E-1,1.2131833E7,NaN,NaN,3.0358216E-1,-1.0454353E0,-4.7672024E-1,1.1932116E0,-1.8404974E0,-4.8984662E-1,1.5283825E-1,-1.3515584E0,-1.6601096E0,-2.3450127E0,-9.66739E-1,1.3016865E0,-2.1818314E0,-9.9386305E-1,-1.7725277E0,8.7726694E-1,-5.572253E-1,-1.9606155E0,7.971383E-1,-8.317017E-1,-2.5382423E0,-1.4165794E0,-4.706097E-3,-1.1266718E0,-1.8458527E0,-3.4188694E-1,-2.0698428E0,-6.343383E-1,2.4822674E0,1.0053314E1,3.0009596E0,4.6877435E-1,-2.4853575E-1,-1.7145873E0,-3.704627E-1,1.2198364E0,4.483157E0,8.464677E0,1.8853095E0,-5.41243E-1,-2.4039764E0,-8.4001094E-1,8.3179873E-1,2.1620636E0,-8.4839475E-1,-2.2617793E0,1.9912034E-1,-2.9339724E0,6.1659694E0,3.8839304E0],"split_indices":[10,0,7,13,7,9,10,4,5,5,0,0,0,0,9,0,0,10,0,3,6,5,6,0,11,0,13,6,9,0,11,5,3,0,3,7,8,10,7,7,13,0,9,0,11,7,5,8,8,0,5,5,0,3,10,0,8,0,0,0,0,0,0,0,0,0,0,0,0,0,0,0,0,0,0,0,0,0,0,0,0,0,0,0,0,0,0,0,0,0,0,0,0,0,0,0,0,0,0,0,0,0,0,0,0,0,0,0,0],"split_type":[0,1,0,0,0,0,0,0,0,0,1,1,1,1,0,0,0,0,1,0,0,0,0,1,0,1,0,0,0,1,0,0,0,0,0,0,0,0,0,0,0,1,0,0,0,0,0,0,0,1,0,0,1,0,0,0,0,1,1,0,0,0,0,0,0,0,0,0,0,0,0,0,0,0,0,0,0,0,0,0,0,0,0,0,0,0,0,0,0,0,0,0,0,0,0,0,0,0,0,0,0,0,0,0,0,0,0,0,0],"sum_hessian":[1.869E3,5.55E2,1.314E3,3.6E1,5.19E2,9.02E2,4.12E2,3E0,3.3E1,3.9E2,1.29E2,1.76E2,7.26E2,2.43E2,1.69E2,2E0,1E0,2.5E1,8E0,3.43E2,4.7E1,2E1,1.09E2,2.5E1,1.51E2,6.5E1,6.61E2,2.6E1,2.17E2,1.2E1,1.57E2,1.7E1,8E0,3E0,5E0,1.6E1,3.27E2,2.7E1,2E1,4E0,1.6E1,3E0,1.06E2,1E0,2.4E1,6.6E1,8.5E1,5E0,6E1,3.82E2,2.79E2,2.3E1,3E0,1E1,2.07E2,1E0,1.1E1,3E0,1.54E2,7E0,1E1,1E0,7E0,4E0,1E0,9E0,7E0,2.76E2,5.1E1,2E1,7E0,1.2E1,8E0,1E0,3E0,5E0,1.1E1,1E0,2E0,9.1E1,1.5E1,3E0,2.1E1,5.1E1,1.5E1,8.2E1,3E0,2E0,3E0,3.4E1,2.6E1,2.89E2,9.3E1,1.1E2,1.69E2,1.9E1,4E0,1E0,2E0,7E0,3E0,1.11E2,9.6E1,3E0,8E0,1E0,2E0,7.2E1,8.2E1],"tree_param":{"num_deleted":"0","num_feature":"14","num_nodes":"109","size_leaf_vector":"1"}},{"base_weights":[3.8204618E-2,-3.9772503E0,1.7014179E0,-6.681298E-1,-4.243534E0,-7.723665E-1,6.1194E0,3.5402215E0,-1.2042779E0,-6.8893723E0,-4.0685997E0,-3.965477E0,-1.9377815E-2,-4.542143E0,7.030403E0,3.9271727E0,2.9886246E-1,-4.831194E0,-2.2945176E-1,-7.3444695E0,9.462668E-1,1.3590922E0,-4.211285E0,-3.3783168E-1,-4.2019153E0,-2.7163525E0,1.305801E0,-9.086792E-1,-4.9428835E0,4.198031E0,1.1646109E1,3.626398E-1,1.3291093E0,-1.755733E0,-3.534893E-1,-2.3186502E0,8.758165E-1,-5.2572465E0,-2.7615788E0,4.7148294E0,-2.211007E0,-3.9029286E0,-5.8444724E0,1.2622193E0,-1.2130944E0,-3.7801645E0,-5.791029E0,-4.930918E0,1.4145489E0,1.5952238E1,8.7977993E-1,2.8397498E-1,-5.395321E-1,-2.2276182E0,-4.2588162E0,1.419698E1,3.3941844E0,1.6768084E1,9.02687E0,-9.823764E-1,5.186634E-2,1.149854E0,-1.6875556E-1,-2.6623206E0,-9.9359846E-1,3.2281854E0,1.7596388E-1,-1.2199392E0,-8.241564E-3,-1.2903248E0,-2.4348564E0,7.954743E-2,-6.728367E-1,-6.932784E-1,-1.3707665E0,-3.871365E-1,-1.8199233E0,-9.932058E-2,-1.874399E0,2.858838E0,-5.17224E-3,5.141912E0,2.5539437E-1,-4.3835137E-2,1.5860466E0,1.8394719E-1,-5.615845E-2,-3.5333204E-1,-1.3707067E0,5.907997E0,3.1304219E0,1.3351518E0,-3.0138505E-1,5.837501E-1,5.6667376E0,4.198871E0,1.7181524E0],"categories":[5,6,7,8,9,14,15,16,17,18,19,20,22,23,24,0,1,2,3,4,5,6,7,8,9,10,11,12,13,14,15,16,17,18,19,20,22,23,24,2,5,6,7,8,9,12,13,14,15,16,17,18,19,20,22,23,24,2,7,8,9,11,13,14,16,17,18,19,22,23,24,6,9,14,17,22,23,0,1,4,11,25,8,9,24,0,2,4,5,6,7,8,9,10,11,13,14,15,16,17,18,19,20,22,23,24,1,3,4,5,6,7,8,9,11,14,15,16,17,18,19,20,22,23,24,25,0,1,2,3,4,5,6,7,8,10,11,12,13,14,15,16,17,18,19,21,22,23,25,0,1,2,3,5,6,7,8,9,12,14,15,17,18,19,20,22,0,2,3,5,6,7,8,9,10,11,12,15,16,17,19,20,21,22,23,24,25,15,2,7,8,9,11,13,16,17,18,19,23,24,0,3,4,5,7,8,10,11,12,14,15,19,20,21,22,23,24,25],"categories_nodes":[1,3,11,13,19,23,24,26,29,39,47,48,51,54,58],"categories_segments":[0,15,39,57,71,77,82,85,106,126,149,166,187,188,200],"categories_sizes":[15,24,18,14,6,5,3,21,20,23,17,21,1,12,18],"default_left":[0,1,0,1,0,0,0,0,0,0,0,1,0,1,0,0,0,0,0,1,0,0,0,1,1,0,1,0,0,1,0,0,0,0,0,0,0,0,0,1,0,0,0,0,0,0,0,1,1,0,0,1,0,0,1,0,0,0,1,0,0,0,0,0,0,0,0,0,0,0,0,0,0,0,0,0,0,0,0,0,0,0,0,0,0,0,0,0,0,0,0,0,0,0,0,0,0],"id":3,"left_children":[1,3,5,7,9,11,13,15,17,19,21,23,25,27,29,31,-1,33,35,37,-1,39,41,43,45,47,49,51,53,55,57,-1,-1,-1,-1,59,61,63,-1,65,-1,67,69,-1,71,73,75,77,79,81,83,85,-1,-1,87,89,91,93,95,-1,-1,-1,-1,-1,-1,-1,-1,-1,-1,-1,-1,-1,-1,-1,-1,-1,-1,-1,-1,-1,-1,-1,-1,-1,-1,-1,-1,-1,-1,-1,-1,-1,-1,-1,-1,-1,-1],"loss_changes":[1.249567E4,4.8004395E2,1.4463972E4,9.9027985E1,2.0663379E2,2.0412385E3,4.645465E3,1.0097618E0,1.3324475E2,1.6029028E2,3.759121E2,1.3753003E2,2.462441E3,5.0839417E1,5.677256E3,1.1602402E-1,0E0,2.2948212E1,7.361357E1,6.42384E1,0E0,4.155524E2,2.1186816E2,4.8864937E1,7.998071E1,2.0836057E3,2.8687026E3,5.816598E0,2.611554E1,2.1460835E3,2.0756367E3,0E0,0E0,0E0,0E0,2.6765446E1,9.147324E1,8.318848E1,0E0,2.4327567E2,0E0,2.5022852E2,2.1753369E2,0E0,1.5816177E1,1.3203613E2,2.9352905E1,8.9456885E2,9.2967206E2,2.1852295E2,2.0352998E3,5.800821E-1,0E0,0E0,2.2335693E1,2.080769E2,1.1846938E3,1.6923691E3,1.7563496E3,0E0,0E0,0E0,0E0,0E0,0E0,0E0,0E0,0E0,0E0,0E0,0E0,0E0,0E0,0E0,0E0,0E0,0E0,0E0,0E0,0E0,0E0,0E0,0E0,0E0,0E0,0E0,0E0,0E0,0E0,0E0,0E0,0E0,0E0,0E0,0E0,0E0,0E0],"parents":[2147483647,0,0,1,1,2,2,3,3,4,4,5,5,6,6,7,7,8,8,9,9,10,10,11,11,12,12,13,13,14,14,15,15,17,17,18,18,19,19,21,21,22,22,23,23,24,24,25,25,26,26,27,27,28,28,29,29,30,30,35,35,36,36,37,37,39,39,41,41,42,42,44,44,45,45,46,46,47,47,48,48,49,49,50,50,51,51,54,54,55,55,56,56,57,57,58,58],"right_children":[2,4,6,8,10,12,14,16,18,20,22,24,26,28,30,32,-1,34,36,38,-1,40,42,44,46,48,50,52,54,56,58,-1,-1,-1,-1,60,62,64,-1,66,-1,68,70,-1,72,74,76,78,80,82,84,86,-1,-1,88,90,92,94,96,-1,-1,-1,-1,-1,-1,-1,-1,-1,-1,-1,-1,-1,-1,-1,-1,-1,-1,-1,-1,-1,-1,-1,-1,-1,-1,-1,-1,-1,-1,-1,-1,-1,-1,-1,-1,-1,-1],"split_conditions":[1.43E2,NaN,4.459138E0,NaN,-1.4616671E1,1E-1,1E-1,2.016E3,1.71E2,9.6E-1,-1.21364975E1,NaN,1.7792136E2,NaN,1.818319E2,2.018E3,2.9886246E-1,1.5510626E-1,-2.8162243E0,NaN,9.462668E-1,5.5E-1,1.6727798E7,NaN,NaN,4.259598E0,NaN,4.496954E0,1.6908232E2,NaN,1.71E2,3.626398E-1,1.3291093E0,-1.755733E0,-3.534893E-1,5.388736E0,1.73E2,1.06872025E2,-2.7615788E0,NaN,-2.211007E0,1.3365492E2,1.16700066E2,1.2622193E0,7.0976424E0,1.73E2,2.015E3,NaN,NaN,4.94E0,1.74E2,NaN,-5.395321E-1,-2.2276182E0,NaN,1.0213554E7,1.6074901E7,2.016E3,NaN,-9.823764E-1,5.186634E-2,1.149854E0,-1.6875556E-1,-2.6623206E0,-9.9359846E-1,3.2281854E0,1.7596388E-1,-1.2199392E0,-8.241564E-3,-1.2903248E0,-2.4348564E0,7.954743E-2,-6.728367E-1,-6.932784E-1,-1.3707665E0,-3.871365E-1,-1.8199233E0,-9.932058E-2,-1.874399E0,2.858838E0,-5.17224E-3,5.141912E0,2.5539437E-1,-4.3835137E-2,1.5860466E0,1.8394719E-1,-5.615845E-2,-3.5333204E-1,-1.3707067E0,5.907997E0,3.1304219E0,1.3351518E0,-3.0138505E-1,5.837501E-1,5.6667376E0,4.198871E0,1.7181524E0],"split_indices":[10,0,7,0,11,9,9,4,13,9,11,0,10,0,10,6,0,11,11,0,0,9,8,0,0,7,0,7,10,0,13,0,0,0,0,7,13,10,0,0,0,10,10,0,11,13,6,0,0,3,13,0,0,0,0,8,8,6,0,0,0,0,0,0,0,0,0,0,0,0,0,0,0,0,0,0,0,0,0,0,0,0,0,0,0,0,0,0,0,0,0,0,0,0,0,0,0],"split_type":[0,1,0,1,0,0,0,0,0,0,0,1,0,1,0,0,0,0,0,1,0,0,0,1,1,0,1,0,0,1,0,0,0,0,0,0,0,0,0,1,0,0,0,0,0,0,0,1,1,0,0,1,0,0,1,0,0,0,1,0,0,0,0,0,0,0,0,0,0,0,0,0,0,0,0,0,0,0,0,0,0,0,0,0,0,0,0,0,0,0,0,0,0,0,0,0,0],"sum_hessian":[1.869E3,5.47E2,1.322E3,4.1E1,5.06E2,8.48E2,4.74E2,4E0,3.7E1,2.9E1,4.77E2,1.61E2,6.87E2,3.7E1,4.37E2,3E0,1E0,7E0,3E1,2.8E1,1E0,1.2E1,4.65E2,1E1,1.51E2,2.26E2,4.61E2,4E0,3.3E1,2.72E2,1.65E2,1E0,2E0,5E0,2E0,1E1,2E1,1.5E1,1.3E1,9E0,3E0,3.94E2,7.1E1,1E0,9E0,1.22E2,2.9E1,1.47E2,7.9E1,1.2E1,4.49E2,2E0,2E0,5E0,2.8E1,1.9E1,2.53E2,5.4E1,1.11E2,7E0,3E0,6E0,1.4E1,4E0,1.1E1,3E0,6E0,3.78E2,1.6E1,4.4E1,2.7E1,4E0,5E0,4.4E1,7.8E1,2E0,2.7E1,3.3E1,1.14E2,1.1E1,6.8E1,1.1E1,1E0,3.65E2,8.4E1,1E0,1E0,3E0,2.5E1,6E0,1.3E1,2.04E2,4.9E1,7E0,4.7E1,4.3E1,6.8E1],"tree_param":{"num_deleted":"0","num_feature":"14","num_nodes":"97","size_leaf_vector":"1"}},{"base_weights":[3.358495E-2,-2.7781668E0,1.2224065E0,-1.5164598E0,-3.159635E0,-5.356898E-1,4.4159856E0,1.9917783E0,-1.6943722E0,-1.7227553E0,-3.4568121E0,-1.2633089E0,1.3707844E0,-3.2943249E0,5.087092E0,-4.0152416E0,-1.1256474E0,-5.2946167E0,-7.415463E-1,-3.8869681E0,-2.0381367E0,6.8158655E0,-1.476648E0,3.7886686E0,-8.997859E-1,-4.018036E0,-1.7666749E0,2.2296135E0,7.5390778E0,9.576877E-1,-5.636045E0,1.5898149E0,-1.5266347E0,-1.2489111E0,-2.279145E0,-1.6752467E0,1.5301574E0,-3.4430802E0,-5.631057E0,-7.256519E-1,-3.9469187E0,2.805342E0,1.5077948E1,8.994987E0,-1.6154279E0,-2.8368459E0,5.5869927E0,4.625406E0,-3.1757298E0,-2.730062E0,-5.676991E0,-1.261282E-1,-2.2026305E0,4.21465E0,-1.2072685E0,6.3333554E0,1.4839244E1,1.254451E0,-7.51665E-1,-2.5108585E0,-8.661574E-1,1.0558951E0,-2.5284824E-1,3.264618E-3,-7.826377E-1,-9.5463014E-1,2.9895175E-1,-1.1490651E0,1.6676132E-1,1.0258096E0,-1.219697E0,-8.1438863E-1,-1.4119246E0,-9.491001E-1,-2.1091728E0,2.2532615E-1,-7.6682323E-1,8.815079E-1,-1.3407217E0,-3.5493633E-1,4.5495315E0,6.025367E0,1.5136075E0,2.8730185E0,7.384192E-1,-6.506564E-2,-7.8603846E-1,1.22537695E-1,-1.9159894E0,2.3262663E-1,2.5077107E0,3.2307065E0,3.3146673E-1,-1.1183614E0,1.469847E0,-8.622622E-1,-8.518238E-2,-4.5919535E-1,-1.9566734E0,1.563549E-1,-1.5468788E-1,-7.9111093E-1,-4.956093E-2,2.9255986E0,9.985856E-1,4.4562432E-1,-1.5618151E0,9.079795E0,1.781626E0,9.224401E0,2.1831622E0],"categories":[5,7,8,14,15,16,17,19,20,22,23,24,0,3,4,5,6,7,8,9,11,12,13,14,15,16,17,18,19,20,22,23,24,2,4,6,10,11,12,13,15,17,19,20,23,0,2,3,4,6,9,11,12,13,18,5,14,15,22,5,7,15,23,8,14,17,23,9,15,18,22,23,24,5,6,7,8,16,18,19,25,16,7,8,15,16,17,20,24,7,8,16,18,24,14,20,3,4,5,6,7,8,9,11,12,14,15,16,17,18,19,20,22,23,24,25,0,1,2,3,4,5,6,7,8,9,10,11,12,14,15,16,17,18,19,20,22,23,24,25],"categories_nodes":[1,11,12,16,17,20,25,26,27,36,38,45,51,53,55],"categories_segments":[0,12,33,45,55,59,63,67,73,81,82,89,94,96,116],"categories_sizes":[12,21,12,10,4,4,4,6,8,1,7,5,2,20,24],"default_left":[0,1,0,0,0,0,0,0,0,0,0,1,1,0,0,0,1,1,0,0,1,0,0,0,0,1,1,1,0,0,0,0,0,0,0,0,1,0,1,0,0,0,0,0,0,1,0,0,0,0,0,1,0,1,0,1,0,0,0,0,0,0,0,0,0,0,0,0,0,0,0,0,0,0,0,0,0,0,0,0,0,0,0,0,0,0,0,0,0,0,0,0,0,0,0,0,0,0,0,0,0,0,0,0,0,0,0,0,0,0,0],"id":4,"left_children":[1,3,5,7,9,11,13,-1,15,17,19,21,23,25,27,29,31,33,35,37,39,41,43,45,47,49,51,53,55,57,59,61,63,65,-1,67,69,71,73,75,77,79,81,83,85,87,89,91,93,95,97,99,101,103,105,107,109,-1,-1,-1,-1,-1,-1,-1,-1,-1,-1,-1,-1,-1,-1,-1,-1,-1,-1,-1,-1,-1,-1,-1,-1,-1,-1,-1,-1,-1,-1,-1,-1,-1,-1,-1,-1,-1,-1,-1,-1,-1,-1,-1,-1,-1,-1,-1,-1,-1,-1,-1,-1,-1,-1],"loss_changes":[6.2541914E3,2.62812E2,7.38559E3,2.0133087E2,1.759497E2,1.1794535E3,2.4332217E3,0E0,1.6575198E2,2.589295E2,2.0688623E2,1.0700813E3,1.2935532E3,3.491336E1,2.9959844E3,2.069011E2,1.1675795E2,1.3955771E2,1.2982883E2,1.8886621E2,2.0757672E2,4.8786554E2,8.864817E2,1.3741395E3,1.5488423E3,3.791873E1,9.735065E0,1.3695555E3,1.9392725E3,8.8630844E1,1.18600464E2,6.869083E1,1.5310126E2,3.355669E1,0E0,2.0887279E2,2.041918E2,1.8692432E2,1.6077515E2,1.3977591E2,1.3536755E2,6.0949963E2,1.498125E2,6.834778E0,8.326655E2,2.9061206E2,1.1939272E3,7.6673474E2,4.0616827E2,4.825447E0,2.5063812E1,1.2772416E0,9.300121E0,5.9063477E2,8.045246E2,1.7090303E3,3.6259243E3,0E0,0E0,0E0,0E0,0E0,0E0,0E0,0E0,0E0,0E0,0E0,0E0,0E0,0E0,0E0,0E0,0E0,0E0,0E0,0E0,0E0,0E0,0E0,0E0,0E0,0E0,0E0,0E0,0E0,0E0,0E0,0E0,0E0,0E0,0E0,0E0,0E0,0E0,0E0,0E0,0E0,0E0,0E0,0E0,0E0,0E0,0E0,0E0,0E0,0E0,0E0,0E0,0E0,0E0],"parents":[2147483647,0,0,1,1,2,2,3,3,4,4,5,5,6,6,8,8,9,9,10,10,11,11,12,12,13,13,14,14,15,15,16,16,17,17,18,18,19,19,20,20,21,21,22,22,23,23,24,24,25,25,26,26,27,27,28,28,29,29,30,30,31,31,32,32,33,33,35,35,36,36,37,37,38,38,39,39,40,40,41,41,42,42,43,43,44,44,45,45,46,46,47,47,48,48,49,49,50,50,51,51,52,52,53,53,54,54,55,55,56,56],"right_children":[2,4,6,8,10,12,14,-1,16,18,20,22,24,26,28,30,32,34,36,38,40,42,44,46,48,50,52,54,56,58,60,62,64,66,-1,68,70,72,74,76,78,80,82,84,86,88,90,92,94,96,98,100,102,104,106,108,110,-1,-1,-1,-1,-1,-1,-1,-1,-1,-1,-1,-1,-1,-1,-1,-1,-1,-1,-1,-1,-1,-1,-1,-1,-1,-1,-1,-1,-1,-1,-1,-1,-1,-1,-1,-1,-1,-1,-1,-1,-1,-1,-1,-1,-1,-1,-1,-1,-1,-1,-1,-1,-1,-1],"split_conditions":[1.4753171E2,NaN,4.459138E0,2.015E3,3.6824E4,8.4437E4,1E-1,1.9917783E0,2.017E3,-5.2014346E0,1.2107977E2,NaN,NaN,1.74E2,1.7132503E2,1.1224021E7,NaN,NaN,1.1741383E2,1.18E2,NaN,6.1075E4,1.5344415E2,1E-1,1.1064874E7,NaN,NaN,NaN,2.021E3,5.28E0,1.3181285E7,-2.1741526E0,4.5792527E0,2.012E3,-2.279145E0,3.742077E0,NaN,2.8413742E0,NaN,2.019E3,2.38E0,9.072694E0,2.018E3,2.021E3,2.018E3,NaN,1.7792136E2,3.88E0,1.29539E5,2.021E3,-1.7961622E1,NaN,2.021E3,NaN,7.7709E4,NaN,1.2157765E7,1.254451E0,-7.51665E-1,-2.5108585E0,-8.661574E-1,1.0558951E0,-2.5284824E-1,3.264618E-3,-7.826377E-1,-9.5463014E-1,2.9895175E-1,-1.1490651E0,1.6676132E-1,1.0258096E0,-1.219697E0,-8.1438863E-1,-1.4119246E0,-9.491001E-1,-2.1091728E0,2.2532615E-1,-7.6682323E-1,8.815079E-1,-1.3407217E0,-3.5493633E-1,4.5495315E0,6.025367E0,1.5136075E0,2.8730185E0,7.384192E-1,-6.506564E-2,-7.8603846E-1,1.22537695E-1,-1.9159894E0,2.3262663E-1,2.5077107E0,3.2307065E0,3.3146673E-1,-1.1183614E0,1.469847E0,-8.622622E-1,-8.518238E-2,-4.5919535E-1,-1.9566734E0,1.563549E-1,-1.5468788E-1,-7.9111093E-1,-4.956093E-2,2.9255986E0,9.985856E-1,4.4562432E-1,-1.5618151E0,9.079795E0,1.781626E0,9.224401E0,2.1831622E0],"split_indices":[10,0,7,6,5,5,9,0,6,11,10,0,0,13,10,8,0,0,10,10,0,5,10,9,8,0,0,0,6,7,8,11,7,4,0,11,0,11,0,6,3,11,6,6,6,0,10,3,5,6,11,0,6,0,5,0,8,0,0,0,0,0,0,0,0,0,0,0,0,0,0,0,0,0,0,0,0,0,0,0,0,0,0,0,0,0,0,0,0,0,0,0,0,0,0,0,0,0,0,0,0,0,0,0,0,0,0,0,0,0,0],"split_type":[0,1,0,0,0,0,0,0,0,0,0,1,1,0,0,0,1,1,0,0,1,0,0,0,0,1,1,1,0,0,0,0,0,0,0,0,1,0,1,0,0,0,0,0,0,1,0,0,0,0,0,1,0,1,0,1,0,0,0,0,0,0,0,0,0,0,0,0,0,0,0,0,0,0,0,0,0,0,0,0,0,0,0,0,0,0,0,0,0,0,0,0,0,0,0,0,0,0,0,0,0,0,0,0,0,0,0,0,0,0,0],"sum_hessian":[1.869E3,5.55E2,1.314E3,1.3E2,4.25E2,8.48E2,4.66E2,2E0,1.28E2,7.4E1,3.51E2,6.14E2,2.34E2,3.7E1,4.29E2,2.4E1,1.04E2,1.5E1,5.9E1,2.68E2,8.3E1,1.5E1,5.99E2,1.13E2,1.21E2,2.4E1,1.3E1,1.99E2,2.3E2,6E0,1.8E1,1.3E1,9.1E1,6E0,9E0,4.2E1,1.7E1,2.16E2,5.2E1,5E1,3.3E1,1.1E1,4E0,7E0,5.92E2,2.4E1,8.9E1,3.5E1,8.6E1,1.5E1,9E0,3E0,1E1,1.26E2,7.3E1,1.99E2,3.1E1,3E0,3E0,8E0,1E1,7E0,6E0,3.8E1,5.3E1,3E0,3E0,2.1E1,2.1E1,1.3E1,4E0,1.39E2,7.7E1,2E1,3.2E1,2.8E1,2.2E1,2E0,3.1E1,9E0,2E0,2E0,2E0,6E0,1E0,2.48E2,3.44E2,1.3E1,1.1E1,3.3E1,5.6E1,1.2E1,2.3E1,8.1E1,5E0,1.4E1,1E0,2E0,7E0,1E0,2E0,8E0,2E0,1.6E1,1.1E2,4.4E1,2.9E1,2E0,1.97E2,9E0,2.2E1],"tree_param":{"num_deleted":"0","num_feature":"14","num_nodes":"111","size_leaf_vector":"1"}},{"base_weights":[3.900383E-2,-1.9649595E0,8.862773E-1,-1.1664385E0,-2.3047707E0,-3.5599726E-3,4.0735817E0,-1.8255075E0,4.7141305E-1,-2.8491323E0,-1.5484912E0,3.6522675E0,-4.0101424E-1,-1.7375864E-1,6.5993547E0,1.6124344E-1,-2.4319236E0,4.239466E0,-6.0345864E-1,2.188679E-1,-3.0693176E0,-9.6621734E-1,-3.53673E0,2.3545246E0,9.926143E0,-9.935226E-1,1.0795367E0,-8.42449E0,1.4601636E0,9.866324E0,2.7482178E0,-3.0175412E0,7.905506E-1,-2.6304698E0,1.3005329E0,-9.7285455E-1,5.311982E0,1.8035684E0,-2.7525089E0,1.8786557E0,-2.1835244E0,-3.1956475E0,2.7493386E0,8.09316E-1,-1.9270307E0,-1.262203E0,-5.406968E0,4.9233274E0,-2.053909E0,3.7419004E0,1.8226217E1,-1.928908E0,5.4341286E-1,2.7653975E0,-1.0262359E0,1.7733002E-2,-1.083782E1,3.7904556E0,-3.1723518E0,1.4346911E1,4.993499E0,9.5981795E-1,6.7008095E0,2.3912717E-1,-1.2511415E0,-4.685413E-2,9.74194E-1,-1.0216594E0,-3.945647E-1,8.081431E-1,2.217418E0,1.1643186E0,-6.9368577E-1,-2.6493168E-1,-1.4161626E0,8.173309E-1,-3.008934E-1,-2.757704E-1,-1.4653894E0,-7.8771996E-1,-1.2796197E0,1.8673142E0,-4.9264488E-1,-2.9107144E-1,1.1706297E0,6.160238E-1,-7.11913E-1,2.0159335E-1,-9.813145E-1,-2.0903957E0,2.0090447E-1,2.3583672E0,-2.7070063E-1,-1.5739905E0,5.742867E-1,2.076091E0,-2.1121829E0,1.4952965E0,8.073468E0,-6.867564E-1,1.2018039E0,4.0818763E-1,-8.874261E-1,2.5110848E0,4.6744266E-1,5.849298E-1,-1.3933702E0,-8.0250746E-1,8.113739E-1,-3.4802904E0,-1.3753624E-1,6.487266E-1,3.5631557E0,-5.3530043E-1,-3.6286156E0,7.589282E0,2.9446955E0,5.283714E0,8.3143777E-1,-1.5997168E-1,2.0556183E0,3.3015008E0,2.286502E-1],"categories":[5,7,8,14,15,16,17,19,20,22,23,0,2,5,6,7,8,9,11,12,13,14,15,16,17,18,19,20,22,23,1,3,6,9,18,24,3,4,5,8,9,11,18,20,22,23,24,25,7,14,17,22,7,14,16,19,22,0,1,3,4,6,8,9,10,13,15,17,19,21,22,24,25,5,7,11,16,17,19,22,5,6,9,15,19,23,24,2,4,11,4,11,18,22,8,14,15,17,0,1,2,3,4,5,6,7,10,11,12,13,14,15,16,17,19,20,21,23,24,25],"categories_nodes":[1,5,7,14,19,22,26,27,28,31,37,40,41,62],"categories_segments":[0,11,30,36,48,52,57,73,80,87,90,93,94,98],"categories_sizes":[11,19,6,12,4,5,16,7,7,3,3,1,4,22],"default_left":[0,1,0,0,0,1,0,1,0,0,0,0,0,0,1,0,0,0,0,1,0,0,1,0,0,0,1,1,1,0,0,1,0,0,0,0,0,1,0,0,1,1,0,0,0,0,0,0,0,0,0,0,0,0,0,0,0,0,0,0,0,0,1,0,0,0,0,0,0,0,0,0,0,0,0,0,0,0,0,0,0,0,0,0,0,0,0,0,0,0,0,0,0,0,0,0,0,0,0,0,0,0,0,0,0,0,0,0,0,0,0,0,0,0,0,0,0,0,0,0,0,0,0],"id":5,"left_children":[1,3,5,7,9,11,13,15,17,19,21,23,25,27,29,31,33,35,37,39,41,43,45,47,49,51,53,55,57,59,61,63,65,67,-1,-1,69,71,73,75,77,79,81,83,85,87,89,91,93,95,97,99,101,103,105,107,109,111,113,115,117,119,121,-1,-1,-1,-1,-1,-1,-1,-1,-1,-1,-1,-1,-1,-1,-1,-1,-1,-1,-1,-1,-1,-1,-1,-1,-1,-1,-1,-1,-1,-1,-1,-1,-1,-1,-1,-1,-1,-1,-1,-1,-1,-1,-1,-1,-1,-1,-1,-1,-1,-1,-1,-1,-1,-1,-1,-1,-1,-1,-1,-1],"loss_changes":[3.176824E3,1.4818018E2,3.7295942E3,1.822094E2,1.5573535E2,1.4966266E3,3.0800303E3,1.4496783E2,2.0101685E2,1.5266565E2,1.8760318E2,7.9895825E2,8.1602734E2,1.4682549E3,2.2375635E3,6.0398045E1,1.3501178E2,1.0549991E2,2.067044E2,6.790147E1,1.6315039E2,2.216279E2,1.5056985E2,9.7268567E2,8.044038E2,9.556325E2,9.4714844E2,3.6692188E2,9.9438E2,2.0461709E3,5.873488E2,2.531427E1,5.8654507E1,8.726721E1,0E0,0E0,3.4531525E1,1.7143665E2,7.309125E1,2.710485E1,1.941475E1,1.14391846E2,8.652439E1,2.5695963E2,1.5400034E2,7.213652E1,1.9438147E2,9.3131384E2,4.1546326E2,4.2570587E2,6.7093677E2,8.9226086E2,7.2511505E2,9.884038E2,1.2904669E3,4.340995E1,1.0557532E2,7.7741003E2,3.6236282E2,2.232711E3,1.2970913E3,5.2270355E2,6.5619995E2,0E0,0E0,0E0,0E0,0E0,0E0,0E0,0E0,0E0,0E0,0E0,0E0,0E0,0E0,0E0,0E0,0E0,0E0,0E0,0E0,0E0,0E0,0E0,0E0,0E0,0E0,0E0,0E0,0E0,0E0,0E0,0E0,0E0,0E0,0E0,0E0,0E0,0E0,0E0,0E0,0E0,0E0,0E0,0E0,0E0,0E0,0E0,0E0,0E0,0E0,0E0,0E0,0E0,0E0,0E0,0E0,0E0,0E0,0E0,0E0],"parents":[2147483647,0,0,1,1,2,2,3,3,4,4,5,5,6,6,7,7,8,8,9,9,10,10,11,11,12,12,13,13,14,14,15,15,16,16,17,17,18,18,19,19,20,20,21,21,22,22,23,23,24,24,25,25,26,26,27,27,28,28,29,29,30,30,31,31,32,32,33,33,36,36,37,37,38,38,39,39,40,40,41,41,42,42,43,43,44,44,45,45,46,46,47,47,48,48,49,49,50,50,51,51,52,52,53,53,54,54,55,55,56,56,57,57,58,58,59,59,60,60,61,61,62,62],"right_children":[2,4,6,8,10,12,14,16,18,20,22,24,26,28,30,32,34,36,38,40,42,44,46,48,50,52,54,56,58,60,62,64,66,68,-1,-1,70,72,74,76,78,80,82,84,86,88,90,92,94,96,98,100,102,104,106,108,110,112,114,116,118,120,122,-1,-1,-1,-1,-1,-1,-1,-1,-1,-1,-1,-1,-1,-1,-1,-1,-1,-1,-1,-1,-1,-1,-1,-1,-1,-1,-1,-1,-1,-1,-1,-1,-1,-1,-1,-1,-1,-1,-1,-1,-1,-1,-1,-1,-1,-1,-1,-1,-1,-1,-1,-1,-1,-1,-1,-1,-1,-1,-1,-1],"split_conditions":[1.4753171E2,NaN,4.6202874E0,1.19E2,4.54E0,NaN,-2.1741526E0,NaN,4.5552874E0,2.56E0,5.310115E0,4.474655E0,1.9097926E2,8.771369E6,NaN,2.56E0,2.1419088E7,3.46E0,1.1491656E7,NaN,1.26222E5,1.09536194E2,NaN,4.1870117E0,1.6948564E2,4.290862E0,NaN,NaN,NaN,3.5447583E0,1.9225114E2,NaN,7.285049E0,2.02E3,1.3005329E0,-9.7285455E-1,1.72E2,NaN,4.56E0,1.3647865E7,NaN,NaN,1.29539E5,1.0739407E2,4.64E0,2.019E3,1.1635651E2,4.88E0,4.26E0,1.6229878E2,-7.776048E0,1.15296E5,1.7227252E7,3.969885E0,1.4845153E7,3.32E0,5.72E0,1.9513672E2,5.34E0,4.0082E4,8.993089E6,2.021E3,NaN,2.3912717E-1,-1.2511415E0,-4.685413E-2,9.74194E-1,-1.0216594E0,-3.945647E-1,8.081431E-1,2.217418E0,1.1643186E0,-6.9368577E-1,-2.6493168E-1,-1.4161626E0,8.173309E-1,-3.008934E-1,-2.757704E-1,-1.4653894E0,-7.8771996E-1,-1.2796197E0,1.8673142E0,-4.9264488E-1,-2.9107144E-1,1.1706297E0,6.160238E-1,-7.11913E-1,2.0159335E-1,-9.813145E-1,-2.0903957E0,2.0090447E-1,2.3583672E0,-2.7070063E-1,-1.5739905E0,5.742867E-1,2.076091E0,-2.1121829E0,1.4952965E0,8.073468E0,-6.867564E-1,1.2018039E0,4.0818763E-1,-8.874261E-1,2.5110848E0,4.6744266E-1,5.849298E-1,-1.3933702E0,-8.0250746E-1,8.113739E-1,-3.4802904E0,-1.3753624E-1,6.487266E-1,3.5631557E0,-5.3530043E-1,-3.6286156E0,7.589282E0,2.9446955E0,5.283714E0,8.3143777E-1,-1.5997168E-1,2.0556183E0,3.3015008E0,2.286502E-1],"split_indices":[10,0,7,10,3,0,11,0,7,3,7,7,10,8,0,3,8,3,8,0,5,10,0,7,10,7,0,0,0,11,10,0,11,6,0,0,13,0,3,8,0,0,5,10,3,6,10,3,3,10,11,5,8,7,8,3,3,10,3,5,8,6,0,0,0,0,0,0,0,0,0,0,0,0,0,0,0,0,0,0,0,0,0,0,0,0,0,0,0,0,0,0,0,0,0,0,0,0,0,0,0,0,0,0,0,0,0,0,0,0,0,0,0,0,0,0,0,0,0,0,0,0,0],"split_type":[0,1,0,0,0,1,0,1,0,0,0,0,0,0,1,0,0,0,0,1,0,0,1,0,0,0,1,1,1,0,0,1,0,0,0,0,0,1,0,0,1,1,0,0,0,0,0,0,0,0,0,0,0,0,0,0,0,0,0,0,0,0,1,0,0,0,0,0,0,0,0,0,0,0,0,0,0,0,0,0,0,0,0,0,0,0,0,0,0,0,0,0,0,0,0,0,0,0,0,0,0,0,0,0,0,0,0,0,0,0,0,0,0,0,0,0,0,0,0,0,0,0,0],"sum_hessian":[1.869E3,5.55E2,1.314E3,1.67E2,3.88E2,1.028E3,2.86E2,1.19E2,4.8E1,2.24E2,1.64E2,1E2,9.28E2,1.07E2,1.79E2,2.8E1,9.1E1,1E1,3.8E1,1.5E1,2.09E2,1.28E2,3.6E1,8.4E1,1.6E1,6.63E2,2.65E2,1.7E1,9E1,9.6E1,8.3E1,4E0,2.4E1,8.9E1,2E0,1E0,9E0,1.8E1,2E1,9E0,6E0,2.05E2,4E0,4.5E1,8.3E1,1.7E1,1.9E1,5.3E1,3.1E1,1E1,6E0,4.12E2,2.51E2,1.47E2,1.18E2,4E0,1.3E1,6E1,3E1,4.9E1,4.7E1,5.8E1,2.5E1,1E0,3E0,1.8E1,6E0,5.5E1,3.4E1,5E0,4E0,1.2E1,6E0,1.1E1,9E0,7E0,2E0,5E0,1E0,1.36E2,6.9E1,2E0,2E0,2.9E1,1.6E1,8E0,7.5E1,9E0,8E0,1.5E1,4E0,3.5E1,1.8E1,1.7E1,1.4E1,8E0,2E0,3E0,3E0,3.89E2,2.3E1,2.04E2,4.7E1,2.5E1,1.22E2,6.5E1,5.3E1,2E0,2E0,1.2E1,1E0,5.1E1,9E0,2.7E1,3E0,1.3E1,3.6E1,6E0,4.1E1,4.7E1,1.1E1,1.4E1,1.1E1],"tree_param":{"num_deleted":"0","num_feature":"14","num_nodes":"123","size_leaf_vector":"1"}},{"base_weights":[4.2372018E-2,-8.0480003E-1,1.1641647E0,-3.9676435E0,-5.2670693E-1,7.822539E-1,7.9137855E0,-1.7638152E0,-7.1285415E0,-1.3977054E0,5.742928E-1,-2.1161177E0,1.5067525E0,2.5452008E0,1.2471459E1,-5.50711E0,1.1648382E0,-7.589914E0,3.2273737E-1,-1.2222799E0,-2.3940196E0,3.5992951E0,-1.619915E-1,-1.2338222E0,-2.584907E0,7.824152E0,1.1670861E0,8.453055E0,-1.740637E0,1.4214737E1,-3.8886364E0,7.035101E-1,-5.9706182E0,3.6113129E0,-4.1713648E-2,-7.933764E0,5.119921E-1,2.9386598E-1,-1.4863415E-1,-6.845297E-1,-1.638836E0,-3.919007E-1,-3.13393E0,-2.3721714E0,5.3542957E0,1.9913981E0,-1.0556896E0,-2.343144E0,-2.3128287E-1,1.2327856E0,-2.8010905E0,6.2374396E0,6.1662965E0,-7.764348E0,1.3690925E0,2.9418883E0,7.433438E-1,7.473037E0,-5.252043E0,8.799983E0,5.501173E0,-2.5013468E-1,-1.4997517E0,-1.9834677E0,8.775788E-2,2.1709936E0,-5.815807E-1,-1.367164E0,-2.9195502E0,-4.6907127E-1,1.2651366E-1,-3.5984564E-1,-8.297761E-1,-3.6892065E-1,1.6810731E0,-2.0799177E0,-7.4675417E-1,3.1192648E-1,-1.7664222E0,1.3344761E0,3.410121E0,-6.497937E-1,1.0054979E0,3.0466273E-1,-5.4371274E-1,9.6315396E-1,-9.6213645E-1,9.826632E-1,-2.6903316E-1,8.18448E-1,-3.5159266E-1,2.9425623E-2,-9.327648E-1,2.4155102E0,-1.224407E0,-3.375849E0,8.693828E-1,6.1532044E-1,-8.967089E-2,3.5872846E0,5.976918E-1,-1.2823403E-1,-2.5191598E0,2.9786682E0,-3.733698E-1],"categories":[1,2,8,9,12,14,16,17,19,2,3,5,6,7,8,9,15,17,18,19,20,22,23,24,2,5,8,9,12,13,16,17,18,19,22,23,24,4,5,6,7,8,9,10,11,14,15,16,17,18,19,20,22,23,24,0,1,2,3,4,6,7,8,9,11,12,13,14,16,17,18,19,21,22,24,25,9,5,7,8,14,15,16,17,19,24,4,5,6,7,8,9,14,15,17,18,19,20,22,7,0,1,2,3,4,5,6,8,9,10,11,12,14,15,16,17,18,19,20,21,22,23,25,0,1,6,7,11,15,20,25,8,24,13,0,1,2,3,11,12,13,15,16,20,21,23,25,0,1,2,3,4,5,6,8,9,10,11,12,13,14,15,16,17,18,19,20,21,22,23,24,25,6,7,22,24],"categories_nodes":[3,10,11,12,13,18,19,20,30,34,48,49,51,54,57,58],"categories_segments":[0,9,24,37,55,76,77,86,99,100,123,131,133,134,147,172],"categories_sizes":[9,15,13,18,21,1,9,13,1,23,8,2,1,13,25,4],"default_left":[0,0,0,1,0,0,0,0,0,0,1,1,1,1,0,0,0,0,1,1,1,0,0,0,0,0,0,0,0,0,1,0,0,0,1,0,0,0,0,0,0,0,0,0,0,0,0,0,1,1,0,1,0,0,1,0,0,1,1,0,0,0,0,0,0,0,0,0,0,0,0,0,0,0,0,0,0,0,0,0,0,0,0,0,0,0,0,0,0,0,0,0,0,0,0,0,0,0,0,0,0,0,0,0,0],"id":6,"left_children":[1,3,5,7,9,11,13,15,17,19,21,23,25,27,29,31,33,35,37,39,41,43,45,47,49,51,53,55,57,59,61,-1,63,-1,65,67,-1,-1,-1,69,71,73,75,77,79,81,83,85,87,89,91,93,-1,95,97,-1,-1,99,101,103,-1,-1,-1,-1,-1,-1,-1,-1,-1,-1,-1,-1,-1,-1,-1,-1,-1,-1,-1,-1,-1,-1,-1,-1,-1,-1,-1,-1,-1,-1,-1,-1,-1,-1,-1,-1,-1,-1,-1,-1,-1,-1,-1,-1,-1],"loss_changes":[1.778094E3,9.3552637E2,2.0689E3,5.8650916E2,9.415515E2,1.6053864E3,1.0203928E3,5.764812E2,1.2277319E2,9.285254E1,9.6721466E2,6.009314E1,1.3019572E3,5.46436E2,7.1124E2,9.771057E1,3.9406262E2,1.1902832E2,2.0975065E0,1.0371167E2,1.1876431E2,9.034951E2,6.756704E2,6.0625687E1,8.5160095E1,4.979662E2,1.0588738E3,4.847522E1,4.5983704E2,3.0740186E2,6.0093536E0,0E0,9.024872E1,0E0,4.006036E2,1.4993079E2,0E0,0E0,0E0,2.0098038E2,1.26916016E2,1.2242498E2,1.2726196E2,2.460421E2,3.0899292E2,5.89737E2,3.9052408E2,1.3505061E2,7.295063E1,2.4773445E1,8.427606E1,5.757706E2,0E0,5.1614777E2,6.478688E2,0E0,0E0,7.449184E1,1.4815173E2,1.3709064E2,0E0,0E0,0E0,0E0,0E0,0E0,0E0,0E0,0E0,0E0,0E0,0E0,0E0,0E0,0E0,0E0,0E0,0E0,0E0,0E0,0E0,0E0,0E0,0E0,0E0,0E0,0E0,0E0,0E0,0E0,0E0,0E0,0E0,0E0,0E0,0E0,0E0,0E0,0E0,0E0,0E0,0E0,0E0,0E0,0E0],"parents":[2147483647,0,0,1,1,2,2,3,3,4,4,5,5,6,6,7,7,8,8,9,9,10,10,11,11,12,12,13,13,14,14,15,15,16,16,17,17,18,18,19,19,20,20,21,21,22,22,23,23,24,24,25,25,26,26,27,27,28,28,29,29,30,30,32,32,34,34,35,35,39,39,40,40,41,41,42,42,43,43,44,44,45,45,46,46,47,47,48,48,49,49,50,50,51,51,53,53,54,54,57,57,58,58,59,59],"right_children":[2,4,6,8,10,12,14,16,18,20,22,24,26,28,30,32,34,36,38,40,42,44,46,48,50,52,54,56,58,60,62,-1,64,-1,66,68,-1,-1,-1,70,72,74,76,78,80,82,84,86,88,90,92,94,-1,96,98,-1,-1,100,102,104,-1,-1,-1,-1,-1,-1,-1,-1,-1,-1,-1,-1,-1,-1,-1,-1,-1,-1,-1,-1,-1,-1,-1,-1,-1,-1,-1,-1,-1,-1,-1,-1,-1,-1,-1,-1,-1,-1,-1,-1,-1,-1,-1,-1,-1],"split_conditions":[1.7792136E2,4.0831037E0,1.4E-1,NaN,1.43E2,1E-1,1.9319032E2,-2.022974E0,1.8126698E1,1.6727798E7,NaN,NaN,NaN,NaN,8.8E-1,-2.0689066E1,3.833908E0,1.74E2,NaN,NaN,NaN,2.3636E4,1.0820302E7,6.5533E4,1.8097694E2,4.7102876E0,-2.0689066E1,4.1E-1,1.7E2,1.1730856E7,NaN,7.035101E-1,1.74E2,3.6113129E0,NaN,1.71E2,5.119921E-1,2.9386598E-1,-1.4863415E-1,7.217448E-2,4.251058E0,9.4843E4,1.0287912E2,2.02E3,5.34E0,3.72E0,-5.7078958E0,8.685131E6,NaN,NaN,4.002299E0,NaN,6.1662965E0,4.8E0,NaN,2.9418883E0,7.433438E-1,NaN,NaN,1.16902E7,5.501173E0,-2.5013468E-1,-1.4997517E0,-1.9834677E0,8.775788E-2,2.1709936E0,-5.815807E-1,-1.367164E0,-2.9195502E0,-4.6907127E-1,1.2651366E-1,-3.5984564E-1,-8.297761E-1,-3.6892065E-1,1.6810731E0,-2.0799177E0,-7.4675417E-1,3.1192648E-1,-1.7664222E0,1.3344761E0,3.410121E0,-6.497937E-1,1.0054979E0,3.0466273E-1,-5.4371274E-1,9.6315396E-1,-9.6213645E-1,9.826632E-1,-2.6903316E-1,8.18448E-1,-3.5159266E-1,2.9425623E-2,-9.327648E-1,2.4155102E0,-1.224407E0,-3.375849E0,8.693828E-1,6.1532044E-1,-8.967089E-2,3.5872846E0,5.976918E-1,-1.2823403E-1,-2.5191598E0,2.9786682E0,-3.733698E-1],"split_indices":[10,7,9,0,10,9,10,11,11,8,0,0,0,0,9,11,7,13,0,0,0,5,8,5,10,7,11,9,13,8,0,0,13,0,0,13,0,0,0,11,11,5,10,6,3,3,11,8,0,0,7,0,0,3,0,0,0,0,0,8,0,0,0,0,0,0,0,0,0,0,0,0,0,0,0,0,0,0,0,0,0,0,0,0,0,0,0,0,0,0,0,0,0,0,0,0,0,0,0,0,0,0,0,0,0],"split_type":[0,0,0,1,0,0,0,0,0,0,1,1,1,1,0,0,0,0,1,1,1,0,0,0,0,0,0,0,0,0,1,0,0,0,1,0,0,0,0,0,0,0,0,0,0,0,0,0,1,1,0,1,0,0,1,0,0,1,1,0,0,0,0,0,0,0,0,0,0,0,0,0,0,0,0,0,0,0,0,0,0,0,0,0,0,0,0,0,0,0,0,0,0,0,0,0,0,0,0,0,0,0,0,0,0],"sum_hessian":[1.869E3,1.065E3,8.04E2,8.5E1,9.8E2,7.62E2,4.2E1,5.1E1,3.4E1,5.47E2,4.33E2,1.52E2,6.1E2,2E1,2.2E1,2.2E1,2.9E1,3.2E1,2E0,4.67E2,8E1,8.4E1,3.49E2,5.4E1,9.8E1,3E1,5.8E2,8E0,1.2E1,2E1,2E0,1E0,2.1E1,2E0,2.7E1,3.1E1,1E0,1E0,1E0,2.05E2,2.62E2,2.2E1,5.8E1,1.9E1,6.5E1,1.02E2,2.47E2,2.5E1,2.9E1,5E0,9.3E1,2.8E1,2E0,1.2E1,5.68E2,6E0,2E0,3E0,9E0,1E1,1E1,1E0,1E0,1.9E1,2E0,5E0,2.2E1,1.2E1,1.9E1,1.14E2,9.1E1,1.9E2,7.2E1,2E1,2E0,7E0,5.1E1,1E1,9E0,5.8E1,7E0,2.5E1,7.7E1,6.6E1,1.81E2,3E0,2.2E1,4E0,2.5E1,3E0,2E0,9E0,8.4E1,2.4E1,4E0,9E0,3E0,4.03E2,1.65E2,1E0,2E0,4E0,5E0,9E0,1E0],"tree_param":{"num_deleted":"0","num_feature":"14","num_nodes":"105","size_leaf_vector":"1"}},{"base_weights":[3.9271448E-2,-4.637507E-1,9.976082E-1,-2.419953E0,-1.8073566E-1,5.5493474E0,5.461627E-1,-6.5670675E-1,-4.851268E0,-1.0171545E0,6.2543154E-1,1.2223305E1,3.3496866E0,2.1098681E-1,5.004579E0,-2.5824234E0,2.8061416E0,-2.5509708E0,-8.203599E0,-2.5483346E0,-9.130209E-1,5.0006742E0,2.5164762E-1,5.5335104E-1,1.2879789E1,5.6443753E0,-1.16221E0,2.266502E0,-5.360684E-1,8.113209E0,-5.443494E0,2.7956097E0,-2.9482825E0,3.2728412E0,1.6321596E0,-3.1325269E0,5.6657295E0,3.699832E-1,-9.337978E0,-1.4795432E0,-1.4490391E0,1.7129035E0,-9.986496E-1,3.3928363E0,1.6541674E1,-3.8023055E-2,4.5345306E0,1.3548181E1,7.2886336E-1,3.8159714E0,1.2321996E1,8.925487E-1,-3.1091044E0,9.800888E0,1.0621378E0,2.6082134E0,-1.2068754E0,3.1804776E-1,1.4972583E1,-7.4517E0,1.7262217E0,-1.4846885E0,-5.037018E-1,8.904496E-1,-1.6924504E0,-2.1872564E-1,-1.577751E0,2.6759171E0,-1.2633878E-1,2.1863658E0,-1.3095839E0,-1.0463635E0,-3.1158018E0,1.1990671E-1,-9.9932235E-1,1.211122E0,-8.5006756E-1,-5.8097515E-2,-3.826371E-1,-2.25576E-2,1.9107039E0,8.292806E0,2.0567248E0,-1.1416012E-1,8.0695647E-1,2.4253042E0,-8.265381E-3,2.1211839E0,4.7709413E0,2.1663845E0,6.2715054E-1,4.3590384E0,1.5811467E0,-1.2892544E0,1.0194976E0,-1.6138512E0,3.535938E0,-4.0899226E-1,1.4109776E0,1.80822E0,-1.3016505E0,-2.6304647E-1,-2.1813004E0,-1.2709633E0,2.5845375E0,6.126019E0,2.358445E0,-5.2013E-1,-2.4062603E0,7.438545E-1,3.2945253E-2],"categories":[0,2,4,5,6,8,9,11,13,14,15,16,17,18,19,20,22,23,24,25,1,2,6,7,8,9,11,12,17,22,23,0,1,2,3,4,5,6,7,8,9,11,13,14,15,17,18,19,20,22,23,24,25,0,1,2,3,5,6,7,8,9,10,11,12,13,14,15,16,17,18,19,20,21,22,23,25,1,2,7,8,9,12,9,7,17,6,7,8,9,17,22,23,4,9,14,17,19,23,0,1,2,3,6,7,8,9,10,11,12,13,16,17,18,21,22,23,25,6,8,9,15,18,20,0,1,2,3,4,5,7,9,10,11,12,14,16,18,19,20,21,22,23,24,25,0,1,2,3,4,5,6,7,8,9,10,11,12,13,14,15,16,17,18,20,21,22,23,24,25],"categories_nodes":[2,3,10,16,35,36,37,38,40,46,55,58,60],"categories_segments":[0,20,31,53,77,83,84,86,93,99,118,124,145],"categories_sizes":[20,11,22,24,6,1,2,7,6,19,6,21,25],"default_left":[0,0,1,1,0,0,0,0,0,0,1,0,0,0,0,0,1,0,0,0,0,0,0,0,0,0,0,0,0,0,0,0,0,0,0,1,1,1,1,0,1,0,0,0,0,0,1,0,0,0,0,0,0,0,0,1,0,0,1,0,1,0,0,0,0,0,0,0,0,0,0,0,0,0,0,0,0,0,0,0,0,0,0,0,0,0,0,0,0,0,0,0,0,0,0,0,0,0,0,0,0,0,0,0,0,0,0,0,0,0,0],"id":7,"left_children":[1,3,5,7,9,11,13,15,17,19,21,23,25,27,29,31,33,35,37,39,41,43,45,-1,47,49,51,53,55,57,59,-1,61,-1,63,65,67,69,71,-1,73,75,77,79,81,83,85,87,-1,89,91,93,-1,95,97,99,101,103,105,107,109,-1,-1,-1,-1,-1,-1,-1,-1,-1,-1,-1,-1,-1,-1,-1,-1,-1,-1,-1,-1,-1,-1,-1,-1,-1,-1,-1,-1,-1,-1,-1,-1,-1,-1,-1,-1,-1,-1,-1,-1,-1,-1,-1,-1,-1,-1,-1,-1,-1,-1],"loss_changes":[9.019234E2,6.788723E2,1.3203003E3,6.613001E2,7.24153E2,8.1052124E2,8.761299E2,6.140769E2,4.8031104E2,8.1701965E1,8.9330273E2,7.163257E1,4.7246292E2,8.41179E2,1.3758109E3,2.84368E2,2.9612836E2,2.0888693E2,2.5632312E2,7.9318375E1,1.1301358E2,7.41787E2,6.2668835E2,0E0,5.788745E1,3.1926117E2,3.117589E2,1.3144152E3,8.5104877E2,1.7062754E3,1.5684598E2,0E0,1.3897672E2,0E0,3.082744E2,1.9039355E2,6.317617E1,1.6284601E2,1.0478931E2,0E0,8.483632E1,1.8050728E2,1.06710205E2,4.0301605E2,3.4810645E2,4.4389474E2,5.184484E2,7.0607666E1,0E0,1.3179791E2,1.6843018E1,1.9667632E2,0E0,6.6624023E2,1.1279921E3,1.7126329E3,6.581186E2,6.411352E2,4.9800708E2,1.2129364E1,3.3805847E0,0E0,0E0,0E0,0E0,0E0,0E0,0E0,0E0,0E0,0E0,0E0,0E0,0E0,0E0,0E0,0E0,0E0,0E0,0E0,0E0,0E0,0E0,0E0,0E0,0E0,0E0,0E0,0E0,0E0,0E0,0E0,0E0,0E0,0E0,0E0,0E0,0E0,0E0,0E0,0E0,0E0,0E0,0E0,0E0,0E0,0E0,0E0,0E0,0E0,0E0],"parents":[2147483647,0,0,1,1,2,2,3,3,4,4,5,5,6,6,7,7,8,8,9,9,10,10,11,11,12,12,13,13,14,14,15,15,16,16,17,17,18,18,19,19,20,20,21,21,22,22,24,24,25,25,26,26,27,27,28,28,29,29,30,30,32,32,34,34,35,35,36,36,37,37,38,38,40,40,41,41,42,42,43,43,44,44,45,45,46,46,47,47,49,49,50,50,51,51,53,53,54,54,55,55,56,56,57,57,58,58,59,59,60,60],"right_children":[2,4,6,8,10,12,14,16,18,20,22,24,26,28,30,32,34,36,38,40,42,44,46,-1,48,50,52,54,56,58,60,-1,62,-1,64,66,68,70,72,-1,74,76,78,80,82,84,86,88,-1,90,92,94,-1,96,98,100,102,104,106,108,110,-1,-1,-1,-1,-1,-1,-1,-1,-1,-1,-1,-1,-1,-1,-1,-1,-1,-1,-1,-1,-1,-1,-1,-1,-1,-1,-1,-1,-1,-1,-1,-1,-1,-1,-1,-1,-1,-1,-1,-1,-1,-1,-1,-1,-1,-1,-1,-1,-1,-1],"split_conditions":[1.837556E2,4.1024137E0,NaN,NaN,1.3365492E2,1.71E2,4.78977E0,1.73E2,1.7907033E2,-1.4616671E1,NaN,1E-1,2.019E3,1.1264429E7,8.7099E4,2.16E0,NaN,1.8917416E1,2.016E3,1.06872025E2,-1.21364975E1,1.8101686E2,2.022E3,5.5335104E-1,1.6317877E7,9.422483E0,3.5E-1,2.1239E4,3.99477E0,4.46E0,3.1429675E0,2.7956097E0,1.71E2,3.2728412E0,1.07887E5,NaN,NaN,NaN,NaN,-1.4795432E0,NaN,5.3E-1,4.1847E4,6.1422E4,2.012E3,2.6E-1,NaN,8.950939E6,7.2886336E-1,2.016E3,4E0,3.86E0,-3.1091044E0,2.62E0,8.0235E4,NaN,4.700517E0,3.9147E4,NaN,1.71E2,NaN,-1.4846885E0,-5.037018E-1,8.904496E-1,-1.6924504E0,-2.1872564E-1,-1.577751E0,2.6759171E0,-1.2633878E-1,2.1863658E0,-1.3095839E0,-1.0463635E0,-3.1158018E0,1.1990671E-1,-9.9932235E-1,1.211122E0,-8.5006756E-1,-5.8097515E-2,-3.826371E-1,-2.25576E-2,1.9107039E0,8.292806E0,2.0567248E0,-1.1416012E-1,8.0695647E-1,2.4253042E0,-8.265381E-3,2.1211839E0,4.7709413E0,2.1663845E0,6.2715054E-1,4.3590384E0,1.5811467E0,-1.2892544E0,1.0194976E0,-1.6138512E0,3.535938E0,-4.0899226E-1,1.4109776E0,1.80822E0,-1.3016505E0,-2.6304647E-1,-2.1813004E0,-1.2709633E0,2.5845375E0,6.126019E0,2.358445E0,-5.2013E-1,-2.4062603E0,7.438545E-1,3.2945253E-2],"split_indices":[10,7,0,0,10,13,7,13,10,11,0,9,6,8,5,3,0,11,6,10,11,10,6,0,8,11,9,5,7,3,11,0,13,0,5,0,0,0,0,0,0,9,5,5,4,9,0,8,0,6,3,3,0,3,5,0,7,5,0,13,0,0,0,0,0,0,0,0,0,0,0,0,0,0,0,0,0,0,0,0,0,0,0,0,0,0,0,0,0,0,0,0,0,0,0,0,0,0,0,0,0,0,0,0,0,0,0,0,0,0,0],"split_type":[0,0,1,1,0,0,0,0,0,0,1,0,0,0,0,0,1,0,0,0,0,0,0,0,0,0,0,0,0,0,0,0,0,0,0,1,1,1,1,0,1,0,0,0,0,0,1,0,0,0,0,0,0,0,0,1,0,0,1,0,1,0,0,0,0,0,0,0,0,0,0,0,0,0,0,0,0,0,0,0,0,0,0,0,0,0,0,0,0,0,0,0,0,0,0,0,0,0,0,0,0,0,0,0,0,0,0,0,0,0,0],"sum_hessian":[1.869E3,1.226E3,6.43E2,1.54E2,1.072E3,5.7E1,5.86E2,9E1,6.4E1,5.26E2,5.46E2,1.3E1,4.4E1,5.46E2,4E1,5.8E1,3.2E1,3.9E1,2.5E1,3.2E1,4.94E2,4.2E1,5.04E2,1E0,1.2E1,2.9E1,1.5E1,1.45E2,4.01E2,3.1E1,9E0,1E0,5.7E1,3E0,2.9E1,3.7E1,2E0,3E0,2.2E1,9E0,2.3E1,1.5E1,4.79E2,3.8E1,4E0,4.73E2,3.1E1,1.1E1,1E0,2.4E1,5E0,1.3E1,2E0,1.9E1,1.26E2,7E1,3.31E2,1.5E1,1.6E1,7E0,2E0,2.1E1,3.6E1,2.5E1,4E0,1.8E1,1.9E1,1E0,1E0,1E0,2E0,4E0,1.8E1,1.2E1,1.1E1,1E1,5E0,1.23E2,3.56E2,1.8E1,2E1,1E0,3E0,4.21E2,5.2E1,1.7E1,1.4E1,4E0,7E0,7E0,1.7E1,3E0,2E0,4E0,9E0,2E0,1.7E1,7.6E1,5E1,4.7E1,2.3E1,3.15E2,1.6E1,1E1,5E0,8E0,8E0,1E0,6E0,1E0,1E0],"tree_param":{"num_deleted":"0","num_feature":"14","num_nodes":"111","size_leaf_vector":"1"}},{"base_weights":[4.664392E-2,-1.6538345E0,2.490055E-1,-1.786102E0,-1.5351009E0,-3.382478E-1,1.1659265E0,-2.4323893E0,-1.1830682E0,-1.6309705E0,-1.0648077E-1,2.1802981E-1,2.9680674E0,-1.3319302E0,-3.6556447E0,-6.2733546E-2,-1.7192416E0,3.4042134E0,-2.1947703E0,-7.1858597E-1,1.1636895E0,-2.2845578E0,9.27068E-1,2.052142E0,8.853179E0,-2.3725924E0,-5.0634456E-1,3.714218E-1,-4.221673E0,-5.6097E-1,1.4372035E0,1.2295195E0,-1.8236209E0,9.631264E0,-2.509189E0,-4.2837074E-1,-4.3469033E0,-6.3334537E-1,-3.3684788E0,2.4988716E0,-1.0433731E0,3.8947856E-1,-4.5992064E0,-2.7429223E-1,3.1386735E0,7.669628E0,9.09281E-1,1.681993E1,1.7715499E0,-2.0377357E-1,-1.2704871E0,-4.7960028E-1,3.1766775E-1,5.405636E-1,-5.879923E-1,-2.6996613E-1,-1.4729562E0,4.0837792E-1,-3.2156894E-1,8.7578434E-1,-1.1538996E-2,-6.603124E-1,1.1263612E-2,3.7491164E0,2.0677872E-1,-1.5322238E0,1.7726165E-1,-4.083216E-1,9.8127395E-1,5.509103E-1,-1.5089974E0,-2.0918068E-1,1.024347E0,1.455925E-1,-2.848128E0,9.314816E-2,1.2362491E0,-9.1868925E-1,2.7633184E-1,-1.6436582E0,9.649301E-1,1.0412216E0,-1.725698E0,2.5258288E-1,-1.242404E0,2.5403402E0,4.6217248E-1,-6.1728895E-1,4.4836135E0,5.864916E-1,-9.90311E-1,5.8242946E0,2.5072327E-1,1.2065176E0,-3.020953E0],"categories":[5,7,15,16,17,19,24,0,1,2,5,6,8,11,13,14,17,19,22,23,24,25,0,1,3,6,12,14,15,16,17,22,2,6,7,8,15,19,20,0,1,3,4,5,6,7,9,10,11,12,13,14,17,20,21,22,23,25,2,9,14,20,17,11,15,16,24,6,20],"categories_nodes":[7,8,18,20,24,25,27,46,48],"categories_segments":[0,7,22,32,39,58,62,63,67],"categories_sizes":[7,15,10,7,19,4,1,4,2],"default_left":[0,0,0,0,0,0,0,1,1,0,0,0,0,0,0,0,0,0,1,0,1,0,0,0,1,1,0,1,0,0,0,0,0,0,0,0,0,0,0,0,0,0,0,0,0,0,1,0,1,0,0,0,0,0,0,0,0,0,0,0,0,0,0,0,0,0,0,0,0,0,0,0,0,0,0,0,0,0,0,0,0,0,0,0,0,0,0,0,0,0,0,0,0,0,0],"id":8,"left_children":[1,3,5,-1,7,9,11,13,15,17,19,21,23,25,27,29,31,33,35,37,39,41,43,45,47,49,51,53,55,57,59,-1,61,63,65,67,69,71,73,75,77,79,81,83,85,87,89,91,93,-1,-1,-1,-1,-1,-1,-1,-1,-1,-1,-1,-1,-1,-1,-1,-1,-1,-1,-1,-1,-1,-1,-1,-1,-1,-1,-1,-1,-1,-1,-1,-1,-1,-1,-1,-1,-1,-1,-1,-1,-1,-1,-1,-1,-1,-1],"loss_changes":[6.4390027E2,9.245691E1,9.0070764E2,0E0,5.8717987E1,3.0542908E2,1.1148357E3,6.78226E1,8.519066E1,4.47491E2,6.741321E2,7.6334845E2,1.194655E3,2.4573326E1,5.8553864E1,3.5930428E1,6.576907E1,6.133356E2,5.303517E2,1.3000546E2,8.3361334E2,5.897894E2,8.909341E2,1.2513472E3,1.6627295E3,3.8120613E1,3.2468216E1,1.687148E1,4.5873474E1,3.6815376E1,2.6356916E1,0E0,6.681464E1,1.9639337E2,7.5509705E1,2.7357742E2,2.7533093E2,1.4935187E2,4.2950696E2,6.234252E2,4.2719717E2,7.6415125E2,4.9455127E2,9.444929E2,9.918983E2,2.3662642E3,7.2849475E2,5.643428E2,4.934666E2,0E0,0E0,0E0,0E0,0E0,0E0,0E0,0E0,0E0,0E0,0E0,0E0,0E0,0E0,0E0,0E0,0E0,0E0,0E0,0E0,0E0,0E0,0E0,0E0,0E0,0E0,0E0,0E0,0E0,0E0,0E0,0E0,0E0,0E0,0E0,0E0,0E0,0E0,0E0,0E0,0E0,0E0,0E0,0E0,0E0,0E0],"parents":[2147483647,0,0,1,1,2,2,4,4,5,5,6,6,7,7,8,8,9,9,10,10,11,11,12,12,13,13,14,14,15,15,16,16,17,17,18,18,19,19,20,20,21,21,22,22,23,23,24,24,25,25,26,26,27,27,28,28,29,29,30,30,32,32,33,33,34,34,35,35,36,36,37,37,38,38,39,39,40,40,41,41,42,42,43,43,44,44,45,45,46,46,47,47,48,48],"right_children":[2,4,6,-1,8,10,12,14,16,18,20,22,24,26,28,30,32,34,36,38,40,42,44,46,48,50,52,54,56,58,60,-1,62,64,66,68,70,72,74,76,78,80,82,84,86,88,90,92,94,-1,-1,-1,-1,-1,-1,-1,-1,-1,-1,-1,-1,-1,-1,-1,-1,-1,-1,-1,-1,-1,-1,-1,-1,-1,-1,-1,-1,-1,-1,-1,-1,-1,-1,-1,-1,-1,-1,-1,-1,-1,-1,-1,-1,-1,-1],"split_conditions":[1E-1,1.5972188E2,1.7792136E2,-1.786102E0,4.133678E0,4.259598E0,4.332184E0,NaN,NaN,8.771369E6,1.53E2,3.6824E4,2.021E3,1.0948154E7,1.72E2,1.56613E7,4.140632E0,6.2465E4,NaN,1.5120457E2,NaN,1.3563405E7,4.72E0,2.0652E4,NaN,NaN,1.8980476E2,NaN,2.014E3,1.0636146E7,1.9944206E2,1.2295195E0,9.4043E4,1.2264362E1,3.9389656E0,1.8711348E7,1.49E2,1.4943257E2,4.74E0,1.71E2,4.32E0,1.8533145E2,1.8247151E2,4.4E0,1.8445753E2,4.38E0,NaN,1.1E-1,NaN,-2.0377357E-1,-1.2704871E0,-4.7960028E-1,3.1766775E-1,5.405636E-1,-5.879923E-1,-2.6996613E-1,-1.4729562E0,4.0837792E-1,-3.2156894E-1,8.7578434E-1,-1.1538996E-2,-6.603124E-1,1.1263612E-2,3.7491164E0,2.0677872E-1,-1.5322238E0,1.7726165E-1,-4.083216E-1,9.8127395E-1,5.509103E-1,-1.5089974E0,-2.0918068E-1,1.024347E0,1.455925E-1,-2.848128E0,9.314816E-2,1.2362491E0,-9.1868925E-1,2.7633184E-1,-1.6436582E0,9.649301E-1,1.0412216E0,-1.725698E0,2.5258288E-1,-1.242404E0,2.5403402E0,4.6217248E-1,-6.1728895E-1,4.4836135E0,5.864916E-1,-9.90311E-1,5.8242946E0,2.5072327E-1,1.2065176E0,-3.020953E0],"split_indices":[9,10,10,0,7,7,7,0,0,8,10,5,6,8,13,8,7,5,0,10,0,8,3,5,0,0,10,0,4,8,10,0,5,11,7,8,10,10,3,13,3,10,10,3,10,3,0,9,0,0,0,0,0,0,0,0,0,0,0,0,0,0,0,0,0,0,0,0,0,0,0,0,0,0,0,0,0,0,0,0,0,0,0,0,0,0,0,0,0,0,0,0,0,0,0],"split_type":[0,0,0,0,0,0,0,1,1,0,0,0,0,0,0,0,0,0,1,0,1,0,0,0,1,1,0,1,0,0,0,0,0,0,0,0,0,0,0,0,0,0,0,0,0,0,1,0,1,0,0,0,0,0,0,0,0,0,0,0,0,0,0,0,0,0,0,0,0,0,0,0,0,0,0,0,0,0,0,0,0,0,0,0,0,0,0,0,0,0,0,0,0,0,0],"sum_hessian":[1.869E3,1.98E2,1.671E3,4E0,1.94E2,1.019E3,6.52E2,5.3E1,1.41E2,1.54E2,8.65E2,4.28E2,2.24E2,2.9E1,2.4E1,4.6E1,9.5E1,1.5E1,1.39E2,5.84E2,2.81E2,9.4E1,3.34E2,1.95E2,2.9E1,1.2E1,1.7E1,3E0,2.1E1,3.5E1,1.1E1,1E0,9.4E1,7E0,8E0,7.7E1,6.2E1,5.67E2,1.7E1,1.75E2,1.06E2,4.4E1,5E1,2.17E2,1.17E2,3.2E1,1.63E2,1.3E1,1.6E1,7E0,5E0,1E1,7E0,2E0,1E0,4E0,1.7E1,7E0,2.8E1,5E0,6E0,7.8E1,1.6E1,5E0,2E0,4E0,4E0,6.2E1,1.5E1,6E0,5.6E1,5.59E2,8E0,1.1E1,6E0,7.5E1,1E2,5.2E1,5.4E1,1.4E1,3E1,6E0,4.4E1,1.69E2,4.8E1,2.6E1,9.1E1,1.4E1,1.8E1,1.31E2,3.2E1,1.1E1,2E0,1.4E1,2E0],"tree_param":{"num_deleted":"0","num_feature":"14","num_nodes":"95","size_leaf_vector":"1"}},{"base_weights":[3.5702117E-2,3.8265488E0,-2.6090985E-2,6.6533103E0,-3.8177872E-1,-2.4551456E-1,8.6189455E-1,1.7173615E0,8.419647E0,-3.8172932E0,2.2425795E0,1.8900147E-1,-8.1564516E-1,4.418693E-1,6.811342E0,2.8190904E0,-5.6869245E-1,5.2253227E0,3.382642E0,-1.5628957E0,-6.8838376E-1,1.9888059E0,6.688472E-1,-6.033411E0,2.789531E-1,-5.151295E-1,-2.666976E0,3.5869586E0,-2.8116864E-1,7.7813206E0,-7.716858E-1,2.584267E-1,1.1511185E0,1.8642764E0,4.5170557E-1,3.7189867E-2,-3.4696257E-1,-1.1693506E0,7.0195E-1,-7.385838E0,4.8581567E-1,-1.5614963E-1,1.3907225E0,-9.1964346E-1,9.932353E-1,-9.9435014E-1,-6.2753987E0,4.8807297E0,-1.864046E0,-3.1723044E0,-1.309734E-1,6.9158554E-2,8.995391E0,-5.5261177E-1,-9.933243E-2,-2.4516928E0,-4.6139717E-2,6.9833225E-1,-4.7971517E-1,-2.2432229E-1,1.6254212E-1,2.115768E-1,1.5745064E0,-8.469213E-1,-1.6029814E-1,6.0355216E-2,1.3212936E0,1.3805112E0,-4.378874E-1,-8.135986E-1,-3.2401812E0,2.183907E0,2.9782686E-1,-1.6047753E0,-2.2322305E-1,4.7604215E-1,-3.1678158E-1,5.245186E-1,-7.4528277E-1,1.7062944E0,3.8497744E0],"categories":[0,1,2,3,4,5,6,7,8,9,11,12,13,14,15,16,17,18,19,20,22,23,24,25,7,8,11,14,15,18,20,23,0,2,4,5,6,8,9,10,13,14,15,16,17,19,21,22,23,24,25,19,7,15,18,23],"categories_nodes":[0,5,13,40,46],"categories_segments":[0,24,32,51,52],"categories_sizes":[24,8,19,1,4],"default_left":[1,0,0,0,0,1,0,0,0,0,0,0,0,1,0,0,0,0,0,0,0,0,0,0,0,0,0,0,0,0,0,0,0,0,0,0,0,0,0,0,1,0,0,0,0,0,1,0,0,0,0,0,0,0,0,0,0,0,0,0,0,0,0,0,0,0,0,0,0,0,0,0,0,0,0,0,0,0,0,0,0],"id":9,"left_children":[1,3,5,7,9,11,13,15,17,19,21,23,25,27,29,31,-1,33,-1,-1,35,-1,37,39,41,43,45,47,49,51,-1,-1,-1,-1,-1,-1,-1,53,-1,55,57,59,61,63,65,67,69,71,73,-1,75,77,79,-1,-1,-1,-1,-1,-1,-1,-1,-1,-1,-1,-1,-1,-1,-1,-1,-1,-1,-1,-1,-1,-1,-1,-1,-1,-1,-1,-1],"loss_changes":[4.3814392E2,3.5941824E2,3.5892117E2,1.4247437E2,1.25768845E2,3.6605267E2,9.0909534E2,2.9227282E1,5.9673584E1,2.2553154E1,5.0794823E1,4.712849E2,3.541363E2,7.78723E2,2.3846204E2,6.6589203E0,0E0,2.007103E1,0E0,0E0,1.2842968E0,0E0,2.4237305E1,1.09389496E2,4.0074884E2,3.371086E2,5.309232E2,4.604485E2,4.2994525E2,2.0536621E2,0E0,0E0,0E0,0E0,0E0,0E0,0E0,1.6455908E0,0E0,5.5621033E1,1.5242938E1,2.464966E2,6.1241516E2,3.1753003E2,3.1521832E2,1.6814621E2,4.222124E2,4.7778186E2,4.6762936E1,0E0,4.4020847E2,2.1494781E1,1.6816907E2,0E0,0E0,0E0,0E0,0E0,0E0,0E0,0E0,0E0,0E0,0E0,0E0,0E0,0E0,0E0,0E0,0E0,0E0,0E0,0E0,0E0,0E0,0E0,0E0,0E0,0E0,0E0,0E0],"parents":[2147483647,0,0,1,1,2,2,3,3,4,4,5,5,6,6,7,7,8,8,9,9,10,10,11,11,12,12,13,13,14,14,15,15,17,17,20,20,22,22,23,23,24,24,25,25,26,26,27,27,28,28,29,29,37,37,39,39,40,40,41,41,42,42,43,43,44,44,45,45,46,46,47,47,48,48,50,50,51,51,52,52],"right_children":[2,4,6,8,10,12,14,16,18,20,22,24,26,28,30,32,-1,34,-1,-1,36,-1,38,40,42,44,46,48,50,52,-1,-1,-1,-1,-1,-1,-1,54,-1,56,58,60,62,64,66,68,70,72,74,-1,76,78,80,-1,-1,-1,-1,-1,-1,-1,-1,-1,-1,-1,-1,-1,-1,-1,-1,-1,-1,-1,-1,-1,-1,-1,-1,-1,-1,-1,-1],"split_conditions":[NaN,1.72E2,1.9097926E2,1.41E2,-9.697315E0,NaN,1.3E-1,4.48E0,4.56E0,4.46E0,3.32E0,3.833908E0,1.8575394E7,NaN,8.8E-1,-8.924734E0,-5.6869245E-1,9.697727E-1,3.382642E0,-1.5628957E0,4.76E0,1.9888059E0,2.018E3,1.74E2,1.7792136E2,8.5471E4,1.8281232E2,2E2,-2.3714548E1,1.7E2,-7.716858E-1,2.584267E-1,1.1511185E0,1.8642764E0,4.5170557E-1,3.7189867E-2,-3.4696257E-1,4.3051E4,7.0195E-1,1.4187426E1,NaN,6.782216E-1,1.8032902E7,4.133678E0,1.6136367E7,3.833908E0,NaN,3.1972106E0,7.908173E6,-3.1723044E0,1.9481395E2,4.88E0,4.84E0,-5.5261177E-1,-9.933243E-2,-2.4516928E0,-4.6139717E-2,6.9833225E-1,-4.7971517E-1,-2.2432229E-1,1.6254212E-1,2.115768E-1,1.5745064E0,-8.469213E-1,-1.6029814E-1,6.0355216E-2,1.3212936E0,1.3805112E0,-4.378874E-1,-8.135986E-1,-3.2401812E0,2.183907E0,2.9782686E-1,-1.6047753E0,-2.2322305E-1,4.7604215E-1,-3.1678158E-1,5.245186E-1,-7.4528277E-1,1.7062944E0,3.8497744E0],"split_indices":[0,13,10,13,11,0,9,3,3,3,3,7,8,0,9,11,0,11,0,0,3,0,6,13,10,5,10,10,11,13,0,0,0,0,0,0,0,5,0,11,0,11,8,7,8,7,0,11,8,0,10,3,3,0,0,0,0,0,0,0,0,0,0,0,0,0,0,0,0,0,0,0,0,0,0,0,0,0,0,0,0],"split_type":[1,0,0,0,0,1,0,0,0,0,0,0,0,1,0,0,0,0,0,0,0,0,0,0,0,0,0,0,0,0,0,0,0,0,0,0,0,0,0,0,1,0,0,0,0,0,1,0,0,0,0,0,0,0,0,0,0,0,0,0,0,0,0,0,0,0,0,0,0,0,0,0,0,0,0,0,0,0,0,0,0],"sum_hessian":[1.869E3,2.9E1,1.84E3,1.7E1,1.2E1,1.476E3,3.64E2,5E0,1.2E1,5E0,7E0,8.38E2,6.38E2,3.41E2,2.3E1,4E0,1E0,7E0,5E0,3E0,2E0,1E0,6E0,1.1E1,8.27E2,5.5E2,8.8E1,6.3E1,2.78E2,2.1E1,2E0,2E0,2E0,5E0,2E0,1E0,1E0,3E0,3E0,9E0,2E0,5.95E2,2.32E2,4.34E2,1.16E2,6.1E1,2.7E1,5.1E1,1.2E1,3E0,2.75E2,3E0,1.8E1,1E0,2E0,8E0,1E0,1E0,1E0,3.22E2,2.73E2,1.98E2,3.4E1,7.2E1,3.62E2,9.5E1,2.1E1,4E0,5.7E1,1.6E1,1.1E1,3.1E1,2E1,2E0,1E1,9.6E1,1.79E2,2E0,1E0,1.1E1,7E0],"tree_param":{"num_deleted":"0","num_feature":"14","num_nodes":"81","size_leaf_vector":"1"}},{"base_weights":[2.7995694E-2,-1.1791948E0,1.7165773E-1,-1.3349202E0,-1.0892876E0,-1.4911892E-1,8.037899E-1,-3.7108715E0,-9.719368E-1,1.3546368E-1,-8.939244E-1,2.0351657E-1,2.2504885E0,-1.5294094E0,-1.6529944E0,1.4993025E0,-1.0900991E0,-1.9330895E-1,1.3446358E0,-5.1105946E-1,-8.312959E0,-4.0930888E-1,2.9458508E0,6.1401663E0,2.0146108E0,-6.900788E-3,-5.7007813E-1,4.3064966E0,-4.8232558E-1,-5.2728623E-1,-1.7270367E0,1.4792148E0,-3.8076195E-1,-4.0603456E0,2.3349774E0,2.043814E0,-7.8872085E-1,-9.032953E0,-7.265988E-1,1.7812815E0,-1.21082E0,4.931504E0,-2.9571369E0,9.408931E0,1.4214967E0,-1.2588902E-1,1.6778808E0,6.192221E-1,-1.9828108E-1,-4.659504E-1,-1.7711312E0,8.7867284E-1,-7.842081E-2,-5.833599E-1,-5.163727E-2,6.898906E-1,-2.2104282E0,2.4142547E-1,2.0463572E0,-1.5532392E0,8.3114445E-1,-5.078375E-1,9.0356454E-2,-2.8484168E0,-5.237589E-1,2.0988736E0,-5.1494364E-2,1.8692331E-1,-7.313236E-1,-8.648585E-1,1.7841598E0,1.9977349E0,-2.0601494E0,5.1913614E0,9.8941815E-1,2.1742503E-1,1.5984358E0],"categories":[6,7,18,20,22,8,9,5,11,20,1,7,14,16,17,19,22,24,25,0,2,4,5,6,7,8,13,14,15,16,17,22,23,24,8,13,15,16,19,20,5,8,11,14,15,23,24,0,1,2,3,4,5,6,8,9,10,11,12,13,14,15,17,18,19,20,21,22,23,25],"categories_nodes":[5,13,15,16,21,22,33,43],"categories_segments":[0,5,7,10,19,34,40,47],"categories_sizes":[5,2,3,9,15,6,7,23],"default_left":[0,0,0,0,0,1,0,0,0,0,0,0,0,1,0,1,1,0,0,0,0,1,1,0,0,0,0,0,0,0,0,0,0,1,0,0,0,0,0,0,0,0,0,1,0,0,0,0,0,0,0,0,0,0,0,0,0,0,0,0,0,0,0,0,0,0,0,0,0,0,0,0,0,0,0,0,0],"id":10,"left_children":[1,3,5,-1,7,9,11,13,15,17,19,21,23,25,-1,27,29,31,33,35,37,39,41,-1,43,-1,-1,45,-1,47,49,51,53,55,57,59,61,63,-1,65,67,69,71,73,75,-1,-1,-1,-1,-1,-1,-1,-1,-1,-1,-1,-1,-1,-1,-1,-1,-1,-1,-1,-1,-1,-1,-1,-1,-1,-1,-1,-1,-1,-1,-1,-1],"loss_changes":[3.2451175E2,5.3667847E1,3.391567E2,0E0,5.638405E1,2.3539523E2,4.8845944E2,2.2970505E1,5.6531784E1,3.1988428E2,8.677816E2,6.717541E2,6.6775854E2,2.7495518E0,0E0,8.542272E1,6.3615173E1,1.9902113E2,9.301586E2,2.094632E2,4.174414E1,5.762976E2,8.70237E2,0E0,7.0587604E2,0E0,0E0,3.274633E1,0E0,3.4958908E1,5.1831543E1,1.622609E2,1.8563443E2,5.849487E2,9.9678876E2,1.6652061E2,2.6162888E2,2.7167725E1,0E0,8.97433E2,5.4153217E2,4.5368066E2,7.601257E2,5.219169E2,4.1259305E2,0E0,0E0,0E0,0E0,0E0,0E0,0E0,0E0,0E0,0E0,0E0,0E0,0E0,0E0,0E0,0E0,0E0,0E0,0E0,0E0,0E0,0E0,0E0,0E0,0E0,0E0,0E0,0E0,0E0,0E0,0E0,0E0],"parents":[2147483647,0,0,1,1,2,2,4,4,5,5,6,6,7,7,8,8,9,9,10,10,11,11,12,12,13,13,15,15,16,16,17,17,18,18,19,19,20,20,21,21,22,22,24,24,27,27,29,29,30,30,31,31,32,32,33,33,34,34,35,35,36,36,37,37,39,39,40,40,41,41,42,42,43,43,44,44],"right_children":[2,4,6,-1,8,10,12,14,16,18,20,22,24,26,-1,28,30,32,34,36,38,40,42,-1,44,-1,-1,46,-1,48,50,52,54,56,58,60,62,64,-1,66,68,70,72,74,76,-1,-1,-1,-1,-1,-1,-1,-1,-1,-1,-1,-1,-1,-1,-1,-1,-1,-1,-1,-1,-1,-1,-1,-1,-1,-1,-1,-1,-1,-1,-1,-1],"split_conditions":[1E-1,1.5972188E2,1.818319E2,-1.3349202E0,7.745116E6,NaN,4.462816E0,4.28E0,8.906595E6,1.7132503E2,1.7972966E2,1.74E2,1.82E2,NaN,-1.6529944E0,NaN,NaN,3.08E0,3.62E0,1.7E2,5.26E0,NaN,NaN,6.1401663E0,4.516092E0,-6.900788E-3,-5.7007813E-1,3.12E0,-4.8232558E-1,1.6802945E2,2.022E3,-4.5876995E-1,1.048484E2,NaN,4.5289083E0,1.1016527E2,7.8553045E-1,2.017E3,-7.265988E-1,1.87E2,2.018E3,1.0693683E7,1.1730856E7,NaN,9.16728E0,-1.2588902E-1,1.6778808E0,6.192221E-1,-1.9828108E-1,-4.659504E-1,-1.7711312E0,8.7867284E-1,-7.842081E-2,-5.833599E-1,-5.163727E-2,6.898906E-1,-2.2104282E0,2.4142547E-1,2.0463572E0,-1.5532392E0,8.3114445E-1,-5.078375E-1,9.0356454E-2,-2.8484168E0,-5.237589E-1,2.0988736E0,-5.1494364E-2,1.8692331E-1,-7.313236E-1,-8.648585E-1,1.7841598E0,1.9977349E0,-2.0601494E0,5.1913614E0,9.8941815E-1,2.1742503E-1,1.5984358E0],"split_indices":[9,10,10,0,8,0,7,3,8,10,10,13,10,0,0,0,0,3,3,13,3,0,0,0,7,0,0,3,0,10,6,11,10,0,7,10,11,4,0,10,6,8,8,0,11,0,0,0,0,0,0,0,0,0,0,0,0,0,0,0,0,0,0,0,0,0,0,0,0,0,0,0,0,0,0,0,0],"split_type":[0,0,0,0,0,1,0,0,0,0,0,0,0,1,0,1,1,0,0,0,0,1,1,0,0,0,0,0,0,0,0,0,0,1,0,0,0,0,0,0,0,0,0,1,0,0,0,0,0,0,0,0,0,0,0,0,0,0,0,0,0,0,0,0,0,0,0,0,0,0,0,0,0,0,0,0,0],"sum_hessian":[1.869E3,1.98E2,1.671E3,4E0,1.94E2,1.109E3,5.62E2,7E0,1.87E2,8.03E2,3.06E2,3.98E2,1.64E2,4E0,3E0,8E0,1.79E2,6.32E2,1.71E2,2.92E2,1.4E1,3.26E2,7.2E1,1E0,1.63E2,1E0,3E0,4E0,4E0,9.6E1,8.3E1,6.3E1,5.69E2,2.6E1,1.45E2,2.8E1,2.64E2,1.2E1,2E0,8.7E1,2.39E2,5.4E1,1.8E1,1.1E1,1.52E2,1E0,3E0,4E0,9.2E1,8.1E1,2E0,3.4E1,2.9E1,6.6E1,5.03E2,9E0,1.7E1,1.09E2,3.6E1,2E0,2.6E1,1.44E2,1.2E2,1.1E1,1E0,2.3E1,6.4E1,9.6E1,1.43E2,6E0,4.8E1,5E0,1.3E1,4E0,7E0,1.3E2,2.2E1],"tree_param":{"num_deleted":"0","num_feature":"14","num_nodes":"77","size_leaf_vector":"1"}},{"base_weights":[2.3810513E-2,-3.4345481E0,6.683997E-2,-7.064977E0,-2.033597E0,2.3339756E0,1.1537588E-2,-6.3011837E-1,-2.7066512E0,-1.5380689E0,-1.0731442E0,3.6012568E0,-6.3886017E-1,-2.859298E-1,4.0635702E-1,1.3571945E0,-2.080285E0,2.4169707E0,7.3163857E0,-3.7058256E0,1.4767679E0,3.7201998E-1,-9.3697673E-1,5.729365E-1,-4.4208565E0,1.700469E0,-2.385521E-3,-9.51014E-1,-6.438093E-1,3.9096904E0,-6.711633E-1,1.055657E1,-5.227178E-1,-1.5455283E0,-5.426369E-1,1.2835584E0,6.5046854E-2,-8.119939E-1,9.981582E-1,9.832494E-1,-1.4217274E0,1.7148886E0,-4.6014916E-2,-4.4542557E-1,-5.591214E0,5.769661E-1,1.5483227E-1,-4.2710212E-1,3.0612374E-2,3.754782E-1,1.4738793E0,2.1587631E-1,-5.783045E-1,9.750535E-1,4.3032317E0,2.267727E-1,-4.6199572E-1,-2.835434E-1,3.9356805E-2,1.9622204E-1,-5.203669E-1,2.6811552E-3,-7.403765E-1,7.8996515E-1,1.3018863E-1,-1.914671E-1,1.0589688E0,-7.8679246E-1,-1.1741604E-1,2.187192E-1,1.1919516E0,-3.592034E-2,3.573567E0,6.659217E-1,-8.9977014E-1,3.8387147E-1,-1.8060541E0],"categories":[0,1,2,3,4,5,6,7,8,9,11,12,14,15,16,17,18,19,20,22,23,24,25,8,17,23,6,7,14,15,17,19,0,3,4,5,6,7,8,15,16,20,18,13,10,2,7,10,11,12,13,14,17,18,19,20,21,22,24,25,1,6,7,16,17,18,23,24,0,1,2,3,4,5,6,7,8,9,10,11,12,13,14,15,16,17,18,19,20,21,22,25,14,18,19,0,1,3,4,5,6,7,8,9,10,11,12,13,15,16,17,19,20,21,22,23,24],"categories_nodes":[2,3,10,13,15,17,18,23,24,25,37,38],"categories_segments":[0,23,26,32,42,43,44,45,60,68,92,95],"categories_sizes":[23,3,6,10,1,1,1,15,8,24,3,22],"default_left":[0,0,1,1,0,0,0,0,0,0,1,0,0,1,0,1,0,1,1,0,0,0,0,1,1,1,0,0,0,0,0,0,0,0,0,0,0,1,1,0,0,0,0,0,0,0,0,0,0,0,0,0,0,0,0,0,0,0,0,0,0,0,0,0,0,0,0,0,0,0,0,0,0,0,0,0,0],"id":11,"left_children":[1,3,5,7,9,11,13,-1,-1,-1,15,17,19,21,23,25,27,29,31,33,35,37,39,41,43,45,-1,-1,47,49,51,53,55,-1,57,-1,59,61,63,65,67,69,71,73,75,-1,-1,-1,-1,-1,-1,-1,-1,-1,-1,-1,-1,-1,-1,-1,-1,-1,-1,-1,-1,-1,-1,-1,-1,-1,-1,-1,-1,-1,-1,-1,-1],"loss_changes":[2.785067E2,1.0261194E2,2.3167163E2,3.9349762E1,4.7975517E1,1.6806717E2,2.1210606E2,0E0,0E0,0E0,3.9538754E1,1.18709564E2,9.6312454E1,4.4155545E2,6.265258E2,2.3566217E0,1.5178665E1,1.1786699E2,1.8331915E2,2.4647057E1,3.531942E1,3.8112628E2,4.835683E2,5.308953E2,1.1847916E2,6.2683105E-2,0E0,0E0,3.635247E0,3.918509E1,1.7114676E1,9.174518E1,5.0662065E0,0E0,9.376537E-1,0E0,8.554625E0,2.4199573E2,3.0881528E2,4.358313E2,5.1123663E2,5.848389E2,4.3161353E2,5.4301746E1,6.664996E1,0E0,0E0,0E0,0E0,0E0,0E0,0E0,0E0,0E0,0E0,0E0,0E0,0E0,0E0,0E0,0E0,0E0,0E0,0E0,0E0,0E0,0E0,0E0,0E0,0E0,0E0,0E0,0E0,0E0,0E0,0E0,0E0],"parents":[2147483647,0,0,1,1,2,2,3,3,4,4,5,5,6,6,10,10,11,11,12,12,13,13,14,14,15,15,16,16,17,17,18,18,19,19,20,20,21,21,22,22,23,23,24,24,25,25,28,28,29,29,30,30,31,31,32,32,34,34,36,36,37,37,38,38,39,39,40,40,41,41,42,42,43,43,44,44],"right_children":[2,4,6,8,10,12,14,-1,-1,-1,16,18,20,22,24,26,28,30,32,34,36,38,40,42,44,46,-1,-1,48,50,52,54,56,-1,58,-1,60,62,64,66,68,70,72,74,76,-1,-1,-1,-1,-1,-1,-1,-1,-1,-1,-1,-1,-1,-1,-1,-1,-1,-1,-1,-1,-1,-1,-1,-1,-1,-1,-1,-1,-1,-1,-1,-1],"split_conditions":[-2.3714548E1,4.068276E0,NaN,NaN,1.0983025E7,1.73E2,2.015E3,-6.3011837E-1,-2.7066512E0,-1.5380689E0,NaN,1.6195643E7,-9.697315E0,NaN,6.26E0,NaN,4.766667E0,NaN,NaN,4.02E0,4.08E0,4.06E0,2.0652E4,NaN,NaN,NaN,-2.385521E-3,-9.51014E-1,1.0656646E2,1.41E2,2.018E3,4.22E0,4.08E0,-1.5455283E0,4.46E0,1.2835584E0,2.021E3,NaN,NaN,1.8724344E2,1.5510626E-1,4.6221266E0,2.5514736E7,8.6024E4,-1.739452E1,5.769661E-1,1.5483227E-1,-4.2710212E-1,3.0612374E-2,3.754782E-1,1.4738793E0,2.1587631E-1,-5.783045E-1,9.750535E-1,4.3032317E0,2.267727E-1,-4.6199572E-1,-2.835434E-1,3.9356805E-2,1.9622204E-1,-5.203669E-1,2.6811552E-3,-7.403765E-1,7.8996515E-1,1.3018863E-1,-1.914671E-1,1.0589688E0,-7.8679246E-1,-1.1741604E-1,2.187192E-1,1.1919516E0,-3.592034E-2,3.573567E0,6.659217E-1,-8.9977014E-1,3.8387147E-1,-1.8060541E0],"split_indices":[11,7,0,0,8,13,4,0,0,0,0,8,11,0,3,0,7,0,0,3,3,3,5,0,0,0,0,0,10,13,6,3,3,0,3,0,6,0,0,10,11,7,8,5,11,0,0,0,0,0,0,0,0,0,0,0,0,0,0,0,0,0,0,0,0,0,0,0,0,0,0,0,0,0,0,0,0],"split_type":[0,0,1,1,0,0,0,0,0,0,1,0,0,1,0,1,0,1,1,0,0,0,0,1,1,1,0,0,0,0,0,0,0,0,0,0,0,1,1,0,0,0,0,0,0,0,0,0,0,0,0,0,0,0,0,0,0,0,0,0,0,0,0,0,0,0,0,0,0,0,0,0,0,0,0,0,0],"sum_hessian":[1.869E3,2.2E1,1.847E3,5E0,1.7E1,4.3E1,1.804E3,2E0,3E0,3E0,1.4E1,3E1,1.3E1,1.029E3,7.75E2,4E0,1E1,2.4E1,6E0,5E0,8E0,5.12E2,5.17E2,7.5E2,2.5E1,3E0,1E0,5E0,5E0,1.6E1,8E0,4E0,2E0,3E0,2E0,2E0,6E0,1.77E2,3.35E2,1.04E2,4.13E2,2.63E2,4.87E2,6E0,1.9E1,2E0,1E0,2E0,3E0,5E0,1.1E1,4E0,4E0,2E0,2E0,1E0,1E0,1E0,1E0,5E0,1E0,1.19E2,5.8E1,8.5E1,2.5E2,6.4E1,4E1,1.9E2,2.23E2,1.84E2,7.9E1,4.85E2,2E0,3E0,3E0,1E0,1.8E1],"tree_param":{"num_deleted":"0","num_feature":"14","num_nodes":"77","size_leaf_vector":"1"}},{"base_weights":[1.8616369E-2,-8.538679E-1,1.22447565E-1,-5.271214E-1,-1.4355077E0,-3.834324E-2,8.579253E-1,-1.0572156E0,1.6101874E-1,5.5321068E-2,-2.4075665E0,-1.3505673E-1,1.4473562E0,2.7236347E0,-1.9957751E-2,-1.1507103E0,8.511618E-1,1.2492088E0,-6.68247E-1,1.1749245E0,-1.4130312E0,-1.3263377E0,-3.3793604E0,8.941184E-1,-3.3600202E-1,2.4206958E0,-5.232143E0,6.383537E0,1.737639E0,-4.0483242E-1,4.88211E0,-1.606728E0,-1.09336935E-1,1.5024757E-1,2.2520769E0,-3.8030457E-1,-1.4823607E0,1.6259451E0,-9.062107E-1,-1.13854885E-1,-2.9097612E0,8.898895E-1,-2.419903E0,-1.3026576E0,-5.0013914E0,2.5879967E-1,5.2141128E0,-1.6119534E-1,-1.9407239E0,1.0267031E0,6.7005234E0,-6.667307E0,-1.0537791E0,-2.3202143E0,8.055976E0,8.339712E0,1.1633323E0,4.8797956E0,-7.548919E-1,-2.8170395E-1,7.4921875E0,-1.9335805E-1,-8.406153E-1,4.4132265E-1,-3.6911798E-1,3.703583E-1,-2.8664893E-1,1.053228E0,-1.3919038E-1,2.7372953E-1,-3.9384934E-1,7.394028E-3,7.752779E-1,-6.005972E-1,2.5475666E-1,-3.5989797E-1,-1.2659929E0,-1.6638184E-2,3.642749E-1,-4.758034E-2,-8.2667875E-1,-9.247178E-1,4.6402685E-2,-1.5928684E0,-2.4172784E-1,7.621699E-1,-1.4137776E-1,2.2666862E0,-7.665847E-1,1.7083772E-1,-1.6546297E-1,3.8855305E-1,-1.1084063E0,8.127889E-1,-5.7362046E-2,-3.836248E-1,3.2390165E0,-1.14122204E-1,-2.2533274E0,1.8381329E-1,-5.4405385E-1,6.1209583E-1,-1.3361497E0,3.539791E0,1.0252621E0,-1.4712525E-2,3.0081816E0,2.8628352E0,1.9821215E-1,3.347828E0,-9.779217E-1,1.969438E-2,-8.494987E-1,5.4784817E-1,-8.9948654E-1,7.521506E-1,3.1193016E0],"categories":[0,1,2,5,17,18,19,24,25,0,2,4,5,6,8,9,10,13,14,16,19,22,23,25,0,1,2,5,7,8,9,11,12,14,15,16,17,18,20,22,23,24,3,6,7,8,22,2,17,18,0,2,19,24,8,9,14,15,23,7,9,11,16,20,22,23,4,7,14,16,20,22,6,7,9,20,22,23,19,24,7,9,14,15,16,18,20,24,1,2,3,4,6,7,8,9,10,11,12,13,15,16,18,19,20,21,22,23,25,7,22,15,18,4,5,6,10,13,19,8,9],"categories_nodes":[1,6,11,12,21,22,31,32,33,34,35,40,48,49,52,53,58,59],"categories_segments":[0,9,24,42,47,50,54,59,66,70,72,78,80,88,109,111,113,119],"categories_sizes":[9,15,18,5,3,4,5,7,4,2,6,2,8,21,2,2,6,2],"default_left":[0,1,0,0,0,0,1,0,0,0,0,1,1,0,0,0,0,0,0,0,0,1,1,0,0,0,0,0,0,0,0,1,1,1,1,1,0,0,0,0,1,0,0,0,0,0,0,0,1,1,0,0,1,1,0,0,0,0,1,1,0,0,0,0,0,0,0,0,0,0,0,0,0,0,0,0,0,0,0,0,0,0,0,0,0,0,0,0,0,0,0,0,0,0,0,0,0,0,0,0,0,0,0,0,0,0,0,0,0,0,0,0,0,0,0,0,0],"id":12,"left_children":[1,3,5,7,9,11,13,15,17,19,21,23,25,27,29,31,-1,33,35,37,39,41,43,45,47,49,51,53,55,57,59,61,63,65,67,69,-1,71,-1,73,75,77,79,81,83,85,87,89,91,93,95,97,99,101,103,105,107,109,111,113,115,-1,-1,-1,-1,-1,-1,-1,-1,-1,-1,-1,-1,-1,-1,-1,-1,-1,-1,-1,-1,-1,-1,-1,-1,-1,-1,-1,-1,-1,-1,-1,-1,-1,-1,-1,-1,-1,-1,-1,-1,-1,-1,-1,-1,-1,-1,-1,-1,-1,-1,-1,-1,-1,-1,-1,-1],"loss_changes":[1.6950987E2,3.7063004E1,1.9776038E2,4.7226734E1,1.0302449E2,1.97478E2,4.9141672E2,2.9844704E1,5.2271507E1,4.93354E1,4.0699265E1,2.6708258E2,5.587848E2,3.3533795E2,3.8874615E2,3.4016006E1,0E0,2.7214458E1,3.8722885E1,3.7080837E1,2.4947418E1,5.5472416E1,6.7591354E1,5.777556E2,3.026446E2,4.3460815E2,5.8937134E1,3.098214E2,2.8225247E2,3.570211E2,2.042799E2,5.5701065E1,4.2559814E1,1.6765757E1,4.6071198E1,3.9774216E1,0E0,2.4489056E1,0E0,1.6246925E1,8.381062E0,2.5204144E0,1.0949493E1,2.9007107E1,1.1237396E1,3.093747E2,5.1049335E2,2.7839325E2,6.064044E2,1.1732512E2,6.021306E2,3.9581085E1,6.1755147E0,4.6302086E1,2.5484961E2,8.543088E1,2.969391E2,6.4973596E2,3.0691898E2,3.9832504E1,1.187702E2,0E0,0E0,0E0,0E0,0E0,0E0,0E0,0E0,0E0,0E0,0E0,0E0,0E0,0E0,0E0,0E0,0E0,0E0,0E0,0E0,0E0,0E0,0E0,0E0,0E0,0E0,0E0,0E0,0E0,0E0,0E0,0E0,0E0,0E0,0E0,0E0,0E0,0E0,0E0,0E0,0E0,0E0,0E0,0E0,0E0,0E0,0E0,0E0,0E0,0E0,0E0,0E0,0E0,0E0,0E0,0E0],"parents":[2147483647,0,0,1,1,2,2,3,3,4,4,5,5,6,6,7,7,8,8,9,9,10,10,11,11,12,12,13,13,14,14,15,15,17,17,18,18,19,19,20,20,21,21,22,22,23,23,24,24,25,25,26,26,27,27,28,28,29,29,30,30,31,31,32,32,33,33,34,34,35,35,37,37,39,39,40,40,41,41,42,42,43,43,44,44,45,45,46,46,47,47,48,48,49,49,50,50,51,51,52,52,53,53,54,54,55,55,56,56,57,57,58,58,59,59,60,60],"right_children":[2,4,6,8,10,12,14,16,18,20,22,24,26,28,30,32,-1,34,36,38,40,42,44,46,48,50,52,54,56,58,60,62,64,66,68,70,-1,72,-1,74,76,78,80,82,84,86,88,90,92,94,96,98,100,102,104,106,108,110,112,114,116,-1,-1,-1,-1,-1,-1,-1,-1,-1,-1,-1,-1,-1,-1,-1,-1,-1,-1,-1,-1,-1,-1,-1,-1,-1,-1,-1,-1,-1,-1,-1,-1,-1,-1,-1,-1,-1,-1,-1,-1,-1,-1,-1,-1,-1,-1,-1,-1,-1,-1,-1,-1,-1,-1,-1,-1],"split_conditions":[1E-1,NaN,1.9097926E2,1.5109987E7,1.73E2,2.022E3,NaN,2.017E3,1.778663E7,7.0976424E0,1.538544E0,NaN,NaN,1.9353145E2,1.1E-1,1.74E2,8.511618E-1,1.634201E7,2.022E3,1.24126E5,4.285977E0,NaN,NaN,1.837556E2,1.87E2,1.7741428E2,4.16E0,1.71E2,3.868046E0,1.9153645E2,-1.5181053E0,NaN,NaN,NaN,NaN,NaN,-1.4823607E0,3.76E0,-9.062107E-1,4.0204024E0,NaN,1.8478918E2,3.16E0,1.74E2,4.3794827E0,1.71E2,1.8942123E2,1.1333849E7,NaN,NaN,4.107126E0,2.62E0,NaN,NaN,2.019E3,2.015E3,7.451944E6,2.015E3,NaN,NaN,1.1064874E7,-1.9335805E-1,-8.406153E-1,4.4132265E-1,-3.6911798E-1,3.703583E-1,-2.8664893E-1,1.053228E0,-1.3919038E-1,2.7372953E-1,-3.9384934E-1,7.394028E-3,7.752779E-1,-6.005972E-1,2.5475666E-1,-3.5989797E-1,-1.2659929E0,-1.6638184E-2,3.642749E-1,-4.758034E-2,-8.2667875E-1,-9.247178E-1,4.6402685E-2,-1.5928684E0,-2.4172784E-1,7.621699E-1,-1.4137776E-1,2.2666862E0,-7.665847E-1,1.7083772E-1,-1.6546297E-1,3.8855305E-1,-1.1084063E0,8.127889E-1,-5.7362046E-2,-3.836248E-1,3.2390165E0,-1.14122204E-1,-2.2533274E0,1.8381329E-1,-5.4405385E-1,6.1209583E-1,-1.3361497E0,3.539791E0,1.0252621E0,-1.4712525E-2,3.0081816E0,2.8628352E0,1.9821215E-1,3.347828E0,-9.779217E-1,1.969438E-2,-8.494987E-1,5.4784817E-1,-8.9948654E-1,7.521506E-1,3.1193016E0],"split_indices":[9,0,10,8,13,6,0,4,8,11,11,0,0,10,9,13,0,8,6,5,7,0,0,10,10,10,3,13,7,10,11,0,0,0,0,0,0,3,0,7,0,10,3,13,7,13,10,8,0,0,7,3,0,0,6,4,8,4,0,0,8,0,0,0,0,0,0,0,0,0,0,0,0,0,0,0,0,0,0,0,0,0,0,0,0,0,0,0,0,0,0,0,0,0,0,0,0,0,0,0,0,0,0,0,0,0,0,0,0,0,0,0,0,0,0,0,0],"split_type":[0,1,0,0,0,0,1,0,0,0,0,1,1,0,0,0,0,0,0,0,0,1,1,0,0,0,0,0,0,0,0,1,1,1,1,1,0,0,0,0,1,0,0,0,0,0,0,0,1,1,0,0,1,1,0,0,0,0,1,1,0,0,0,0,0,0,0,0,0,0,0,0,0,0,0,0,0,0,0,0,0,0,0,0,0,0,0,0,0,0,0,0,0,0,0,0,0,0,0,0,0,0,0,0,0,0,0,0,0,0,0,0,0,0,0,0,0],"sum_hessian":[1.869E3,1.98E2,1.671E3,1.28E2,7E1,1.372E3,2.99E2,7.2E1,5.6E1,2.8E1,4.2E1,1.289E3,8.3E1,9.5E1,2.04E2,7.1E1,1E0,2.4E1,3.2E1,1.6E1,1.2E1,2.1E1,2.1E1,2.1E2,1.079E3,7.3E1,1E1,1.9E1,7.6E1,1.9E2,1.4E1,4.9E1,2.2E1,1.2E1,1.2E1,3.1E1,1E0,1.5E1,1E0,7E0,5E0,7E0,1.4E1,1E1,1.1E1,1.84E2,2.6E1,9.74E2,1.05E2,5.6E1,1.7E1,7E0,3E0,3E0,1.6E1,5E0,7.1E1,1.1E1,1.79E2,5E0,9E0,2.8E1,2.1E1,9E0,1.3E1,6E0,6E0,8E0,4E0,1.3E1,1.8E1,6E0,9E0,2E0,5E0,3E0,2E0,2E0,5E0,2E0,1.2E1,4E0,6E0,1E1,1E0,4.4E1,1.4E2,2E1,6E0,3.39E2,6.35E2,3.7E1,6.8E1,2.3E1,3.3E1,6E0,1.1E1,1E0,6E0,1E0,2E0,1E0,2E0,8E0,8E0,1E0,4E0,3E0,6.8E1,6E0,5E0,1.29E2,5E1,3E0,2E0,4E0,5E0],"tree_param":{"num_deleted":"0","num_feature":"14","num_nodes":"117","size_leaf_vector":"1"}},{"base_weights":[1.9017924E-2,-2.4886224E0,5.0217442E-2,-6.00183E-1,-4.169677E0,-5.162425E-1,1.7279316E-1,3.0825007E-1,-1.0284697E0,-2.1015882E0,-2.446105E0,1.0617023E0,-1.4392859E0,4.0878054E-1,-4.779098E-1,-1.534889E0,1.14881516E-1,-1.1942896E0,-4.2202416E-1,3.929009E0,4.1751463E-2,-3.7633845E-1,-2.540228E0,-3.2495832E0,4.683272E-1,-1.3637124E0,4.19029E-1,-5.6330305E-1,-4.5194626E-1,1.6524297E-1,-6.420937E-2,6.2889737E-1,-3.996813E-1,6.1888843E0,-2.5338812E0,2.9471818E-1,-5.533954E0,-1.3179885E0,1.871841E0,-9.0519375E-1,-4.950762E0,-4.3549075E0,2.3311393E0,2.8474946E0,3.920045E-1,-1.0327551E0,-4.356882E0,7.5984116E0,1.2234137E-1,-3.1368257E-3,-2.00239E-1,2.9888994E-1,-1.5886117E-2,-6.1400723E-1,2.1091812E0,3.0027676E-1,-1.6685727E0,-1.1373845E0,2.0839058E-1,-1.9752754E0,-3.5745966E-1,-3.5173967E-2,-1.0478312E0,9.628402E-1,-1.337835E0,1.885838E-1,-1.1167518E0,-1.8294164E0,-5.818113E-2,-1.7934974E0,2.210875E-1,-2.1279583E-2,1.6336776E0,-1.9394504E0,1.3891761E-1,3.7472385E-1,-4.720531E-1,2.4995176E-1,-1.8427336E0,3.33202E-1,2.8727639E0,1.3196401E-1,-1.4270339E0],"categories":[8,14,17,20,23,6,7,10,15,18,19,2,4,6,8,9,11,14,16,18,20,22,23,24,25,5,7,12,15,19,10,15,7,17,6,8,9,9,18,22,24,25],"categories_nodes":[1,3,5,6,16,28,31,38,39],"categories_segments":[0,5,11,25,30,32,33,34,37],"categories_sizes":[5,6,14,5,2,1,1,3,5],"default_left":[0,1,0,1,0,1,1,0,0,0,0,0,0,0,0,0,1,0,0,0,0,0,0,0,0,0,0,0,1,0,0,1,0,0,0,0,0,0,1,1,0,0,0,0,0,0,0,0,0,0,0,0,0,0,0,0,0,0,0,0,0,0,0,0,0,0,0,0,0,0,0,0,0,0,0,0,0,0,0,0,0,0,0],"id":13,"left_children":[1,3,5,7,9,11,13,-1,15,-1,17,19,21,23,25,27,29,-1,31,33,35,37,39,41,43,45,47,-1,49,-1,-1,51,-1,53,55,57,59,61,63,65,67,69,-1,71,73,75,77,79,81,-1,-1,-1,-1,-1,-1,-1,-1,-1,-1,-1,-1,-1,-1,-1,-1,-1,-1,-1,-1,-1,-1,-1,-1,-1,-1,-1,-1,-1,-1,-1,-1,-1,-1],"loss_changes":[1.4642848E2,7.051253E1,1.2840369E2,9.4221325E0,4.1512985E1,4.807203E2,2.3360306E2,0E0,5.966481E0,0E0,2.6280056E1,3.566264E2,2.4245462E2,2.44635E2,3.223483E2,1.7499294E0,6.914201E-1,0E0,5.6208515E0,4.8305228E2,1.2998354E2,2.2898587E2,3.975318E2,2.5309271E2,1.9844516E2,1.9758514E2,4.2933728E2,0E0,2.7846688E-1,0E0,0E0,8.04299E-1,0E0,1.8075854E2,1.0189839E2,1.4643092E2,1.039798E1,1.9805324E2,2.8531723E2,2.702551E2,2.2257355E2,1.4493155E2,0E0,2.5818637E2,5.223563E2,2.3023955E2,1.9046112E2,9.199869E1,3.042078E2,0E0,0E0,0E0,0E0,0E0,0E0,0E0,0E0,0E0,0E0,0E0,0E0,0E0,0E0,0E0,0E0,0E0,0E0,0E0,0E0,0E0,0E0,0E0,0E0,0E0,0E0,0E0,0E0,0E0,0E0,0E0,0E0,0E0,0E0],"parents":[2147483647,0,0,1,1,2,2,3,3,4,4,5,5,6,6,8,8,10,10,11,11,12,12,13,13,14,14,15,15,16,16,18,18,19,19,20,20,21,21,22,22,23,23,24,24,25,25,26,26,28,28,31,31,33,33,34,34,35,35,36,36,37,37,38,38,39,39,40,40,41,41,43,43,44,44,45,45,46,46,47,47,48,48],"right_children":[2,4,6,8,10,12,14,-1,16,-1,18,20,22,24,26,28,30,-1,32,34,36,38,40,42,44,46,48,-1,50,-1,-1,52,-1,54,56,58,60,62,64,66,68,70,-1,72,74,76,78,80,82,-1,-1,-1,-1,-1,-1,-1,-1,-1,-1,-1,-1,-1,-1,-1,-1,-1,-1,-1,-1,-1,-1,-1,-1,-1,-1,-1,-1,-1,-1,-1,-1,-1,-1],"split_conditions":[-2.3714548E1,NaN,3.48E0,NaN,4.068276E0,NaN,NaN,3.0825007E-1,4.76E0,-2.1015882E0,1.1142002E7,1.0142436E7,1.7041374E2,3.7822413E0,2.6059464E-1,1.9924413E2,NaN,-1.1942896E0,2.015E3,1.74E2,3.42E0,1.49E2,9.697727E-1,1.958715E2,3.891322E0,-7.801487E-1,3.9001725E0,-5.6330305E-1,NaN,1.6524297E-1,-6.420937E-2,NaN,-3.996813E-1,9.19E2,3.34E0,2.012E3,2.016E3,6.5715E4,NaN,NaN,1.74E2,1.8248814E7,2.3311393E0,1.73E2,3.9095976E0,1.71E2,4.259598E0,4.384066E0,1.08474E5,-3.1368257E-3,-2.00239E-1,2.9888994E-1,-1.5886117E-2,-6.1400723E-1,2.1091812E0,3.0027676E-1,-1.6685727E0,-1.1373845E0,2.0839058E-1,-1.9752754E0,-3.5745966E-1,-3.5173967E-2,-1.0478312E0,9.628402E-1,-1.337835E0,1.885838E-1,-1.1167518E0,-1.8294164E0,-5.818113E-2,-1.7934974E0,2.210875E-1,-2.1279583E-2,1.6336776E0,-1.9394504E0,1.3891761E-1,3.7472385E-1,-4.720531E-1,2.4995176E-1,-1.8427336E0,3.33202E-1,2.8727639E0,1.3196401E-1,-1.4270339E0],"split_indices":[11,0,3,0,7,0,0,0,3,0,8,8,10,7,11,10,0,0,4,13,3,10,11,10,7,11,7,0,0,0,0,0,0,5,3,4,4,5,0,0,13,8,0,13,7,13,7,11,5,0,0,0,0,0,0,0,0,0,0,0,0,0,0,0,0,0,0,0,0,0,0,0,0,0,0,0,0,0,0,0,0,0,0],"split_type":[0,1,0,1,0,1,1,0,0,0,0,0,0,0,0,0,1,0,0,0,0,0,0,0,0,0,0,0,1,0,0,1,0,0,0,0,0,0,1,1,0,0,0,0,0,0,0,0,0,0,0,0,0,0,0,0,0,0,0,0,0,0,0,0,0,0,0,0,0,0,0,0,0,0,0,0,0,0,0,0,0,0,0],"sum_hessian":[1.869E3,2.2E1,1.847E3,1.1E1,1.1E1,3.28E2,1.519E3,2E0,9E0,3E0,8E0,1.21E2,2.07E2,1.115E3,4.04E2,6E0,3E0,4E0,4E0,3.1E1,9E1,1.06E2,1.01E2,1.7E1,1.098E3,2.03E2,2.01E2,4E0,2E0,1E0,2E0,2E0,2E0,2.3E1,8E0,8.7E1,3E0,7.5E1,3.1E1,6.1E1,4E1,1.6E1,1E0,3.3E1,1.065E3,1.84E2,1.9E1,7E0,1.94E2,1E0,1E0,1E0,1E0,2E0,2.1E1,4E0,4E0,7E0,8E1,2E0,1E0,4.9E1,2.6E1,2.6E1,5E0,4E1,2.1E1,3.2E1,8E0,1.2E1,4E0,1.6E1,1.7E1,1E1,1.055E3,3.5E1,1.49E2,5E0,1.4E1,2E0,5E0,1.83E2,1.1E1],"tree_param":{"num_deleted":"0","num_feature":"14","num_nodes":"83","size_leaf_vector":"1"}},{"base_weights":[7.758635E-3,4.509305E-2,-1.7462004E0,-1.587407E-2,1.4936886E0,-2.522899E0,8.415149E0,2.1979231E-2,-4.4184165E0,3.507636E0,-2.1284577E-1,2.2344382E0,-3.5157526E0,3.00435E0,7.8246695E-1,-7.7103213E-3,3.2307882E0,3.6297274E0,-6.7329297E0,4.865065E0,-3.6378765E0,1.8260471E0,-2.2416031E0,-5.684242E-1,1.3436074E0,-2.5829427E0,-3.4082992E0,-3.9568892E-1,2.0772408E-1,-3.7024205E0,5.850393E0,1.4549108E0,-4.5295716E-3,-9.229047E0,-1.392556E0,6.4462895E0,-1.0253953E0,3.1333923E-2,-1.6440946E0,-2.4349313E0,3.6927671E0,4.1936465E-2,-5.957597E0,1.6211987E-1,-3.3544964E-1,-3.7658048E0,9.927957E-1,-2.0382583E0,-9.97246E-2,-5.0881607E-3,4.362488E-1,4.1775972E-1,-1.5972875E0,3.3559418E-1,2.0054634E0,-3.0818136E0,-1.2196102E0,-2.1263696E-2,-5.1157665E-1,5.007148E-1,2.123827E0,1.0529921E0,-7.098857E-1,9.347019E-2,-7.936993E-2,2.7921697E-1,-1.557556E0,1.2953918E0,-7.590163E-1,4.015979E-1,-2.5223198E0,-8.7096775E-1,-2.4858484E0,-2.6508088E0,-5.2643883E-1,8.892014E-1,-2.3481914E-1],"categories":[0,1,2,3,4,5,6,7,8,9,10,11,12,13,14,15,16,18,19,20,21,22,23,24,25,1,17,19,20,24,17,19,19,21,18,20,24,1,19,24,17,18,24,20,1,18,24],"categories_nodes":[6,8,20,23,29,34,36,37,42],"categories_segments":[0,25,30,32,34,37,40,43,44],"categories_sizes":[25,5,2,2,3,3,3,1,3],"default_left":[0,0,0,0,0,0,1,0,1,0,0,0,0,0,0,0,0,0,0,0,1,0,0,1,0,0,0,0,0,1,0,0,0,0,1,0,1,1,0,0,0,0,1,0,0,0,0,0,0,0,0,0,0,0,0,0,0,0,0,0,0,0,0,0,0,0,0,0,0,0,0,0,0,0,0,0,0],"id":14,"left_children":[1,3,5,7,9,11,13,15,17,19,21,23,25,-1,-1,27,29,31,33,35,37,39,41,43,-1,45,-1,47,49,51,53,-1,-1,55,57,59,61,63,-1,65,67,69,71,-1,-1,73,75,-1,-1,-1,-1,-1,-1,-1,-1,-1,-1,-1,-1,-1,-1,-1,-1,-1,-1,-1,-1,-1,-1,-1,-1,-1,-1,-1,-1,-1,-1],"loss_changes":[1.2253201E2,1.6181989E2,3.2903046E2,2.9323578E2,2.5507501E2,1.8261928E2,1.7418976E0,1.6626775E2,3.0385178E2,3.4748236E2,1.7368645E2,4.6578125E1,1.97517E2,0E0,0E0,1.4468242E2,3.122569E2,1.7859604E1,1.4711041E2,2.7672003E2,4.0733498E1,1.7602676E2,1.7844785E2,3.0425203E0,0E0,1.263972E2,0E0,2.4794284E2,3.117265E2,4.8731033E1,3.9904816E1,0E0,0E0,1.3508301E0,1.9455719E0,5.775055E1,5.0875626E1,3.3119372E-1,0E0,6.9784096E1,6.928281E1,1.6465141E2,3.2841797E1,0E0,0E0,2.0881244E2,3.031948E1,0E0,0E0,0E0,0E0,0E0,0E0,0E0,0E0,0E0,0E0,0E0,0E0,0E0,0E0,0E0,0E0,0E0,0E0,0E0,0E0,0E0,0E0,0E0,0E0,0E0,0E0,0E0,0E0,0E0,0E0],"parents":[2147483647,0,0,1,1,2,2,3,3,4,4,5,5,6,6,7,7,8,8,9,9,10,10,11,11,12,12,15,15,16,16,17,17,18,18,19,19,20,20,21,21,22,22,23,23,25,25,27,27,28,28,29,29,30,30,33,33,34,34,35,35,36,36,37,37,39,39,40,40,41,41,42,42,45,45,46,46],"right_children":[2,4,6,8,10,12,14,16,18,20,22,24,26,-1,-1,28,30,32,34,36,38,40,42,44,-1,46,-1,48,50,52,54,-1,-1,56,58,60,62,64,-1,66,68,70,72,-1,-1,74,76,-1,-1,-1,-1,-1,-1,-1,-1,-1,-1,-1,-1,-1,-1,-1,-1,-1,-1,-1,-1,-1,-1,-1,-1,-1,-1,-1,-1,-1,-1],"split_conditions":[1.307E5,1.18607E5,1.9525812E7,1.1721E5,4.06E0,4.0247703E0,NaN,1.15296E5,NaN,1.778663E7,1.72E2,1.8533145E2,7.285049E0,3.00435E0,7.8246695E-1,4.2806897E0,3.12E0,1.18052E5,1.73E2,4.71431E0,NaN,1.58E2,1.25565E5,NaN,1.3436074E0,1.0495179E0,-3.4082992E0,5.8784775E6,2.021E3,NaN,1.0587057E2,1.4549108E0,-4.5295716E-3,1.4802014E7,NaN,1E-1,NaN,NaN,-1.6440946E0,1.220085E7,6.26E0,1.9866357E2,NaN,1.6211987E-1,-3.3544964E-1,1.71E2,1.72E2,-2.0382583E0,-9.97246E-2,-5.0881607E-3,4.362488E-1,4.1775972E-1,-1.5972875E0,3.3559418E-1,2.0054634E0,-3.0818136E0,-1.2196102E0,-2.1263696E-2,-5.1157665E-1,5.007148E-1,2.123827E0,1.0529921E0,-7.098857E-1,9.347019E-2,-7.936993E-2,2.7921697E-1,-1.557556E0,1.2953918E0,-7.590163E-1,4.015979E-1,-2.5223198E0,-8.7096775E-1,-2.4858484E0,-2.6508088E0,-5.2643883E-1,8.892014E-1,-2.3481914E-1],"split_indices":[5,5,8,5,3,7,0,5,0,8,13,10,11,0,0,7,3,5,13,7,0,10,5,0,0,11,0,8,6,0,10,0,0,8,0,9,0,0,0,8,3,10,0,0,0,13,13,0,0,0,0,0,0,0,0,0,0,0,0,0,0,0,0,0,0,0,0,0,0,0,0,0,0,0,0,0,0],"split_type":[0,0,0,0,0,0,1,0,1,0,0,0,0,0,0,0,0,0,0,0,1,0,0,1,0,0,0,0,0,1,0,0,0,0,1,0,1,1,0,0,0,0,1,0,0,0,0,0,0,0,0,0,0,0,0,0,0,0,0,0,0,0,0,0,0,0,0,0,0,0,0,0,0,0,0,0,0],"sum_hessian":[1.869E3,1.831E3,3.8E1,1.758E3,7.3E1,3.6E1,2E0,1.744E3,1.4E1,3.3E1,4E1,6E0,3E1,1E0,1E0,1.729E3,1.5E1,3E0,1.1E1,2.8E1,5E0,2E1,2E1,3E0,3E0,2.8E1,2E0,6.17E2,1.112E3,4E0,1.1E1,2E0,1E0,7E0,4E0,2.2E1,6E0,2E0,3E0,6E0,1.4E1,1.3E1,7E0,1E0,2E0,2.1E1,7E0,5E0,6.12E2,9.43E2,1.69E2,1E0,3E0,2E0,9E0,5E0,2E0,1E0,3E0,3E0,1.9E1,1E0,5E0,1E0,1E0,3E0,3E0,1.3E1,1E0,1.2E1,1E0,4E0,3E0,5E0,1.6E1,3E0,4E0],"tree_param":{"num_deleted":"0","num_feature":"14","num_nodes":"77","size_leaf_vector":"1"}},{"base_weights":[1.9844994E-4,6.0759168E-2,-8.914198E-1,-5.2845035E-2,7.2484016E-1,-2.6184702E-1,-2.4576504E0,3.5101655E-1,-3.507605E-1,4.2428226E0,2.0333005E-1,1.193168E0,-1.1461738E0,-1.4405099E0,-4.4534435E0,-4.8735075E0,4.3378246E-1,-5.095288E-1,1.4528686E0,7.8971996E0,7.5877476E-1,1.6724339E0,-1.0166042E0,1.649343E-1,4.3857813E0,9.5650715E-1,-1.3742012E0,-2.0148073E-1,-2.8865006E0,-6.464287E-1,-1.6377457E0,-9.8088264E-1,-2.191533E0,6.687038E-1,-1.2529117E0,1.399783E0,-6.371579E-1,6.0032163E0,-6.1979514E-1,2.8314984E0,3.7555988E0,2.4403338E0,-4.101346E0,2.7761872E0,2.1265322E-1,-6.479696E0,-6.8106365E-1,-1.0582986E0,1.680231E0,5.169317E0,-1.648447E-1,-1.8919718E0,9.8963296E-1,-8.6231476E-1,7.888E-1,-3.3234262E0,-1.8406716E-1,3.266436E-1,-5.311528E-1,1.177006E-2,5.711231E-1,7.144401E-2,-1.3666766E0,1.4591126E0,-3.8288733E-1,-4.40945E-1,-5.445045E-2,-5.105889E-1,2.1928203E0,-8.518294E-1,4.358814E-1,1.2505033E0,2.5378075E-1,-3.5144606E-1,1.0595624E0,-3.1222516E-1,-1.3818922E0,-7.396419E-2,1.123071E0,5.99542E-1,-8.538764E-1,-2.2624695E0,-7.6500475E-1,-1.0165521E0,-2.6368463E-2,-7.7019763E-1,3.0991924E-1,-5.9367374E-2,6.9847786E-1,1.6642371E0,4.350715E-1,-1.4983104E-1,-9.243472E-1,-1.410874E0,9.001902E-1,-1.9664872E-2,5.4813886E-1,-1.0659878E0,-2.2267428E-1],"categories":[0,2,3,5,7,12,14,15,17,18,20,22,23,25,7,9,11,14,15,16,17,18,22,0,1,2,3,4,5,6,7,10,11,12,13,14,16,18,19,20,21,25,3,4,6,8,9,10,11,12,13,15,16,19,21,23,24,25,1,5,6,18,19,20,8,16,0,1,3,4,5,6,7,8,9,10,11,12,13,16,17,19,20,21,22,24,25,20,9,0,1,2,3,4,5,6,7,8,10,11,12,13,14,15,16,17,18,19,20,21,23,25,6,14,16,17,18,20,0,1,2,3,4,6,7,8,9,10,11,12,13,14,15,16,17,18,20,21,22,24,25],"categories_nodes":[3,5,9,10,13,15,18,24,31,40,42,44,49],"categories_segments":[0,14,23,42,58,64,66,87,88,89,112,115,118],"categories_sizes":[14,9,19,16,6,2,21,1,1,23,3,3,23],"default_left":[0,0,0,1,0,1,0,0,0,1,1,0,0,1,0,1,0,0,1,0,0,0,0,0,1,0,0,0,0,0,0,1,0,0,0,0,0,0,0,0,1,0,1,0,1,0,0,0,0,1,0,0,0,0,0,0,0,0,0,0,0,0,0,0,0,0,0,0,0,0,0,0,0,0,0,0,0,0,0,0,0,0,0,0,0,0,0,0,0,0,0,0,0,0,0,0,0,0,0],"id":15,"left_children":[1,3,5,7,9,11,13,15,17,19,21,23,25,27,29,31,33,35,37,39,41,43,45,47,49,-1,51,53,55,-1,-1,57,-1,59,61,63,65,67,69,-1,71,73,75,77,79,81,83,85,87,89,-1,91,93,-1,95,97,-1,-1,-1,-1,-1,-1,-1,-1,-1,-1,-1,-1,-1,-1,-1,-1,-1,-1,-1,-1,-1,-1,-1,-1,-1,-1,-1,-1,-1,-1,-1,-1,-1,-1,-1,-1,-1,-1,-1,-1,-1,-1,-1],"loss_changes":[1.01028625E2,1.3221336E2,1.1669716E2,1.8023708E2,4.688111E2,1.12024536E2,6.2604828E1,2.7712836E2,2.4758186E2,4.141646E2,4.031552E2,1.07607475E2,5.7754578E1,4.241742E1,1.3666672E1,8.748767E1,2.4928058E2,1.9413315E2,6.639147E2,6.6677185E1,1.5711508E2,1.6375589E2,2.2105687E2,4.9970768E1,3.3776077E1,0E0,6.551641E1,3.9324238E1,8.885063E0,0E0,0E0,1.009918E1,0E0,4.282842E2,3.8027014E2,4.6969357E2,2.820115E2,2.3385681E2,2.2956047E2,0E0,3.6795502E0,5.933185E1,2.9333954E0,1.7052316E2,2.5150783E2,9.978516E0,1.8760074E2,4.9991043E1,1.5065662E1,1.7991791E0,0E0,6.9668396E1,1.2858887E2,0E0,9.877827E0,2.702507E0,0E0,0E0,0E0,0E0,0E0,0E0,0E0,0E0,0E0,0E0,0E0,0E0,0E0,0E0,0E0,0E0,0E0,0E0,0E0,0E0,0E0,0E0,0E0,0E0,0E0,0E0,0E0,0E0,0E0,0E0,0E0,0E0,0E0,0E0,0E0,0E0,0E0,0E0,0E0,0E0,0E0,0E0,0E0],"parents":[2147483647,0,0,1,1,2,2,3,3,4,4,5,5,6,6,7,7,8,8,9,9,10,10,11,11,12,12,13,13,14,14,15,15,16,16,17,17,18,18,19,19,20,20,21,21,22,22,23,23,24,24,26,26,27,27,28,28,31,31,33,33,34,34,35,35,36,36,37,37,38,38,40,40,41,41,42,42,43,43,44,44,45,45,46,46,47,47,48,48,49,49,51,51,52,52,54,54,55,55],"right_children":[2,4,6,8,10,12,14,16,18,20,22,24,26,28,30,32,34,36,38,40,42,44,46,48,50,-1,52,54,56,-1,-1,58,-1,60,62,64,66,68,70,-1,72,74,76,78,80,82,84,86,88,90,-1,92,94,-1,96,98,-1,-1,-1,-1,-1,-1,-1,-1,-1,-1,-1,-1,-1,-1,-1,-1,-1,-1,-1,-1,-1,-1,-1,-1,-1,-1,-1,-1,-1,-1,-1,-1,-1,-1,-1,-1,-1,-1,-1,-1,-1,-1,-1],"split_conditions":[5.353793E0,1.74E2,8.1847E4,NaN,4.0247703E0,NaN,1.74E2,3.833908E0,2.7E-1,NaN,NaN,1.555821E7,2.015E3,NaN,-3.437054E0,NaN,1.08474E5,3.918678E0,NaN,5.351588E0,4.82E0,2.019E3,4.068276E0,2.019E3,NaN,9.5650715E-1,7.2E-1,5.380115E0,2.513319E0,-6.464287E-1,-1.6377457E0,NaN,-2.191533E0,7.6001E4,1.5801454E7,2.018E3,4.2806897E0,2.017E3,2.3173662E-2,2.8314984E0,NaN,1.287642E7,NaN,1E-1,NaN,1.7702254E7,1.08669655E2,5.449425E0,1.1E-1,NaN,-1.648447E-1,1.1375663E2,2.012E3,-8.6231476E-1,1.10571E5,5.44E0,-1.8406716E-1,3.266436E-1,-5.311528E-1,1.177006E-2,5.711231E-1,7.144401E-2,-1.3666766E0,1.4591126E0,-3.8288733E-1,-4.40945E-1,-5.445045E-2,-5.105889E-1,2.1928203E0,-8.518294E-1,4.358814E-1,1.2505033E0,2.5378075E-1,-3.5144606E-1,1.0595624E0,-3.1222516E-1,-1.3818922E0,-7.396419E-2,1.123071E0,5.99542E-1,-8.538764E-1,-2.2624695E0,-7.6500475E-1,-1.0165521E0,-2.6368463E-2,-7.7019763E-1,3.0991924E-1,-5.9367374E-2,6.9847786E-1,1.6642371E0,4.350715E-1,-1.4983104E-1,-9.243472E-1,-1.410874E0,9.001902E-1,-1.9664872E-2,5.4813886E-1,-1.0659878E0,-2.2267428E-1],"split_indices":[7,13,5,0,7,0,13,7,9,0,0,8,6,0,11,0,5,7,0,11,3,6,7,6,0,0,9,7,11,0,0,0,0,5,8,6,7,6,11,0,0,8,0,9,0,8,10,7,9,0,0,10,4,0,5,3,0,0,0,0,0,0,0,0,0,0,0,0,0,0,0,0,0,0,0,0,0,0,0,0,0,0,0,0,0,0,0,0,0,0,0,0,0,0,0,0,0,0,0],"split_type":[0,0,0,1,0,1,0,0,0,1,1,0,0,1,0,1,0,0,1,0,0,0,0,0,1,0,0,0,0,0,0,1,0,0,0,0,0,0,0,0,1,0,1,0,1,0,0,0,0,1,0,0,0,0,0,0,0,0,0,0,0,0,0,0,0,0,0,0,0,0,0,0,0,0,0,0,0,0,0,0,0,0,0,0,0,0,0,0,0,0,0,0,0,0,0,0,0,0,0],"sum_hessian":[1.869E3,1.751E3,1.18E2,1.496E3,2.55E2,8.5E1,3.3E1,6.35E2,8.61E2,3.2E1,2.23E2,3.2E1,5.3E1,2.3E1,1E1,9E0,6.26E2,7.92E2,6.9E1,1.5E1,1.7E1,1.01E2,1.22E2,2.5E1,7E0,2E0,5.1E1,1.3E1,1E1,4E0,6E0,4E0,5E0,5.5E2,7.6E1,4.9E1,7.43E2,2.1E1,4.8E1,1E1,5E0,1.3E1,4E0,5.7E1,4.4E1,6E0,1.16E2,1.4E1,1.1E1,6E0,1E0,4.2E1,9E0,3E0,1E1,8E0,2E0,1E0,3E0,3.65E2,1.85E2,5.3E1,2.3E1,2.1E1,2.8E1,2.62E2,4.81E2,3E0,1.8E1,2.3E1,2.5E1,4E0,1E0,3E0,1E1,1E0,3E0,1.4E1,4.3E1,2.8E1,1.6E1,4E0,2E0,2E1,9.6E1,8E0,6E0,3E0,8E0,5E0,1E0,2E1,2.2E1,2E0,7E0,6E0,4E0,7E0,1E0],"tree_param":{"num_deleted":"0","num_feature":"14","num_nodes":"99","size_leaf_vector":"1"}},{"base_weights":[-1.8890941E-3,-1.7555508E-1,3.2204208E-1,6.6667354E-1,-4.2187485E-1,1.5650517E0,-2.832445E-1,5.367647E-1,3.6928377E0,-1.7030863E-1,-1.5983607E0,1.8984978E0,-2.171278E0,1.186188E0,-7.531428E-1,-5.3205085E-1,1.3486383E0,-8.6336374E-1,1.6728556E-1,1.9244197E-1,-2.6955743E0,4.02892E0,1.1851475E0,4.814968E-1,-4.8775525E0,-8.632793E-1,4.256634E0,-1.7899392E0,3.3249938E-1,-4.1385368E-2,-9.76602E0,4.0673366E0,6.1423767E-1,-4.4675684E-1,-3.8592732E0,-4.0324667E-1,1.3372308E0,2.6951134E0,-2.3604593E-1,9.8578654E-2,-3.9562993E0,5.4031954E0,-1.9239616E-1,3.10394E-1,2.9109516E0,2.671401E0,-8.3866227E-1,-3.2352707E-1,-5.217641E0,-5.1271214E0,1.00227885E-1,2.5275257E0,1.1505543E1,-3.991408E-1,-2.8468456E0,1.7758693E0,-8.4488374E-1,1.6280292E-1,-1.3862522E0,-3.2646828E0,-6.277113E-1,1.5618552E0,-1.0054337E0,-1.0763386E0,3.0429268E-1,5.380615E-1,-2.6916182E-1,5.5597484E-1,-1.4322635E0,2.6721987E-1,-2.9779932E-1,1.301813E0,3.1792376E-2,-3.6664596E-1,6.1799836E-1,8.271305E-1,-2.5872982E-1,-6.949351E-1,-1.9628557E0,1.0618466E0,3.2424357E0,-1.8256799E0,4.2969948E-1,1.6395848E0,-5.9178732E-2,1.119038E0,-1.1154051E0,9.780118E-1,1.3582307E-1,3.9861977E-1,-8.389175E-1,-1.6776663E0,-3.8933718E-1,-8.553818E-2,-2.2537434E0,6.1655915E-1,-4.2495894E-1,1.4160833E0,-3.7661713E-1,3.9432297E0,5.347824E-3,5.5842245E-1,-5.1284367E-1,2.3238774E-1,-1.0878274E0,1.3438077E0,-8.319877E-2,-3.0354024E-3,-1.9018745E0],"categories":[2,3,4,6,7,8,9,11,14,15,17,18,19,22,23,24,25,0,1,5,7,9,10,12,15,16,18,19,20,22,24,4,6,8,9,15,17,18,19,23,0,1,2,3,4,5,6,8,10,11,12,13,14,16,17,18,19,21,23,24,25,3,4,6,7,8,9,14,15,17,18,23,24,2,3,7,8,9,11,14,15,17,19,23,25,4,6,8,9,17,18,23,0,1,2,3,4,5,6,7,8,9,10,11,12,13,14,15,16,18,19,20,21,22,24,25,5,9,18,22,24,5,7,16,18,20,24,0,1,2,3,4,6,7,8,9,10,11,12,13,14,15,17,20,21,22,23,25],"categories_nodes":[1,2,10,28,34,35,39,45,49,50,52],"categories_segments":[0,17,31,40,61,73,85,92,116,121,127],"categories_sizes":[17,14,9,21,12,12,7,24,5,6,21],"default_left":[0,1,1,0,0,0,0,0,0,0,1,0,0,0,0,0,0,0,0,0,0,0,0,0,0,0,0,0,1,0,0,0,0,0,1,1,0,0,0,1,0,0,0,0,0,1,0,0,0,1,1,0,1,0,0,0,0,0,0,0,0,0,0,0,0,0,0,0,0,0,0,0,0,0,0,0,0,0,0,0,0,0,0,0,0,0,0,0,0,0,0,0,0,0,0,0,0,0,0,0,0,0,0,0,0,0,0,0,0],"id":16,"left_children":[1,3,5,7,9,11,13,15,-1,17,19,21,23,25,27,29,31,33,35,37,39,41,43,45,47,49,51,53,55,57,59,61,63,65,67,69,71,-1,73,75,77,79,81,83,85,87,89,-1,91,93,95,97,99,101,103,105,107,-1,-1,-1,-1,-1,-1,-1,-1,-1,-1,-1,-1,-1,-1,-1,-1,-1,-1,-1,-1,-1,-1,-1,-1,-1,-1,-1,-1,-1,-1,-1,-1,-1,-1,-1,-1,-1,-1,-1,-1,-1,-1,-1,-1,-1,-1,-1,-1,-1,-1,-1,-1],"loss_changes":[1.0525494E2,2.5296458E2,4.917455E2,4.10843E2,2.7882196E2,2.7073724E2,3.047062E2,2.3847916E2,0E0,1.8217416E2,3.2669104E2,2.9461334E2,1.31573E2,6.7700195E2,3.7654218E2,5.387598E2,3.089735E2,3.1654553E2,3.5030478E2,2.4320554E2,3.6322375E2,2.8530084E2,2.240348E2,3.1150625E1,6.0015106E0,2.6754965E2,5.0988788E2,2.5022406E2,2.802019E2,3.0742166E2,2.8624756E1,2.9626062E2,2.120971E2,2.2866548E2,1.7087265E2,2.7011533E2,6.353228E2,0E0,1.4289442E2,8.6688545E1,2.8599426E2,3.34453E2,1.3318965E2,2.6276935E2,2.853828E2,3.74798E0,3.341786E1,0E0,4.488846E0,1.3645657E2,1.6303284E2,3.045457E2,1.503518E2,2.2533827E2,2.7654443E2,4.120015E2,4.173333E2,0E0,0E0,0E0,0E0,0E0,0E0,0E0,0E0,0E0,0E0,0E0,0E0,0E0,0E0,0E0,0E0,0E0,0E0,0E0,0E0,0E0,0E0,0E0,0E0,0E0,0E0,0E0,0E0,0E0,0E0,0E0,0E0,0E0,0E0,0E0,0E0,0E0,0E0,0E0,0E0,0E0,0E0,0E0,0E0,0E0,0E0,0E0,0E0,0E0,0E0,0E0,0E0],"parents":[2147483647,0,0,1,1,2,2,3,3,4,4,5,5,6,6,7,7,9,9,10,10,11,11,12,12,13,13,14,14,15,15,16,16,17,17,18,18,19,19,20,20,21,21,22,22,23,23,24,24,25,25,26,26,27,27,28,28,29,29,30,30,31,31,32,32,33,33,34,34,35,35,36,36,38,38,39,39,40,40,41,41,42,42,43,43,44,44,45,45,46,46,48,48,49,49,50,50,51,51,52,52,53,53,54,54,55,55,56,56],"right_children":[2,4,6,8,10,12,14,16,-1,18,20,22,24,26,28,30,32,34,36,38,40,42,44,46,48,50,52,54,56,58,60,62,64,66,68,70,72,-1,74,76,78,80,82,84,86,88,90,-1,92,94,96,98,100,102,104,106,108,-1,-1,-1,-1,-1,-1,-1,-1,-1,-1,-1,-1,-1,-1,-1,-1,-1,-1,-1,-1,-1,-1,-1,-1,-1,-1,-1,-1,-1,-1,-1,-1,-1,-1,-1,-1,-1,-1,-1,-1,-1,-1,-1,-1,-1,-1,-1,-1,-1,-1,-1,-1],"split_conditions":[4.72E0,NaN,NaN,2.5514736E7,1.7443338E7,6.32E0,4.98E0,6.1422E4,3.6928377E0,4.647E4,NaN,-5.095727E0,7.209E4,1.7928545E2,2.3173662E-2,6.011E4,9.647705E6,4.338E4,1.377369E7,2.016E3,1.53E2,8.2124E4,1.5869015E7,1.2226043E7,-1.265958E1,1.71E2,2.021E3,1.6542007E2,NaN,1.0180102E1,3.86E0,4.58E0,1.0287644E7,3.08E0,NaN,NaN,6.827E4,2.6951134E0,2.0623858E7,NaN,4.08E0,2.015E3,6.3113515E6,8.191931E6,2.3259316E7,NaN,1.6802945E2,-3.2352707E-1,9.4043E4,NaN,NaN,1.9353145E2,NaN,4.5552874E0,-1.1409512E1,1.3042257E7,1.9513672E2,1.6280292E-1,-1.3862522E0,-3.2646828E0,-6.277113E-1,1.5618552E0,-1.0054337E0,-1.0763386E0,3.0429268E-1,5.380615E-1,-2.6916182E-1,5.5597484E-1,-1.4322635E0,2.6721987E-1,-2.9779932E-1,1.301813E0,3.1792376E-2,-3.6664596E-1,6.1799836E-1,8.271305E-1,-2.5872982E-1,-6.949351E-1,-1.9628557E0,1.0618466E0,3.2424357E0,-1.8256799E0,4.2969948E-1,1.6395848E0,-5.9178732E-2,1.119038E0,-1.1154051E0,9.780118E-1,1.3582307E-1,3.9861977E-1,-8.389175E-1,-1.6776663E0,-3.8933718E-1,-8.553818E-2,-2.2537434E0,6.1655915E-1,-4.2495894E-1,1.4160833E0,-3.7661713E-1,3.9432297E0,5.347824E-3,5.5842245E-1,-5.1284367E-1,2.3238774E-1,-1.0878274E0,1.3438077E0,-8.319877E-2,-3.0354024E-3,-1.9018745E0],"split_indices":[3,0,0,8,8,3,3,5,0,5,0,11,5,10,11,5,8,5,8,6,10,5,8,8,11,13,6,10,0,11,3,3,8,3,0,0,5,0,8,0,3,4,8,8,8,0,10,0,5,0,0,10,0,7,11,8,10,0,0,0,0,0,0,0,0,0,0,0,0,0,0,0,0,0,0,0,0,0,0,0,0,0,0,0,0,0,0,0,0,0,0,0,0,0,0,0,0,0,0,0,0,0,0,0,0,0,0,0,0],"split_type":[0,1,1,0,0,0,0,0,0,0,1,0,0,0,0,0,0,0,0,0,0,0,0,0,0,0,0,0,1,0,0,0,0,0,1,1,0,0,0,1,0,0,0,0,0,1,0,0,0,1,1,0,1,0,0,0,0,0,0,0,0,0,0,0,0,0,0,0,0,0,0,0,0,0,0,0,0,0,0,0,0,0,0,0,0,0,0,0,0,0,0,0,0,0,0,0,0,0,0,0,0,0,0,0,0,0,0,0,0],"sum_hessian":[1.869E3,1.217E3,6.52E2,2.75E2,9.42E2,2.13E2,4.39E2,2.73E2,2E0,7.77E2,1.65E2,1.96E2,1.7E1,1.06E2,3.33E2,1.18E2,1.55E2,2.54E2,5.23E2,6.3E1,1.02E2,4.8E1,1.48E2,9E0,8E0,6.4E1,4.2E1,1.7E2,1.63E2,1.13E2,5E0,3.2E1,1.23E2,2.24E2,3E1,3.52E2,1.71E2,2E0,6.1E1,3.2E1,7E1,3.6E1,1.2E1,9.9E1,4.9E1,3E0,6E0,1E0,7E0,1.1E1,5.3E1,3.5E1,7E0,7.4E1,9.6E1,7.3E1,9E1,1.01E2,1.2E1,4E0,1E0,2.8E1,4E0,1E1,1.13E2,3.7E1,1.87E2,4E0,2.6E1,1.1E2,2.42E2,4.9E1,1.22E2,4.3E1,1.8E1,8E0,2.4E1,4.4E1,2.6E1,2.8E1,8E0,2E0,1E1,8E0,9.1E1,4.4E1,5E0,2E0,1E0,3E0,3E0,6E0,1E0,4E0,7E0,2.3E1,3E1,2.2E1,1.3E1,6E0,1E0,2.7E1,4.7E1,1.7E1,7.9E1,3.1E1,4.2E1,7.9E1,1.1E1],"tree_param":{"num_deleted":"0","num_feature":"14","num_nodes":"109","size_leaf_vector":"1"}},{"base_weights":[8.570003E-4,-2.6216134E-1,2.4779356E-1,3.8063133E-1,-4.6885964E-1,5.6252375E-2,1.720946E0,5.6280756E-1,-6.2411523E0,1.4906296E-1,-7.531582E-1,-1.4334375E0,2.7126607E-1,3.047384E0,-2.3198307E0,1.4935886E0,